{"learner":{"attributes":{"scikit_learn":"{\"_estimator_type\": \"classifier\"}"},"feature_names":["Age","Drinking","Chronic","Diabetes","HDLC","LDLC","PTINR"],"feature_types":["int","int","int","int","float","float","float"],"gradient_booster":{"model":{"gbtree_model_param":{"num_parallel_tree":"1","num_trees":"100"},"iteration_indptr":[0,1,2,3,4,5,6,7,8,9,10,11,12,13,14,15,16,17,18,19,20,21,22,23,24,25,26,27,28,29,30,31,32,33,34,35,36,37,38,39,40,41,42,43,44,45,46,47,48,49,50,51,52,53,54,55,56,57,58,59,60,61,62,63,64,65,66,67,68,69,70,71,72,73,74,75,76,77,78,79,80,81,82,83,84,85,86,87,88,89,90,91,92,93,94,95,96,97,98,99,100],"tree_info":[0,0,0,0,0,0,0,0,0,0,0,0,0,0,0,0,0,0,0,0,0,0,0,0,0,0,0,0,0,0,0,0,0,0,0,0,0,0,0,0,0,0,0,0,0,0,0,0,0,0,0,0,0,0,0,0,0,0,0,0,0,0,0,0,0,0,0,0,0,0,0,0,0,0,0,0,0,0,0,0,0,0,0,0,0,0,0,0,0,0,0,0,0,0,0,0,0,0,0,0],"trees":[{"base_weights":[-4.025625E-1,-7.3056525E-1,3.656121E-2,-4.282685E-1,-8.4573555E-1,-2.3902234E-1,5.946857E-1,-6.4156423E-3,-9.1542944E-4,-1.091723E-2,-7.216737E-3,-1.0068355E-2,-6.478237E-4,8.731816E-3,-7.400435E-4],"categories":[],"categories_nodes":[],"categories_segments":[],"categories_sizes":[],"default_left":[0,0,0,0,0,0,0,0,0,0,0,0,0,0,0],"id":0,"left_children":[1,3,5,7,9,11,13,-1,-1,-1,-1,-1,-1,-1,-1],"loss_changes":[2.6937454E1,3.3629951E0,1.2575914E1,2.2068477E0,1.545311E0,7.2702103E0,5.0942535E0,0E0,0E0,0E0,0E0,0E0,0E0,0E0,0E0],"parents":[2147483647,0,0,1,1,2,2,3,3,4,4,5,5,6,6],"right_children":[2,4,6,8,10,12,14,-1,-1,-1,-1,-1,-1,-1,-1],"split_conditions":[1.40611E3,3.8911E2,3.51E0,2.77E0,2.25E0,1E0,2.19011E3,-6.4156423E-3,-9.1542944E-4,-1.091723E-2,-7.216737E-3,-1.0068355E-2,-6.478237E-4,8.731816E-3,-7.400435E-4],"split_indices":[6,6,5,5,5,2,6,0,0,0,0,0,0,0,0],"split_type":[0,0,0,0,0,0,0,0,0,0,0,0,0,0,0],"sum_hessian":[1.8583633E2,1.0599778E2,7.9838554E1,3.0544296E1,7.545348E1,5.383054E1,2.6008015E1,1.8145126E1,1.239917E1,2.2681408E1,5.2772076E1,9.072563E0,4.4757977E1,1.8145126E1,7.862888E0],"tree_param":{"num_deleted":"0","num_feature":"7","num_nodes":"15","size_leaf_vector":"1"}},{"base_weights":[-3.3123782E-1,-6.796819E-1,1.2933525E-1,-2.9211456E-1,-8.49079E-1,-7.298486E-1,3.3909214E-1,-9.092004E-3,-2.0745806E-3,-1.0493807E-2,-7.4012713E-3,-1.0975923E-2,-1.9735568E-3,-7.238073E-3,5.2406215E-3],"categories":[],"categories_nodes":[],"categories_segments":[],"categories_sizes":[],"default_left":[0,0,0,0,0,0,0,0,0,0,0,0,0,0,0],"id":1,"left_children":[1,3,5,7,9,11,13,-1,-1,-1,-1,-1,-1,-1,-1],"loss_changes":[3.058031E1,6.864025E0,1.5147046E1,1.6121986E0,8.569412E-1,3.0223246E0,1.3578189E1,0E0,0E0,0E0,0E0,0E0,0E0,0E0,0E0],"parents":[2147483647,0,0,1,1,2,2,3,3,4,4,5,5,6,6],"right_children":[2,4,6,8,10,12,14,-1,-1,-1,-1,-1,-1,-1,-1],"split_conditions":[1.41811E3,4.2811E2,1E0,3.511E1,2.3E0,3.34E0,1.87E0,-9.092004E-3,-2.0745806E-3,-1.0493807E-2,-7.4012713E-3,-1.0975923E-2,-1.9735568E-3,-7.238073E-3,5.2406215E-3],"split_indices":[6,6,2,6,5,5,5,0,0,0,0,0,0,0,0],"split_type":[0,0,0,0,0,0,0,0,0,0,0,0,0,0,0],"sum_hessian":[1.8900278E2,1.07328354E2,8.167442E1,3.3471832E1,7.385652E1,1.55403185E1,6.61341E1,2.8629646E0,3.060887E1,2.2979126E1,5.0877396E1,8.564426E0,6.975893E0,9.371164E0,5.676294E1],"tree_param":{"num_deleted":"0","num_feature":"7","num_nodes":"15","size_leaf_vector":"1"}},{"base_weights":[-3.1587246E-1,-6.6270185E-1,1.3027097E-1,-2.260134E-1,-8.5198444E-1,-7.2983044E-1,3.0963415E-1,3.0628382E-3,-5.494678E-3,-1.0504408E-2,-7.372847E-3,-8.846496E-4,-8.693507E-3,-2.9715835E-3,6.38171E-3],"categories":[],"categories_nodes":[],"categories_segments":[],"categories_sizes":[],"default_left":[0,0,0,0,0,0,0,0,0,0,0,0,0,0,0],"id":2,"left_children":[1,3,5,7,9,11,13,-1,-1,-1,-1,-1,-1,-1,-1],"loss_changes":[2.9011703E1,8.51437E0,1.2968219E1,5.8867455E0,8.9004517E-1,1.2250967E0,1.3954315E1,0E0,0E0,0E0,0E0,0E0,0E0,0E0,0E0],"parents":[2147483647,0,0,1,1,2,2,3,3,4,4,5,5,6,6],"right_children":[2,4,6,8,10,12,14,-1,-1,-1,-1,-1,-1,-1,-1],"split_conditions":[1.41811E3,4.2811E2,2.11E0,6.9E1,2.35E0,1.57111E3,5.3E1,3.0628382E-3,-5.494678E-3,-1.0504408E-2,-7.372847E-3,-8.846496E-4,-8.693507E-3,-2.9715835E-3,6.38171E-3],"split_indices":[6,6,5,0,5,6,0,0,0,0,0,0,0,0,0],"split_type":[0,0,0,0,0,0,0,0,0,0,0,0,0,0,0],"sum_hessian":[1.8593414E2,1.04337425E2,8.159672E1,3.221324E1,7.212418E1,1.3550225E1,6.804649E1,1.2195927E1,2.0017315E1,2.342883E1,4.869535E1,2.7129657E0,1.083726E1,2.3935055E1,4.4111435E1],"tree_param":{"num_deleted":"0","num_feature":"7","num_nodes":"15","size_leaf_vector":"1"}},{"base_weights":[-3.2407564E-1,-7.162381E-1,1.0862571E-1,-2.2690582E-1,-9.198097E-1,-6.2617105E-1,2.6320153E-1,2.1242518E-3,-8.148538E-3,-7.919675E-3,-1.0706759E-2,1.4618697E-3,-7.108725E-3,3.3299322E-3,-5.426495E-3],"categories":[],"categories_nodes":[],"categories_segments":[],"categories_sizes":[],"default_left":[0,0,0,0,0,0,0,0,0,0,0,0,0,0,0],"id":3,"left_children":[1,3,5,7,9,11,13,-1,-1,-1,-1,-1,-1,-1,-1],"loss_changes":[3.0785978E1,9.26083E0,1.0035631E1,7.7300944E0,4.4054794E-1,1.1114058E0,4.258486E0,0E0,0E0,0E0,0E0,0E0,0E0,0E0,0E0],"parents":[2147483647,0,0,1,1,2,2,3,3,4,4,5,5,6,6],"right_children":[2,4,6,8,10,12,14,-1,-1,-1,-1,-1,-1,-1,-1],"split_conditions":[1.35911E3,3.8911E2,1E0,1.25E0,1.2E0,1.53111E3,2.44211E3,2.1242518E-3,-8.148538E-3,-7.919675E-3,-1.0706759E-2,1.4618697E-3,-7.108725E-3,3.3299322E-3,-5.426495E-3],"split_indices":[6,6,2,4,4,6,6,0,0,0,0,0,0,0,0],"split_type":[0,0,0,0,0,0,0,0,0,0,0,0,0,0,0],"sum_hessian":[1.7996713E2,9.406218E1,8.590496E1,2.8256252E1,6.580592E1,1.4400302E1,7.1504654E1,1.65376E1,1.1718652E1,3.9003933E1,2.6801994E1,1.3514132E0,1.3048888E1,6.6345505E1,5.159153E0],"tree_param":{"num_deleted":"0","num_feature":"7","num_nodes":"15","size_leaf_vector":"1"}},{"base_weights":[-3.6953345E-1,-7.918417E-1,-2.1976392E-1,-6.069936E-1,-9.1967905E-1,-9.652845E-2,-8.063602E-1,-8.433759E-3,-2.5890095E-4,-9.725578E-3,-2.2897557E-3,-4.5155725E-3,5.3796306E-4,-1.0538492E-2,-6.652619E-3],"categories":[],"categories_nodes":[],"categories_segments":[],"categories_sizes":[],"default_left":[0,0,0,0,0,0,0,0,0,0,0,0,0,0,0],"id":4,"left_children":[1,3,5,7,9,11,13,-1,-1,-1,-1,-1,-1,-1,-1],"loss_changes":[1.1818865E1,6.057205E-1,1.0140816E1,3.1483822E0,7.69928E-1,6.3193474E0,1.5115738E-1,0E0,0E0,0E0,0E0,0E0,0E0,0E0,0E0],"parents":[2147483647,0,0,1,1,2,2,3,3,4,4,5,5,6,6],"right_children":[2,4,6,8,10,12,14,-1,-1,-1,-1,-1,-1,-1,-1],"split_conditions":[2.19E0,1.06E0,1.42E0,9.7E-1,2.15E0,5.2E1,1.51E0,-8.433759E-3,-2.5890095E-4,-9.725578E-3,-2.2897557E-3,-4.5155725E-3,5.3796306E-4,-1.0538492E-2,-6.652619E-3],"split_indices":[5,4,4,4,5,0,4,0,0,0,0,0,0,0,0],"split_type":[0,0,0,0,0,0,0,0,0,0,0,0,0,0,0],"sum_hessian":[1.886141E2,4.825668E1,1.4035742E2,2.2079178E1,2.61775E1,1.16952034E2,2.3405392E1,1.5373986E1,6.705192E0,2.3936874E1,2.2406259E0,3.4192997E1,8.275903E1,6.149734E0,1.7255657E1],"tree_param":{"num_deleted":"0","num_feature":"7","num_nodes":"15","size_leaf_vector":"1"}},{"base_weights":[-3.6523515E-1,-6.5672445E-1,6.7967066E-4,-2.0794423E-1,-8.272116E-1,-5.542664E-1,2.050983E-1,4.668769E-3,-5.6141233E-3,-1.064072E-2,-7.227742E-3,2.75261E-3,-6.396053E-3,-5.365857E-3,3.2697688E-3],"categories":[],"categories_nodes":[],"categories_segments":[],"categories_sizes":[],"default_left":[0,0,0,0,0,0,0,0,0,0,0,0,0,0,0],"id":5,"left_children":[1,3,5,7,9,11,13,-1,-1,-1,-1,-1,-1,-1,-1],"loss_changes":[1.9768026E1,7.7207336E0,9.549074E0,7.354891E0,1.0719109E0,1.7802057E0,5.736024E0,0E0,0E0,0E0,0E0,0E0,0E0,0E0,0E0],"parents":[2147483647,0,0,1,1,2,2,3,3,4,4,5,5,6,6],"right_children":[2,4,6,8,10,12,14,-1,-1,-1,-1,-1,-1,-1,-1],"split_conditions":[1.40611E3,3.8911E2,5.1E1,6.9E1,1E0,1.51511E3,1E0,4.668769E-3,-5.6141233E-3,-1.064072E-2,-7.227742E-3,2.75261E-3,-6.396053E-3,-5.365857E-3,3.2697688E-3],"split_indices":[6,6,0,0,3,6,2,0,0,0,0,0,0,0,0],"split_type":[0,0,0,0,0,0,0,0,0,0,0,0,0,0,0],"sum_hessian":[1.8433223E2,1.0215799E2,8.217423E1,2.8735664E1,7.3422325E1,2.166034E1,6.0513897E1,9.767419E0,1.8968246E1,1.9655571E1,5.376675E1,1.8128848E0,1.9847454E1,8.060378E0,5.2453518E1],"tree_param":{"num_deleted":"0","num_feature":"7","num_nodes":"15","size_leaf_vector":"1"}},{"base_weights":[-4.0603194E-1,-7.076215E-1,-2.0080425E-2,-3.532639E-1,-8.602741E-1,1.1353011E-1,-4.3749958E-1,-2.9135047E-4,-8.343118E-3,3.6988636E-3,-8.828738E-3,-7.6858634E-3,2.1817142E-3,-5.4864953E-3,8.258333E-3],"categories":[],"categories_nodes":[],"categories_segments":[],"categories_sizes":[],"default_left":[0,0,0,0,0,0,0,0,0,0,0,0,0,0,0],"id":6,"left_children":[1,3,5,7,9,11,13,-1,-1,-1,-1,-1,-1,-1,-1],"loss_changes":[2.1943104E1,5.4226074E0,4.721955E0,5.210043E0,2.3642006E0,6.0988836E0,3.334416E0,0E0,0E0,0E0,0E0,0E0,0E0,0E0,0E0],"parents":[2147483647,0,0,1,1,2,2,3,3,4,4,5,5,6,6],"right_children":[2,4,6,8,10,12,14,-1,-1,-1,-1,-1,-1,-1,-1],"split_conditions":[1.40611E3,4.2811E2,1.34E0,1.25E0,6.6E-1,7.9E-1,1E0,-2.9135047E-4,-8.343118E-3,3.6988636E-3,-8.828738E-3,-7.6858634E-3,2.1817142E-3,-5.4864953E-3,8.258333E-3],"split_indices":[6,6,4,4,4,4,1,0,0,0,0,0,0,0,0],"split_type":[0,0,0,0,0,0,0,0,0,0,0,0,0,0,0],"sum_hessian":[1.8763843E2,1.0486307E2,8.277536E1,3.257042E1,7.229265E1,6.325596E1,1.9519403E1,2.0092625E1,1.2477793E1,1.0269425E0,7.126571E1,6.0351615E0,5.72208E1,1.8460897E1,1.058505E0],"tree_param":{"num_deleted":"0","num_feature":"7","num_nodes":"15","size_leaf_vector":"1"}},{"base_weights":[-3.9281654E-1,-7.254054E-1,2.286685E-2,-3.759672E-1,-8.5421383E-1,-6.1601466E-1,2.6410663E-1,-6.176411E-3,4.563344E-3,-1.0678174E-2,-7.520425E-3,-1.0347086E-2,-4.28743E-3,-5.997013E-3,4.5459443E-3],"categories":[],"categories_nodes":[],"categories_segments":[],"categories_sizes":[],"default_left":[0,0,0,0,0,0,0,0,0,0,0,0,0,0,0],"id":7,"left_children":[1,3,5,7,9,11,13,-1,-1,-1,-1,-1,-1,-1,-1],"loss_changes":[2.5871393E1,4.356373E0,1.31232605E1,6.2710733E0,8.3693314E-1,1.3872023E0,1.0432025E1,0E0,0E0,0E0,0E0,0E0,0E0,0E0,0E0],"parents":[2147483647,0,0,1,1,2,2,3,3,4,4,5,5,6,6],"right_children":[2,4,6,8,10,12,14,-1,-1,-1,-1,-1,-1,-1,-1],"split_conditions":[1.41811E3,3.8911E2,2.41E0,3.0111E2,2.25E0,1.65E0,1E0,-6.176411E-3,4.563344E-3,-1.0678174E-2,-7.520425E-3,-1.0347086E-2,-4.28743E-3,-5.997013E-3,4.5459443E-3],"split_indices":[6,6,5,6,5,5,2,0,0,0,0,0,0,0,0],"split_type":[0,0,0,0,0,0,0,0,0,0,0,0,0,0,0],"sum_hessian":[1.8601262E2,1.029206E2,8.309201E1,2.877556E1,7.414504E1,2.234956E1,6.074245E1,2.2500147E1,6.2754145E0,2.0932138E1,5.3212902E1,5.5085654E0,1.6840994E1,1.0586673E1,5.015578E1],"tree_param":{"num_deleted":"0","num_feature":"7","num_nodes":"15","size_leaf_vector":"1"}},{"base_weights":[-3.182226E-1,-6.0420096E-1,4.0153496E-2,-2.6593375E-1,-8.2776344E-1,-4.707539E-1,2.7268007E-1,1.1824897E-3,-5.4059443E-3,-1.0953582E-2,-6.9797277E-3,-5.781468E-3,2.283685E-3,4.1224817E-3,-6.0884682E-3],"categories":[],"categories_nodes":[],"categories_segments":[],"categories_sizes":[],"default_left":[0,0,0,0,0,0,0,0,0,0,0,0,0,0,0],"id":8,"left_children":[1,3,5,7,9,11,13,-1,-1,-1,-1,-1,-1,-1,-1],"loss_changes":[1.9326597E1,7.7061424E0,1.0170027E1,4.620265E0,1.4107552E0,2.1445193E0,7.4757147E0,0E0,0E0,0E0,0E0,0E0,0E0,0E0,0E0],"parents":[2147483647,0,0,1,1,2,2,3,3,4,4,5,5,6,6],"right_children":[2,4,6,8,10,12,14,-1,-1,-1,-1,-1,-1,-1,-1],"split_conditions":[1.41811E3,5.4411E2,5.2E1,6.9E1,7.8911E2,1E0,2.40611E3,1.1824897E-3,-5.4059443E-3,-1.0953582E-2,-6.9797277E-3,-5.781468E-3,2.283685E-3,4.1224817E-3,-6.0884682E-3],"split_indices":[6,6,0,0,6,1,6,0,0,0,0,0,0,0,0],"split_type":[0,0,0,0,0,0,0,0,0,0,0,0,0,0,0],"sum_hessian":[1.8733792E2,1.0381183E2,8.352609E1,4.2179913E1,6.1631916E1,2.5804321E1,5.7721775E1,1.7821499E1,2.4358416E1,1.7699892E1,4.3932026E1,2.2518303E1,3.2860196E0,5.029167E1,7.4301014E0],"tree_param":{"num_deleted":"0","num_feature":"7","num_nodes":"15","size_leaf_vector":"1"}},{"base_weights":[-4.0839943E-1,-8.53035E-1,-2.5191548E-1,-9.212413E-3,-5.2088666E-1,-5.722012E-1,-1.3723773E-1,1.591791E-3,-7.921321E-3,-2.6628955E-3,-7.3171416E-3,-4.3445867E-3,-4.37164E-4],"categories":[],"categories_nodes":[],"categories_segments":[],"categories_sizes":[],"default_left":[0,0,0,0,0,0,0,0,0,0,0,0,0],"id":9,"left_children":[1,3,5,-1,7,9,11,-1,-1,-1,-1,-1,-1],"loss_changes":[1.2555014E1,5.930214E-1,4.9598446E0,0E0,2.0388532E0,1.5545406E0,2.825259E0,0E0,0E0,0E0,0E0,0E0,0E0],"parents":[2147483647,0,0,1,1,2,2,4,4,5,5,6,6],"right_children":[2,4,6,-1,8,10,12,-1,-1,-1,-1,-1,-1],"split_conditions":[2.22E0,7.7E1,5.2E1,-9.212413E-3,7.9E1,4.4E1,1E0,1.591791E-3,-7.921321E-3,-2.6628955E-3,-7.3171416E-3,-4.3445867E-3,-4.37164E-4],"split_indices":[5,0,0,0,0,0,3,0,0,0,0,0,0],"split_type":[0,0,0,0,0,0,0,0,0,0,0,0,0],"sum_hessian":[1.8253287E2,4.6358356E1,1.3617451E2,3.6989098E1,9.369257E0,3.4850433E1,1.0132409E2,2.7892396E0,6.5800176E0,1.2859008E1,2.1991426E1,2.3378645E1,7.794544E1],"tree_param":{"num_deleted":"0","num_feature":"7","num_nodes":"13","size_leaf_vector":"1"}},{"base_weights":[-3.4181166E-1,-6.721449E-1,6.390458E-2,-2.9161313E-1,-8.3473194E-1,-1.6017063E-1,8.527943E-1,-4.5008E-4,-7.4521345E-3,-8.820678E-3,-2.0784733E-3,-2.6347121E-4,-8.319923E-3,-2.35628E-3,1.1051081E-2],"categories":[],"categories_nodes":[],"categories_segments":[],"categories_sizes":[],"default_left":[0,0,0,0,0,0,0,0,0,0,0,0,0,0,0],"id":10,"left_children":[1,3,5,7,9,11,13,-1,-1,-1,-1,-1,-1,-1,-1],"loss_changes":[2.4329794E1,5.9419556E0,1.4674469E1,3.4861507E0,1.8792953E0,5.8121343E0,5.2998886E0,0E0,0E0,0E0,0E0,0E0,0E0,0E0,0E0],"parents":[2147483647,0,0,1,1,2,2,3,3,4,4,5,5,6,6],"right_children":[2,4,6,8,10,12,14,-1,-1,-1,-1,-1,-1,-1,-1],"split_conditions":[1.40611E3,4.2811E2,3.87E0,7.8E1,8.1E1,2.35511E3,1E0,-4.5008E-4,-7.4521345E-3,-8.820678E-3,-2.0784733E-3,-2.6347121E-4,-8.319923E-3,-2.35628E-3,1.1051081E-2],"split_indices":[6,6,5,0,0,6,2,0,0,0,0,0,0,0,0],"split_type":[0,0,0,0,0,0,0,0,0,0,0,0,0,0,0],"sum_hessian":[1.8021594E2,9.897447E1,8.124147E1,3.0465101E1,6.850937E1,6.3890934E1,1.735053E1,2.0447695E1,1.0017406E1,6.3320953E1,5.1884174E0,5.4144783E1,9.746151E0,3.2776504E0,1.4072881E1],"tree_param":{"num_deleted":"0","num_feature":"7","num_nodes":"15","size_leaf_vector":"1"}},{"base_weights":[-3.2539847E-1,-8.290377E-1,-2.1737504E-1,1.735232E-3,-8.781473E-1,-5.5412203E-1,-8.339749E-2,-9.671013E-3,-6.0796994E-3,-4.056141E-3,-8.003219E-3,4.109684E-3,-2.0702134E-3],"categories":[],"categories_nodes":[],"categories_segments":[],"categories_sizes":[],"default_left":[0,0,0,0,0,0,0,0,0,0,0,0,0],"id":11,"left_children":[1,3,5,-1,7,9,11,-1,-1,-1,-1,-1,-1],"loss_changes":[9.688206E0,1.7121029E0,6.753283E0,0E0,1.4179802E-1,1.2372541E0,6.7461605E0,0E0,0E0,0E0,0E0,0E0,0E0],"parents":[2147483647,0,0,1,1,2,2,4,4,5,5,6,6],"right_children":[2,4,6,-1,8,10,12,-1,-1,-1,-1,-1,-1],"split_conditions":[1E0,8E-1,2.22E0,1.735232E-3,3.56E0,1.24E0,9.7E-1,-9.671013E-3,-6.0796994E-3,-4.056141E-3,-8.003219E-3,4.109684E-3,-2.0702134E-3],"split_indices":[2,4,5,0,5,4,4,0,0,0,0,0,0],"split_type":[0,0,0,0,0,0,0,0,0,0,0,0,0],"sum_hessian":[1.8038858E2,3.067897E1,1.4970961E2,1.314307E0,2.9364664E1,4.1717777E1,1.0799184E2,2.015069E1,9.213974E0,2.7672937E1,1.4044839E1,2.1137926E1,8.685391E1],"tree_param":{"num_deleted":"0","num_feature":"7","num_nodes":"13","size_leaf_vector":"1"}},{"base_weights":[-3.056029E-1,-7.421449E-1,-1.367425E-1,-6.4343196E-1,-1.0213193E0,-5.4726255E-1,5.8607057E-2,-7.2795134E-3,-2.2892626E-3,-1.0912089E-2,-3.1234976E-3,-3.9289766E-3,-1.0833188E-2,-1.7012581E-3,5.7997447E-3],"categories":[],"categories_nodes":[],"categories_segments":[],"categories_sizes":[],"default_left":[0,0,0,0,0,0,0,0,0,0,0,0,0,0,0],"id":12,"left_children":[1,3,5,7,9,11,13,-1,-1,-1,-1,-1,-1,-1,-1],"loss_changes":[1.3555002E1,7.6065254E-1,1.084345E1,1.259615E0,2.407074E-1,3.1792545E0,1.1099745E1,0E0,0E0,0E0,0E0,0E0,0E0,0E0,0E0],"parents":[2147483647,0,0,1,1,2,2,3,3,4,4,5,5,6,6],"right_children":[2,4,6,8,10,12,14,-1,-1,-1,-1,-1,-1,-1,-1],"split_conditions":[2.22E0,1.36E0,5.4E1,1.2E0,2.15E0,1.32E0,3.57E0,-7.2795134E-3,-2.2892626E-3,-1.0912089E-2,-3.1234976E-3,-3.9289766E-3,-1.0833188E-2,-1.7012581E-3,5.7997447E-3],"split_indices":[5,4,0,4,5,4,5,0,0,0,0,0,0,0,0],"split_type":[0,0,0,0,0,0,0,0,0,0,0,0,0,0,0],"sum_hessian":[1.8426147E2,5.044774E1,1.3381374E2,3.971111E1,1.073663E1,4.2564507E1,9.124923E1,3.2357162E1,7.353946E0,9.282428E0,1.4542022E0,3.439339E1,8.171116E0,6.3892277E1,2.735695E1],"tree_param":{"num_deleted":"0","num_feature":"7","num_nodes":"15","size_leaf_vector":"1"}},{"base_weights":[-3.5534582E-1,-8.9252794E-1,-2.2774754E-1,-9.123949E-1,-1.1223592E-3,-6.002603E-1,-4.5635127E-2,-9.958184E-3,-6.4024595E-3,-2.1604614E-3,-6.409094E-3,2.4248564E-3,-2.751269E-3],"categories":[],"categories_nodes":[],"categories_segments":[],"categories_sizes":[],"default_left":[0,0,0,0,0,0,0,0,0,0,0,0,0],"id":13,"left_children":[1,3,5,7,-1,9,11,-1,-1,-1,-1,-1,-1],"loss_changes":[1.2441559E1,4.4119644E-1,1.0176472E1,1.356144E-1,0E0,6.315937E-1,6.8181343E0,0E0,0E0,0E0,0E0,0E0,0E0],"parents":[2147483647,0,0,1,1,2,2,3,3,5,5,6,6],"right_children":[2,4,6,8,-1,10,12,-1,-1,-1,-1,-1,-1],"split_conditions":[1E0,5.72E0,2.35E0,3.56E0,-1.1223592E-3,7.6E-1,1.13E0,-9.958184E-3,-6.4024595E-3,-2.1604614E-3,-6.409094E-3,2.4248564E-3,-2.751269E-3],"split_indices":[2,5,5,5,0,4,4,0,0,0,0,0,0],"split_type":[0,0,0,0,0,0,0,0,0,0,0,0,0],"sum_hessian":[1.834789E2,3.406638E1,1.4941252E2,3.3055458E1,1.0109208E0,4.8306004E1,1.01106514E2,2.3264835E1,9.790623E0,5.225896E0,4.308011E1,4.4802082E1,5.630443E1],"tree_param":{"num_deleted":"0","num_feature":"7","num_nodes":"13","size_leaf_vector":"1"}},{"base_weights":[-3.2535216E-1,-6.6740644E-1,1.2394929E-1,-2.7304608E-1,-8.3249605E-1,-5.13662E-1,3.5524964E-1,7.2285044E-3,-5.2118553E-3,-8.905953E-3,-3.599299E-3,-8.798897E-3,-2.1041862E-3,4.7499156E-3,-3.3738853E-3],"categories":[],"categories_nodes":[],"categories_segments":[],"categories_sizes":[],"default_left":[0,0,0,0,0,0,0,0,0,0,0,0,0,0,0],"id":14,"left_children":[1,3,5,7,9,11,13,-1,-1,-1,-1,-1,-1,-1,-1],"loss_changes":[2.8011698E1,6.500286E0,1.189137E1,8.28003E0,1.665966E0,2.2073326E0,5.0411706E0,0E0,0E0,0E0,0E0,0E0,0E0,0E0,0E0],"parents":[2147483647,0,0,1,1,2,2,3,3,4,4,5,5,6,6],"right_children":[2,4,6,8,10,12,14,-1,-1,-1,-1,-1,-1,-1,-1],"split_conditions":[1.47111E3,4.2811E2,5.1E1,6.1E1,1.34011E3,1.96111E3,2.35511E3,7.2285044E-3,-5.2118553E-3,-8.905953E-3,-3.599299E-3,-8.798897E-3,-2.1041862E-3,4.7499156E-3,-3.3738853E-3],"split_indices":[6,6,0,0,6,6,6,0,0,0,0,0,0,0,0],"split_type":[0,0,0,0,0,0,0,0,0,0,0,0,0,0,0],"sum_hessian":[1.807281E2,1.02334885E2,7.839323E1,3.098143E1,7.1353455E1,2.0542963E1,5.785026E1,5.7980676E0,2.5183363E1,6.275366E1,8.599794E0,8.443786E0,1.2099178E1,4.959125E1,8.259009E0],"tree_param":{"num_deleted":"0","num_feature":"7","num_nodes":"15","size_leaf_vector":"1"}},{"base_weights":[-3.0495E-1,-7.236434E-1,-1.6111003E-1,-5.912521E-1,-9.3870664E-1,-2.1305166E-1,5.9739715E-1,-6.4560343E-3,5.7455763E-4,-9.857595E-3,-1.8378797E-3,-1.0052485E-3,-5.2492367E-3,-1.5858727E-3,2.067252E-2],"categories":[],"categories_nodes":[],"categories_segments":[],"categories_sizes":[],"default_left":[0,0,0,0,0,0,0,0,0,0,0,0,0,0,0],"id":15,"left_children":[1,3,5,7,9,11,13,-1,-1,-1,-1,-1,-1,-1,-1],"loss_changes":[1.0723509E1,7.4726295E-1,5.456093E0,1.1305199E0,3.7743378E-1,4.415546E0,1.0252312E1,0E0,0E0,0E0,0E0,0E0,0E0,0E0,0E0],"parents":[2147483647,0,0,1,1,2,2,3,3,4,4,5,5,6,6],"right_children":[2,4,6,8,10,12,14,-1,-1,-1,-1,-1,-1,-1,-1],"split_conditions":[2.19E0,1.23E0,1E0,1.18E0,2.15E0,1.34E0,3.6E0,-6.4560343E-3,5.7455763E-4,-9.857595E-3,-1.8378797E-3,-1.0052485E-3,-5.2492367E-3,-1.5858727E-3,2.067252E-2],"split_indices":[5,4,1,4,5,4,5,0,0,0,0,0,0,0,0],"split_type":[0,0,0,0,0,0,0,0,0,0,0,0,0,0,0],"sum_hessian":[1.7899371E2,4.473805E1,1.3425566E2,3.0012054E1,1.4725995E1,1.2632425E2,7.9314103E0,2.7696331E1,2.315722E0,1.3574157E1,1.1518389E0,9.380186E1,3.2522396E1,5.826697E0,2.104714E0],"tree_param":{"num_deleted":"0","num_feature":"7","num_nodes":"15","size_leaf_vector":"1"}},{"base_weights":[-2.588164E-1,-5.905071E-1,1.0009561E-1,-1.6026951E-1,-7.753217E-1,-5.2385026E-1,3.4064525E-1,3.93631E-3,-4.7603347E-3,-8.672235E-3,-4.281127E-3,4.3548415E-3,-6.347891E-3,-5.966645E-3,5.059874E-3],"categories":[],"categories_nodes":[],"categories_segments":[],"categories_sizes":[],"default_left":[0,0,0,0,0,0,0,0,0,0,0,0,0,0,0],"id":16,"left_children":[1,3,5,7,9,11,13,-1,-1,-1,-1,-1,-1,-1,-1],"loss_changes":[2.1586475E1,7.359909E0,1.3342243E1,5.35458E0,1.7213364E0,2.9156961E0,1.0206072E1,0E0,0E0,0E0,0E0,0E0,0E0,0E0,0E0],"parents":[2147483647,0,0,1,1,2,2,3,3,4,4,5,5,6,6],"right_children":[2,4,6,8,10,12,14,-1,-1,-1,-1,-1,-1,-1,-1],"split_conditions":[1.34011E3,3.8911E2,5.1E1,6.9E1,7.1E1,1.45011E3,1E0,3.93631E-3,-4.7603347E-3,-8.672235E-3,-4.281127E-3,4.3548415E-3,-6.347891E-3,-5.966645E-3,5.059874E-3],"split_indices":[6,6,0,0,0,6,2,0,0,0,0,0,0,0,0],"split_type":[0,0,0,0,0,0,0,0,0,0,0,0,0,0,0],"sum_hessian":[1.7982968E2,9.312364E1,8.670604E1,2.8543427E1,6.4580215E1,2.3798628E1,6.290741E1,1.0274214E1,1.8269213E1,4.987994E1,1.4700274E1,2.1636038E0,2.1635023E1,9.041768E0,5.3865643E1],"tree_param":{"num_deleted":"0","num_feature":"7","num_nodes":"15","size_leaf_vector":"1"}},{"base_weights":[-2.7772176E-1,-6.401506E-1,1.6160984E-1,-2.603183E-1,-7.939194E-1,-3.6675164E-1,4.5759487E-1,1.7106418E-3,-9.358696E-3,2.9919639E-3,-8.166254E-3,1.4463204E-2,-5.5654077E-3,6.2473086E-3,-2.5930542E-3],"categories":[],"categories_nodes":[],"categories_segments":[],"categories_sizes":[],"default_left":[0,0,0,0,0,0,0,0,0,0,0,0,0,0,0],"id":17,"left_children":[1,3,5,7,9,11,13,-1,-1,-1,-1,-1,-1,-1,-1],"loss_changes":[2.8299362E1,5.472435E0,1.2811119E1,8.759364E0,1.9501343E0,1.0984573E1,6.4241314E0,0E0,0E0,0E0,0E0,0E0,0E0,0E0,0E0],"parents":[2147483647,0,0,1,1,2,2,3,3,4,4,5,5,6,6],"right_children":[2,4,6,8,10,12,14,-1,-1,-1,-1,-1,-1,-1,-1],"split_conditions":[1.40611E3,3.8911E2,5.4E1,1.25E0,6.9E-1,1.54811E3,1.42E0,1.7106418E-3,-9.358696E-3,2.9919639E-3,-8.166254E-3,1.4463204E-2,-5.5654077E-3,6.2473086E-3,-2.5930542E-3],"split_indices":[6,6,0,4,4,6,4,0,0,0,0,0,0,0,0],"split_type":[0,0,0,0,0,0,0,0,0,0,0,0,0,0,0],"sum_hessian":[1.7608057E2,9.6234406E1,7.984616E1,2.850807E1,6.772633E1,2.8583248E1,5.126291E1,1.7853958E1,1.0654111E1,1.1303772E0,6.659596E1,2.0811524E0,2.6502096E1,4.1675396E1,9.587513E0],"tree_param":{"num_deleted":"0","num_feature":"7","num_nodes":"15","size_leaf_vector":"1"}},{"base_weights":[-3.1039718E-1,-6.8277216E-1,7.558665E-2,-3.187963E-1,-8.083345E-1,-7.845325E-1,2.7636E-1,-3.9041897E-3,4.832028E-3,-1.0130926E-2,-6.863825E-3,3.2575216E-4,-8.712225E-3,6.19392E-4,7.7625853E-3],"categories":[],"categories_nodes":[],"categories_segments":[],"categories_sizes":[],"default_left":[0,0,0,0,0,0,0,0,0,0,0,0,0,0,0],"id":18,"left_children":[1,3,5,7,9,11,13,-1,-1,-1,-1,-1,-1,-1,-1],"loss_changes":[2.5475697E1,3.8614159E0,1.5371427E1,1.6114082E0,9.617157E-1,1.2232561E0,7.6575255E0,0E0,0E0,0E0,0E0,0E0,0E0,0E0,0E0],"parents":[2147483647,0,0,1,1,2,2,3,3,4,4,5,5,6,6],"right_children":[2,4,6,8,10,12,14,-1,-1,-1,-1,-1,-1,-1,-1],"split_conditions":[1.34011E3,3.4211E2,1E0,3.2211E2,2.3E0,1.46011E3,3.6E0,-3.9041897E-3,4.832028E-3,-1.0130926E-2,-6.863825E-3,3.2575216E-4,-8.712225E-3,6.19392E-4,7.7625853E-3],"split_indices":[6,6,2,6,5,6,5,0,0,0,0,0,0,0,0],"split_type":[0,0,0,0,0,0,0,0,0,0,0,0,0,0,0],"sum_hessian":[1.7588696E2,8.913028E1,8.6756676E1,2.3768867E1,6.536141E1,1.5868403E1,7.0888275E1,2.2291328E1,1.4775382E0,2.1670013E1,4.36914E1,1.5819321E0,1.4286471E1,5.0395924E1,2.0492352E1],"tree_param":{"num_deleted":"0","num_feature":"7","num_nodes":"15","size_leaf_vector":"1"}},{"base_weights":[-2.869516E-1,-8.307744E-1,-1.6825764E-1,-9.367284E-3,-5.109772E-1,-5.692669E-1,2.1742985E-2,5.1956614E-3,-7.358899E-3,-4.578477E-3,-8.619193E-3,1.1477151E-3,-8.875276E-3],"categories":[],"categories_nodes":[],"categories_segments":[],"categories_sizes":[],"default_left":[0,0,0,0,0,0,0,0,0,0,0,0,0],"id":19,"left_children":[1,3,5,-1,7,9,11,-1,-1,-1,-1,-1,-1],"loss_changes":[1.1697859E1,6.2602425E-1,1.1577539E1,0E0,2.7728453E0,1.1977348E0,8.895207E0,0E0,0E0,0E0,0E0,0E0,0E0],"parents":[2147483647,0,0,1,1,2,2,4,4,5,5,6,6],"right_children":[2,4,6,-1,8,10,12,-1,-1,-1,-1,-1,-1],"split_conditions":[1E0,3.58E0,2.35E0,-9.367284E-3,3.7E0,1.3E0,1.6E0,5.1956614E-3,-7.358899E-3,-4.578477E-3,-8.619193E-3,1.1477151E-3,-8.875276E-3],"split_indices":[2,5,5,0,5,4,4,0,0,0,0,0,0],"split_type":[0,0,0,0,0,0,0,0,0,0,0,0,0],"sum_hessian":[1.8239143E2,3.1601738E1,1.5078969E2,2.2288174E1,9.313564E0,4.7834846E1,1.0295484E2,1.4338102E0,7.879754E0,3.650215E1,1.1332698E1,9.419175E1,8.76309E0],"tree_param":{"num_deleted":"0","num_feature":"7","num_nodes":"13","size_leaf_vector":"1"}},{"base_weights":[-3.19447E-1,-5.8728784E-1,2.6923388E-2,-2.1841735E-1,-7.549714E-1,-5.3812504E-1,2.844787E-1,4.696553E-3,-3.936609E-3,-8.239727E-3,-4.971784E-3,-2.085076E-3,-6.8295603E-3,-5.5142865E-4,1.1071867E-2],"categories":[],"categories_nodes":[],"categories_segments":[],"categories_sizes":[],"default_left":[0,0,0,0,0,0,0,0,0,0,0,0,0,0,0],"id":20,"left_children":[1,3,5,7,9,11,13,-1,-1,-1,-1,-1,-1,-1,-1],"loss_changes":[1.6827326E1,6.15868E0,1.1792414E1,4.207132E0,8.333206E-1,1.0695353E0,1.5593812E1,0E0,0E0,0E0,0E0,0E0,0E0,0E0,0E0],"parents":[2147483647,0,0,1,1,2,2,3,3,4,4,5,5,6,6],"right_children":[2,4,6,8,10,12,14,-1,-1,-1,-1,-1,-1,-1,-1],"split_conditions":[1.46011E3,4.2811E2,5.2E1,6.1E1,7.1E1,2.79E0,3.57E0,4.696553E-3,-3.936609E-3,-8.239727E-3,-4.971784E-3,-2.085076E-3,-6.8295603E-3,-5.5142865E-4,1.1071867E-2],"split_indices":[6,6,0,0,0,5,5,0,0,0,0,0,0,0,0],"split_type":[0,0,0,0,0,0,0,0,0,0,0,0,0,0,0],"sum_hessian":[1.8021297E2,1.0123474E2,7.8978226E1,3.2357414E1,6.887733E1,2.438682E1,5.45914E1,6.227169E0,2.6130243E1,5.2601635E1,1.6275692E1,8.189098E0,1.6197721E1,3.9300686E1,1.5290715E1],"tree_param":{"num_deleted":"0","num_feature":"7","num_nodes":"15","size_leaf_vector":"1"}},{"base_weights":[-3.4455267E-1,-6.4477265E-1,4.0957954E-2,-3.7721395E-1,-8.1069213E-1,-4.1168413E-1,2.4070896E-1,-7.303091E-3,-1.1519416E-3,-8.667416E-3,-8.005356E-4,-2.253734E-3,-8.911957E-3,1.4330561E-3,1.0824444E-2],"categories":[],"categories_nodes":[],"categories_segments":[],"categories_sizes":[],"default_left":[0,0,0,0,0,0,0,0,0,0,0,0,0,0,0],"id":21,"left_children":[1,3,5,7,9,11,13,-1,-1,-1,-1,-1,-1,-1,-1],"loss_changes":[2.110535E1,4.2422485E0,7.3935733E0,3.7168808E0,2.4845924E0,2.0389295E0,4.485905E0,0E0,0E0,0E0,0E0,0E0,0E0,0E0,0E0],"parents":[2147483647,0,0,1,1,2,2,3,3,4,4,5,5,6,6],"right_children":[2,4,6,8,10,12,14,-1,-1,-1,-1,-1,-1,-1,-1],"split_conditions":[1.40611E3,5.4411E2,2.51E0,2.2E0,1E0,2.32E0,1E0,-7.303091E-3,-1.1519416E-3,-8.667416E-3,-8.005356E-4,-2.253734E-3,-8.911957E-3,1.4330561E-3,1.0824444E-2],"split_indices":[6,6,5,5,1,5,1,0,0,0,0,0,0,0,0],"split_type":[0,0,0,0,0,0,0,0,0,0,0,0,0,0,0],"sum_hessian":[1.8112639E2,1.01449295E2,7.967709E1,4.008402E1,6.1365273E1,2.4070835E1,5.560626E1,1.6313238E1,2.3770782E1,5.682015E1,4.545126E0,1.8393991E1,5.6768446E0,5.0887897E1,4.71836E0],"tree_param":{"num_deleted":"0","num_feature":"7","num_nodes":"15","size_leaf_vector":"1"}},{"base_weights":[-3.0202845E-1,-6.363398E-1,-1.790853E-1,-6.7845154E-1,-1.1215041E-1,-6.030999E-1,-4.6439834E-2,-7.1218475E-3,-3.492746E-3,-6.350222E-3,2.21767E-3,-7.0457896E-3,8.217691E-3,2.1104426E-3,-3.1872136E-3],"categories":[],"categories_nodes":[],"categories_segments":[],"categories_sizes":[],"default_left":[0,0,0,0,0,0,0,0,0,0,0,0,0,0,0],"id":22,"left_children":[1,3,5,7,9,11,13,-1,-1,-1,-1,-1,-1,-1,-1],"loss_changes":[7.292696E0,9.8482513E-1,7.4605174E0,2.4304008E-1,9.73991E-1,5.1544504E0,7.2534323E0,0E0,0E0,0E0,0E0,0E0,0E0,0E0,0E0],"parents":[2147483647,0,0,1,1,2,2,3,3,4,4,5,5,6,6],"right_children":[2,4,6,8,10,12,14,-1,-1,-1,-1,-1,-1,-1,-1],"split_conditions":[2.22E0,1E0,5.1E1,2.15E0,4.9E1,5.72E0,6.6E1,-7.1218475E-3,-3.492746E-3,-6.350222E-3,2.21767E-3,-7.0457896E-3,8.217691E-3,2.1104426E-3,-3.1872136E-3],"split_indices":[5,1,0,5,0,5,0,0,0,0,0,0,0,0,0],"split_type":[0,0,0,0,0,0,0,0,0,0,0,0,0,0,0],"sum_hessian":[1.7920497E2,4.7060505E1,1.3214447E2,4.328855E1,3.7719533E0,3.0643318E1,1.0150116E2,3.820941E1,5.0791407E0,1.1186135E0,2.6533396E0,2.9077904E1,1.5654144E0,5.2283737E1,4.921742E1],"tree_param":{"num_deleted":"0","num_feature":"7","num_nodes":"15","size_leaf_vector":"1"}},{"base_weights":[-3.4297815E-1,-7.9761595E-1,-2.4856527E-1,5.3264294E-4,-8.453853E-3,-2.9206187E-1,3.7305993E-1,-2.3752244E-3,-8.564666E-3,-5.4327557E-3,7.0972308E-3],"categories":[],"categories_nodes":[],"categories_segments":[],"categories_sizes":[],"default_left":[0,0,0,0,0,0,0,0,0,0,0],"id":23,"left_children":[1,3,5,-1,-1,7,9,-1,-1,-1,-1],"loss_changes":[7.4614277E0,1.2738724E0,4.1435556E0,0E0,0E0,4.106679E0,3.5314145E0,0E0,0E0,0E0,0E0],"parents":[2147483647,0,0,1,1,2,2,5,5,6,6],"right_children":[2,4,6,-1,-1,8,10,-1,-1,-1,-1],"split_conditions":[1E0,8.1E-1,1E0,5.3264294E-4,-8.453853E-3,1.63E0,9.3E-1,-2.3752244E-3,-8.564666E-3,-5.4327557E-3,7.0972308E-3],"split_indices":[2,4,1,0,0,4,4,0,0,0,0],"split_type":[0,0,0,0,0,0,0,0,0,0,0],"sum_hessian":[1.774491E2,2.9232777E1,1.4821632E2,1.5478083E0,2.7684969E1,1.39019E2,9.197328E0,1.2806471E2,1.095428E1,2.3062987E0,6.891029E0],"tree_param":{"num_deleted":"0","num_feature":"7","num_nodes":"11","size_leaf_vector":"1"}},{"base_weights":[-4.0682453E-1,-7.6753926E-1,-2.7997807E-1,-1.0058442E0,-6.1664253E-1,2.581978E-2,-5.069619E-1,-1.3800466E-3,-1.0576477E-2,-1.49126E-3,-7.905907E-3,-3.8204573E-3,1.72069E-3,-4.1923705E-3,-8.972256E-3],"categories":[],"categories_nodes":[],"categories_segments":[],"categories_sizes":[],"default_left":[0,0,0,0,0,0,0,0,0,0,0,0,0,0,0],"id":24,"left_children":[1,3,5,7,9,11,13,-1,-1,-1,-1,-1,-1,-1,-1],"loss_changes":[8.092142E0,1.0576057E0,9.445624E0,5.9609985E-1,2.4156322E0,3.5759652E0,2.2958412E0,0E0,0E0,0E0,0E0,0E0,0E0,0E0,0E0],"parents":[2147483647,0,0,1,1,2,2,3,3,4,4,5,5,6,6],"right_children":[2,4,6,8,10,12,14,-1,-1,-1,-1,-1,-1,-1,-1],"split_conditions":[2.22E0,1.61E0,1.104E0,4.2E1,1.79E0,1E0,1.59E0,-1.3800466E-3,-1.0576477E-2,-1.49126E-3,-7.905907E-3,-3.8204573E-3,1.72069E-3,-4.1923705E-3,-8.972256E-3],"split_indices":[5,5,4,0,5,3,4,0,0,0,0,0,0,0,0],"split_type":[0,0,0,0,0,0,0,0,0,0,0,0,0,0,0],"sum_hessian":[1.8055325E2,4.5659603E1,1.3489366E2,1.5505938E1,3.0153664E1,5.784704E1,7.704662E1,1.0798422E0,1.4426095E1,8.680523E0,2.147314E1,1.4842211E1,4.3004826E1,6.4599884E1,1.2446738E1],"tree_param":{"num_deleted":"0","num_feature":"7","num_nodes":"15","size_leaf_vector":"1"}},{"base_weights":[-2.9307848E-1,-9.397858E-1,-1.5147105E-1,-1.0534169E-2,-5.996914E-1,-5.025487E-1,2.2977503E-2,6.3429037E-3,-9.425284E-3,1.3353741E-3,-5.800855E-3,8.798827E-4,-7.0116553E-3],"categories":[],"categories_nodes":[],"categories_segments":[],"categories_sizes":[],"default_left":[0,0,0,0,0,0,0,0,0,0,0,0,0],"id":25,"left_children":[1,3,5,-1,7,9,11,-1,-1,-1,-1,-1,-1],"loss_changes":[1.6131397E1,5.944576E-1,9.012934E0,0E0,4.9417453E0,2.4858427E0,4.729005E0,0E0,0E0,0E0,0E0,0E0,0E0],"parents":[2147483647,0,0,1,1,2,2,4,4,5,5,6,6],"right_children":[2,4,6,-1,8,10,12,-1,-1,-1,-1,-1,-1],"split_conditions":[1E0,3.56E0,2.39E0,-1.0534169E-2,3.77E0,7.7E-1,1.63E0,6.3429037E-3,-9.425284E-3,1.3353741E-3,-5.800855E-3,8.798827E-4,-7.0116553E-3],"split_indices":[2,5,5,0,5,4,4,0,0,0,0,0,0],"split_type":[0,0,0,0,0,0,0,0,0,0,0,0,0],"sum_hessian":[1.7670259E2,3.0729128E1,1.4597346E2,2.1461168E1,9.26796E0,4.78316E1,9.814186E1,1.8302335E0,7.4377255E0,5.1185427E0,4.271306E1,9.086302E1,7.278838E0],"tree_param":{"num_deleted":"0","num_feature":"7","num_nodes":"13","size_leaf_vector":"1"}},{"base_weights":[-2.812223E-1,-1.9027136E-1,-7.312244E-1,-5.4177076E-1,-6.459557E-2,-9.509661E-3,-5.3383297E-1,-8.156883E-3,-4.2191404E-3,-4.4360682E-3,6.5606594E-4,2.010086E-3,-7.6403045E-3],"categories":[],"categories_nodes":[],"categories_segments":[],"categories_sizes":[],"default_left":[0,0,0,0,0,0,0,0,0,0,0,0,0],"id":26,"left_children":[1,3,5,7,9,-1,11,-1,-1,-1,-1,-1,-1],"loss_changes":[7.2707253E0,6.6777425E0,7.973976E-1,9.653568E-1,5.608965E0,0E0,3.2203636E0,0E0,0E0,0E0,0E0,0E0,0E0],"parents":[2147483647,0,0,1,1,2,2,3,3,4,4,6,6],"right_children":[2,4,6,8,10,-1,12,-1,-1,-1,-1,-1,-1],"split_conditions":[1.44E0,2.22E0,2.67E0,5.4E1,5.1E1,-9.509661E-3,3.06E0,-8.156883E-3,-4.2191404E-3,-4.4360682E-3,6.5606594E-4,2.010086E-3,-7.6403045E-3],"split_indices":[4,5,5,0,0,0,5,0,0,0,0,0,0],"split_type":[0,0,0,0,0,0,0,0,0,0,0,0,0],"sum_hessian":[1.8004561E2,1.5095798E2,2.9087639E1,3.888649E1,1.1207148E2,1.1957995E1,1.7129642E1,1.0069155E1,2.8817337E1,2.8040392E1,8.403109E1,4.1163E0,1.3013343E1],"tree_param":{"num_deleted":"0","num_feature":"7","num_nodes":"13","size_leaf_vector":"1"}},{"base_weights":[-3.3108827E-1,-8.2948786E-1,-2.0297882E-1,-5.13458E-1,-1.0067821E-2,-6.048619E-1,-5.2886847E-2,-7.8872545E-3,9.3833654E-4,-6.8665147E-3,8.016798E-3,-1.2803073E-3,9.400208E-3],"categories":[],"categories_nodes":[],"categories_segments":[],"categories_sizes":[],"default_left":[0,0,0,0,0,0,0,0,0,0,0,0,0],"id":27,"left_children":[1,3,5,7,-1,9,11,-1,-1,-1,-1,-1,-1],"loss_changes":[1.1173611E1,1.5001049E0,8.571756E0,2.5779212E0,0E0,5.0013447E0,7.950533E0,0E0,0E0,0E0,0E0,0E0,0E0],"parents":[2147483647,0,0,1,1,2,2,3,3,5,5,6,6],"right_children":[2,4,6,8,-1,10,12,-1,-1,-1,-1,-1,-1],"split_conditions":[2.07E0,6.1E1,5.2E1,5.4E1,-1.0067821E-2,5.72E0,1E0,-7.8872545E-3,9.3833654E-4,-6.8665147E-3,8.016798E-3,-1.2803073E-3,9.400208E-3],"split_indices":[5,0,0,0,0,5,1,0,0,0,0,0,0],"split_type":[0,0,0,0,0,0,0,0,0,0,0,0,0],"sum_hessian":[1.766356E2,3.4999195E1,1.4163641E2,1.3978452E1,2.1020742E1,3.76896E1,1.03946815E2,9.413039E0,4.5654125E0,3.61021E1,1.5874996E0,9.74433E1,6.5035167E0],"tree_param":{"num_deleted":"0","num_feature":"7","num_nodes":"13","size_leaf_vector":"1"}},{"base_weights":[-2.4538954E-1,-8.025408E-1,-1.3078398E-1,-9.1542555E-3,-4.6354103E-1,-2.6677728E-1,2.8935966E-1,8.205104E-3,-8.090991E-3,-1.6913445E-3,-7.3520886E-3,4.0359506E-3,-8.7902965E-3],"categories":[],"categories_nodes":[],"categories_segments":[],"categories_sizes":[],"default_left":[0,0,0,0,0,0,0,0,0,0,0,0,0],"id":28,"left_children":[1,3,5,-1,7,9,11,-1,-1,-1,-1,-1,-1],"loss_changes":[1.1561006E1,7.6101875E-1,8.803467E0,0E0,4.9961576E0,5.1768017E0,5.403482E0,0E0,0E0,0E0,0E0,0E0,0E0],"parents":[2147483647,0,0,1,1,2,2,4,4,5,5,6,6],"right_children":[2,4,6,-1,8,10,12,-1,-1,-1,-1,-1,-1],"split_conditions":[1E0,3.56E0,3.61E0,-9.1542555E-3,3.77E0,1.43E0,1.56E0,8.205104E-3,-8.090991E-3,-1.6913445E-3,-7.3520886E-3,4.0359506E-3,-8.7902965E-3],"split_indices":[2,5,5,0,5,4,4,0,0,0,0,0,0],"split_type":[0,0,0,0,0,0,0,0,0,0,0,0,0],"sum_hessian":[1.817014E2,2.9975214E1,1.5172618E2,2.1211536E1,8.763678E0,1.1490004E2,3.682614E1,1.5668828E0,7.1967945E0,9.620709E1,1.8692945E1,3.4142536E1,2.6836026E0],"tree_param":{"num_deleted":"0","num_feature":"7","num_nodes":"13","size_leaf_vector":"1"}},{"base_weights":[-2.3672654E-1,-7.016719E-1,-8.569564E-2,-7.5830317E-1,-5.8787424E-2,-4.6107092E-1,4.6541117E-2,-7.855862E-3,-2.1831125E-3,-4.673176E-3,4.5041833E-3,-6.103901E-3,1.959999E-3,-3.61851E-3,2.1723956E-3],"categories":[],"categories_nodes":[],"categories_segments":[],"categories_sizes":[],"default_left":[0,0,0,0,0,0,0,0,0,0,0,0,0,0,0],"id":29,"left_children":[1,3,5,7,9,11,13,-1,-1,-1,-1,-1,-1,-1,-1],"loss_changes":[1.2296383E1,1.5211506E0,6.671018E0,4.0955544E-1,1.1602715E0,3.552547E0,7.0477543E0,0E0,0E0,0E0,0E0,0E0,0E0,0E0,0E0],"parents":[2147483647,0,0,1,1,2,2,3,3,4,4,5,5,6,6],"right_children":[2,4,6,8,10,12,14,-1,-1,-1,-1,-1,-1,-1,-1],"split_conditions":[2.19E0,1E0,1E0,8.4E1,5.4E1,4.24E0,5.4E1,-7.855862E-3,-2.1831125E-3,-4.673176E-3,4.5041833E-3,-6.103901E-3,1.959999E-3,-3.61851E-3,2.1723956E-3],"split_indices":[5,1,3,0,0,5,0,0,0,0,0,0,0,0,0],"split_type":[0,0,0,0,0,0,0,0,0,0,0,0,0,0,0],"sum_hessian":[1.7496577E2,4.2005836E1,1.3295995E2,3.844014E1,3.565696E0,3.3989258E1,9.897068E1,3.6158424E1,2.2817152E0,2.0240693E0,1.5416267E0,2.7753359E1,6.2359004E0,2.8843481E1,7.0127205E1],"tree_param":{"num_deleted":"0","num_feature":"7","num_nodes":"15","size_leaf_vector":"1"}},{"base_weights":[-3.3869177E-1,-6.0212976E-1,-4.2173747E-2,-2.528177E-1,-7.7445084E-1,-4.0574738E-1,1.6731746E-1,2.7001903E-3,-5.9511224E-3,3.405121E-3,-7.995403E-3,-2.4639803E-3,-1.0113588E-2,2.9705905E-3,-4.737413E-3],"categories":[],"categories_nodes":[],"categories_segments":[],"categories_sizes":[],"default_left":[0,0,0,0,0,0,0,0,0,0,0,0,0,0,0],"id":30,"left_children":[1,3,5,7,9,11,13,-1,-1,-1,-1,-1,-1,-1,-1],"loss_changes":[1.3916382E1,5.488701E0,6.5452437E0,6.0095396E0,2.0277557E0,2.779149E0,4.687125E0,0E0,0E0,0E0,0E0,0E0,0E0,0E0,0E0],"parents":[2147483647,0,0,1,1,2,2,3,3,4,4,5,5,6,6],"right_children":[2,4,6,8,10,12,14,-1,-1,-1,-1,-1,-1,-1,-1],"split_conditions":[1.34011E3,4.2811E2,5.4E1,6.9E1,6.9E-1,1.33E0,2.34511E3,2.7001903E-3,-5.9511224E-3,3.405121E-3,-7.995403E-3,-2.4639803E-3,-1.0113588E-2,2.9705905E-3,-4.737413E-3],"split_indices":[6,6,0,0,4,4,6,0,0,0,0,0,0,0,0],"split_type":[0,0,0,0,0,0,0,0,0,0,0,0,0,0,0],"sum_hessian":[1.7747964E2,9.3436455E1,8.404318E1,3.1681671E1,6.1754784E1,3.0380598E1,5.3662586E1,1.2618592E1,1.9063078E1,1.0823876E0,6.0672394E1,2.5165796E1,5.2148023E0,4.5076355E1,8.586231E0],"tree_param":{"num_deleted":"0","num_feature":"7","num_nodes":"15","size_leaf_vector":"1"}},{"base_weights":[-2.9250357E-1,-6.469703E-1,1.5053655E-1,-3.280953E-1,-7.967662E-1,-4.6213046E-1,3.5546446E-1,-2.628171E-4,-7.513176E-3,-8.573991E-3,-3.543898E-3,-2.4639333E-3,-9.873939E-3,4.750643E-3,-8.385145E-3],"categories":[],"categories_nodes":[],"categories_segments":[],"categories_sizes":[],"default_left":[0,0,0,0,0,0,0,0,0,0,0,0,0,0,0],"id":31,"left_children":[1,3,5,7,9,11,13,-1,-1,-1,-1,-1,-1,-1,-1],"loss_changes":[2.7918907E1,4.4486084E0,1.0152312E1,4.2231197E0,1.4768906E0,2.0655184E0,8.991783E0,0E0,0E0,0E0,0E0,0E0,0E0,0E0,0E0],"parents":[2147483647,0,0,1,1,2,2,3,3,4,4,5,5,6,6],"right_children":[2,4,6,8,10,12,14,-1,-1,-1,-1,-1,-1,-1,-1],"split_conditions":[1.41811E3,4.2811E2,2.41E0,1.25E0,1.30011E3,1.27E0,2.44211E3,-2.628171E-4,-7.513176E-3,-8.573991E-3,-3.543898E-3,-2.4639333E-3,-9.873939E-3,4.750643E-3,-8.385145E-3],"split_indices":[6,6,5,4,6,4,6,0,0,0,0,0,0,0,0],"split_type":[0,0,0,0,0,0,0,0,0,0,0,0,0,0,0],"sum_hessian":[1.761586E2,9.7605934E1,7.8552666E1,3.221635E1,6.538959E1,1.9374424E1,5.9178246E1,1.9425497E1,1.27908535E1,5.6682426E1,8.707156E0,1.4775068E1,4.599356E0,5.433743E1,4.8408165E0],"tree_param":{"num_deleted":"0","num_feature":"7","num_nodes":"15","size_leaf_vector":"1"}},{"base_weights":[-2.6667982E-1,-5.382806E-1,6.4392425E-2,-1.4965928E-1,-7.279981E-1,1.4578966E-2,9.353324E-3,-5.324204E-3,-2.2993534E-5,-7.7467435E-3,-9.5640443E-4,-5.398887E-3,1.2517206E-3],"categories":[],"categories_nodes":[],"categories_segments":[],"categories_sizes":[],"default_left":[0,0,0,0,0,0,0,0,0,0,0,0,0],"id":32,"left_children":[1,3,5,7,9,-1,11,-1,-1,-1,-1,-1,-1],"loss_changes":[1.6005507E1,7.092575E0,6.1939435E0,1.8770444E0,1.8555603E0,0E0,5.08453E0,0E0,0E0,0E0,0E0,0E0,0E0],"parents":[2147483647,0,0,1,1,2,2,3,3,4,4,6,6],"right_children":[2,4,6,8,10,-1,12,-1,-1,-1,-1,-1,-1],"split_conditions":[1.41811E3,4.2811E2,1.45011E3,1.1511E2,1E0,1.4578966E-2,1E0,-5.324204E-3,-2.2993534E-5,-7.7467435E-3,-9.5640443E-4,-5.398887E-3,1.2517206E-3],"split_indices":[6,6,6,6,1,0,2,0,0,0,0,0,0],"split_type":[0,0,0,0,0,0,0,0,0,0,0,0,0],"sum_hessian":[1.7661276E2,9.6676605E1,7.9936165E1,3.230048E1,6.437613E1,2.0688071E0,7.7867355E1,8.252333E0,2.4048145E1,5.9741375E1,4.6347513E0,1.2922772E1,6.494459E1],"tree_param":{"num_deleted":"0","num_feature":"7","num_nodes":"13","size_leaf_vector":"1"}},{"base_weights":[-3.551838E-1,-6.396482E-1,-1.0187305E-2,-3.0231142E-1,-7.741339E-1,-6.498853E-1,1.3370065E-1,8.071816E-4,-8.493E-3,-1.0082587E-2,-6.7735696E-3,7.501032E-3,-8.213951E-3,2.5671527E-3,-4.911389E-3],"categories":[],"categories_nodes":[],"categories_segments":[],"categories_sizes":[],"default_left":[0,0,0,0,0,0,0,0,0,0,0,0,0,0,0],"id":33,"left_children":[1,3,5,7,9,11,13,-1,-1,-1,-1,-1,-1,-1,-1],"loss_changes":[1.7177725E1,4.119087E0,7.464029E0,6.1424904E0,8.569374E-1,4.190883E0,5.21907E0,0E0,0E0,0E0,0E0,0E0,0E0,0E0,0E0],"parents":[2147483647,0,0,1,1,2,2,3,3,4,4,5,5,6,6],"right_children":[2,4,6,8,10,12,14,-1,-1,-1,-1,-1,-1,-1,-1],"split_conditions":[1.41811E3,3.8911E2,1E0,1.25E0,1E0,1.53111E3,2.33711E3,8.071816E-4,-8.493E-3,-1.0082587E-2,-6.7735696E-3,7.501032E-3,-8.213951E-3,2.5671527E-3,-4.911389E-3],"split_indices":[6,6,2,4,3,6,6,0,0,0,0,0,0,0,0],"split_type":[0,0,0,0,0,0,0,0,0,0,0,0,0,0,0],"sum_hessian":[1.7410065E2,9.495341E1,7.914723E1,2.799077E1,6.696264E1,1.3887866E1,6.525937E1,1.6964079E1,1.1026691E1,1.6829647E1,5.013299E1,1.1475111E0,1.2740355E1,5.501709E1,1.0242281E1],"tree_param":{"num_deleted":"0","num_feature":"7","num_nodes":"15","size_leaf_vector":"1"}},{"base_weights":[-3.653977E-1,-6.60148E-1,-1.5652733E-2,-2.5985593E-1,-8.325659E-1,-7.260769E-1,1.4771847E-1,-8.11094E-3,-4.8168396E-4,-8.667386E-3,-3.7764285E-3,-9.123141E-3,-4.752375E-3,-4.7970177E-3,3.5161986E-3],"categories":[],"categories_nodes":[],"categories_segments":[],"categories_sizes":[],"default_left":[0,0,0,0,0,0,0,0,0,0,0,0,0,0,0],"id":34,"left_children":[1,3,5,7,9,11,13,-1,-1,-1,-1,-1,-1,-1,-1],"loss_changes":[1.7910109E1,6.2927704E0,9.453353E0,3.4437454E0,6.903877E-1,2.7767086E-1,8.65073E0,0E0,0E0,0E0,0E0,0E0,0E0,0E0,0E0],"parents":[2147483647,0,0,1,1,2,2,3,3,4,4,5,5,6,6],"right_children":[2,4,6,8,10,12,14,-1,-1,-1,-1,-1,-1,-1,-1],"split_conditions":[1.40611E3,4.2811E2,1E0,1.1511E2,1.34011E3,1.91211E3,2.38E0,-8.11094E-3,-4.8168396E-4,-8.667386E-3,-3.7764285E-3,-9.123141E-3,-4.752375E-3,-4.7970177E-3,3.5161986E-3],"split_indices":[6,6,2,6,6,6,5,0,0,0,0,0,0,0,0],"split_type":[0,0,0,0,0,0,0,0,0,0,0,0,0,0,0],"sum_hessian":[1.7283728E2,9.33111E1,7.9526184E1,2.8846663E1,6.446443E1,1.4224821E1,6.530136E1,7.218359E0,2.1628304E1,5.9118362E1,5.3460712E0,6.650254E0,7.5745673E0,1.5684952E1,4.961641E1],"tree_param":{"num_deleted":"0","num_feature":"7","num_nodes":"15","size_leaf_vector":"1"}},{"base_weights":[-3.149162E-1,-6.4734805E-1,5.278628E-2,-3.0604628E-1,-8.149384E-1,-5.132929E-1,3.3175102E-1,1.9509607E-3,-4.382973E-3,-8.763797E-3,-2.9617033E-5,2.883495E-3,-6.0415524E-3,1.1984704E-2,1.7623052E-3],"categories":[],"categories_nodes":[],"categories_segments":[],"categories_sizes":[],"default_left":[0,0,0,0,0,0,0,0,0,0,0,0,0,0,0],"id":35,"left_children":[1,3,5,7,9,11,13,-1,-1,-1,-1,-1,-1,-1,-1],"loss_changes":[2.1065445E1,4.923462E0,1.3217023E1,2.165555E0,2.9933434E0,2.189402E0,7.3306813E0,0E0,0E0,0E0,0E0,0E0,0E0,0E0,0E0],"parents":[2147483647,0,0,1,1,2,2,3,3,4,4,5,5,6,6],"right_children":[2,4,6,8,10,12,14,-1,-1,-1,-1,-1,-1,-1,-1],"split_conditions":[1.34011E3,4.2811E2,5.3E1,6.3E1,1E0,1.45011E3,5.7E1,1.9509607E-3,-4.382973E-3,-8.763797E-3,-2.9617033E-5,2.883495E-3,-6.0415524E-3,1.1984704E-2,1.7623052E-3],"split_indices":[6,6,0,0,1,6,0,0,0,0,0,0,0,0,0],"split_type":[0,0,0,0,0,0,0,0,0,0,0,0,0,0,0],"sum_hessian":[1.7105466E2,8.9436516E1,8.161814E1,3.0384308E1,5.9052208E1,2.6666372E1,5.495177E1,6.244952E0,2.4139357E1,5.4824398E1,4.227808E0,2.493524E0,2.4172848E1,7.3399367E0,4.7611835E1],"tree_param":{"num_deleted":"0","num_feature":"7","num_nodes":"15","size_leaf_vector":"1"}},{"base_weights":[-2.5391543E-1,-5.158308E-1,5.694516E-2,-5.3503133E-2,-7.369834E-1,-3.0118576E-1,3.1950924E-1,3.7688382E-3,-7.2023575E-3,-1.0128188E-2,-6.046011E-3,3.460166E-3,-4.165293E-3,9.806658E-3,9.949877E-4],"categories":[],"categories_nodes":[],"categories_segments":[],"categories_sizes":[],"default_left":[0,0,0,0,0,0,0,0,0,0,0,0,0,0,0],"id":36,"left_children":[1,3,5,7,9,11,13,-1,-1,-1,-1,-1,-1,-1,-1],"loss_changes":[1.45026245E1,9.834934E0,7.8244224E0,9.547801E0,1.7702446E0,2.7778747E0,6.87083E0,0E0,0E0,0E0,0E0,0E0,0E0,0E0,0E0],"parents":[2147483647,0,0,1,1,2,2,3,3,4,4,5,5,6,6],"right_children":[2,4,6,8,10,12,14,-1,-1,-1,-1,-1,-1,-1,-1],"split_conditions":[1.41811E3,4.2811E2,2.9E0,1.25E0,2.3E0,1.54211E3,1.73511E3,3.7688382E-3,-7.2023575E-3,-1.0128188E-2,-6.046011E-3,3.460166E-3,-4.165293E-3,9.806658E-3,9.949877E-4],"split_indices":[6,6,5,4,5,6,6,0,0,0,0,0,0,0,0],"split_type":[0,0,0,0,0,0,0,0,0,0,0,0,0,0,0],"sum_hessian":[1.7676215E2,9.55756E1,8.118654E1,3.1327085E1,6.424852E1,3.4281006E1,4.6905537E1,1.9302032E1,1.2025052E1,1.8678581E1,4.5569935E1,4.8828797E0,2.9398125E1,1.0848174E1,3.605736E1],"tree_param":{"num_deleted":"0","num_feature":"7","num_nodes":"15","size_leaf_vector":"1"}},{"base_weights":[-2.720657E-1,-6.397451E-1,-1.4384873E-1,-8.1042093E-1,-5.441584E-1,-5.47561E-1,-3.6129498E-4,-3.5490016E-3,-8.965957E-3,-3.604311E-4,-6.2473216E-3,-9.365607E-3,-3.1550997E-3,8.56642E-4,-4.679802E-3],"categories":[],"categories_nodes":[],"categories_segments":[],"categories_sizes":[],"default_left":[0,0,0,0,0,0,0,0,0,0,0,0,0,0,0],"id":37,"left_children":[1,3,5,7,9,11,13,-1,-1,-1,-1,-1,-1,-1,-1],"loss_changes":[8.002016E0,2.784977E-1,7.4487324E0,2.2306347E-1,1.2594738E0,2.7481947E0,3.8967383E0,0E0,0E0,0E0,0E0,0E0,0E0,0E0,0E0],"parents":[2147483647,0,0,1,1,2,2,3,3,4,4,5,5,6,6],"right_children":[2,4,6,8,10,12,14,-1,-1,-1,-1,-1,-1,-1,-1],"split_conditions":[2.22E0,1.61E0,1E0,1E0,1.69E0,2.97E0,4.35E0,-3.5490016E-3,-8.965957E-3,-3.604311E-4,-6.2473216E-3,-9.365607E-3,-3.1550997E-3,8.56642E-4,-4.679802E-3],"split_indices":[5,5,3,3,5,5,5,0,0,0,0,0,0,0,0],"split_type":[0,0,0,0,0,0,0,0,0,0,0,0,0,0,0],"sum_hessian":[1.7069223E2,4.3101974E1,1.27590256E2,1.2788667E1,3.0313305E1,3.2718452E1,9.48718E1,2.8487139E0,9.939953E0,4.3470745E0,2.596623E1,1.1090623E1,2.1627829E1,8.082048E1,1.405133E1],"tree_param":{"num_deleted":"0","num_feature":"7","num_nodes":"15","size_leaf_vector":"1"}},{"base_weights":[-1.8463106E-1,-5.3547436E-1,1.7419262E-1,-1.9026084E-1,-7.144503E-1,-5.6064826E-1,3.3439592E-1,-6.1085657E-3,-2.6624216E-4,-7.7243554E-3,6.854157E-4,3.6489167E-3,-6.5010423E-3,2.2490614E-3,1.543537E-2],"categories":[],"categories_nodes":[],"categories_segments":[],"categories_sizes":[],"default_left":[0,0,0,0,0,0,0,0,0,0,0,0,0,0,0],"id":38,"left_children":[1,3,5,7,9,11,13,-1,-1,-1,-1,-1,-1,-1,-1],"loss_changes":[2.2194532E1,5.3636646E0,1.0493837E1,2.1692467E0,2.6979446E0,1.5655446E0,9.251456E0,0E0,0E0,0E0,0E0,0E0,0E0,0E0,0E0],"parents":[2147483647,0,0,1,1,2,2,3,3,4,4,5,5,6,6],"right_children":[2,4,6,8,10,12,14,-1,-1,-1,-1,-1,-1,-1,-1],"split_conditions":[1.34011E3,4.2811E2,1E0,1.1511E2,1E0,3.8E1,1E0,-6.1085657E-3,-2.6624216E-4,-7.7243554E-3,6.854157E-4,3.6489167E-3,-6.5010423E-3,2.2490614E-3,1.543537E-2],"split_indices":[6,6,2,6,1,0,1,0,0,0,0,0,0,0,0],"split_type":[0,0,0,0,0,0,0,0,0,0,0,0,0,0,0],"sum_hessian":[1.7455884E2,8.801198E1,8.654686E1,3.0754658E1,5.7257324E1,1.5043554E1,7.15033E1,7.848535E0,2.2906122E1,5.332199E1,3.9353304E0,1.0544866E0,1.3989068E1,6.66537E1,4.8496E0],"tree_param":{"num_deleted":"0","num_feature":"7","num_nodes":"15","size_leaf_vector":"1"}},{"base_weights":[-3.2706428E-1,-6.3976955E-1,3.15236E-2,-3.1113732E-1,-8.591161E-1,-5.110516E-1,2.543764E-1,-4.9832807E-4,-6.8493094E-3,-1.0411458E-2,-6.268466E-3,6.5443777E-3,-6.3006827E-3,5.6040646E-3,-1.2874678E-3],"categories":[],"categories_nodes":[],"categories_segments":[],"categories_sizes":[],"default_left":[0,0,0,0,0,0,0,0,0,0,0,0,0,0,0],"id":39,"left_children":[1,3,5,7,9,11,13,-1,-1,-1,-1,-1,-1,-1,-1],"loss_changes":[1.996982E1,6.586689E0,1.026611E1,3.8364778E0,1.7342796E0,3.8439417E0,7.1175203E0,0E0,0E0,0E0,0E0,0E0,0E0,0E0,0E0],"parents":[2147483647,0,0,1,1,2,2,3,3,4,4,5,5,6,6],"right_children":[2,4,6,8,10,12,14,-1,-1,-1,-1,-1,-1,-1,-1],"split_conditions":[1.41811E3,5.4411E2,5.2E1,1.25E0,6E1,1.51511E3,6.7E1,-4.9832807E-4,-6.8493094E-3,-1.0411458E-2,-6.268466E-3,6.5443777E-3,-6.3006827E-3,5.6040646E-3,-1.2874678E-3],"split_indices":[6,6,0,4,0,6,0,0,0,0,0,0,0,0,0],"split_type":[0,0,0,0,0,0,0,0,0,0,0,0,0,0,0],"sum_hessian":[1.7691171E2,9.408292E1,8.28288E1,3.8627857E1,5.5455055E1,2.3738916E1,5.9089878E1,2.3401855E1,1.5226003E1,2.9137497E1,2.6317558E1,1.7827128E0,2.1956203E1,3.2592785E1,2.6497097E1],"tree_param":{"num_deleted":"0","num_feature":"7","num_nodes":"15","size_leaf_vector":"1"}},{"base_weights":[-2.6876897E-1,-6.8986326E-1,-1.416371E-1,-7.569005E-1,3.6579862E-2,-5.9697527E-1,-2.9885897E-2,6.6570356E-4,-8.165384E-3,-4.403903E-3,6.1873635E-3,-7.405853E-3,-3.977526E-3,1.0715723E-3,-4.6024043E-3],"categories":[],"categories_nodes":[],"categories_segments":[],"categories_sizes":[],"default_left":[0,0,0,0,0,0,0,0,0,0,0,0,0,0,0],"id":40,"left_children":[1,3,5,7,9,11,13,-1,-1,-1,-1,-1,-1,-1,-1],"loss_changes":[8.903959E0,1.9140034E0,6.6181564E0,1.7981625E0,1.4460287E0,4.39188E-1,6.287103E0,0E0,0E0,0E0,0E0,0E0,0E0,0E0,0E0],"parents":[2147483647,0,0,1,1,2,2,3,3,4,4,5,5,6,6],"right_children":[2,4,6,8,10,12,14,-1,-1,-1,-1,-1,-1,-1,-1],"split_conditions":[2.15E0,1E0,1E0,7.1E-1,1.14E0,1.13E0,1.37E0,6.6570356E-4,-8.165384E-3,-4.403903E-3,6.1873635E-3,-7.405853E-3,-3.977526E-3,1.0715723E-3,-4.6024043E-3],"split_indices":[5,1,2,4,4,4,4,0,0,0,0,0,0,0,0],"split_type":[0,0,0,0,0,0,0,0,0,0,0,0,0,0,0],"sum_hessian":[1.6714711E2,3.7734406E1,1.294127E2,3.450803E1,3.226375E0,2.464656E1,1.0476614E2,2.32254E0,3.218549E1,1.9072521E0,1.3191231E0,1.2743214E1,1.1903347E1,8.003167E1,2.4734472E1],"tree_param":{"num_deleted":"0","num_feature":"7","num_nodes":"15","size_leaf_vector":"1"}},{"base_weights":[-2.9693696E-1,-6.088193E-1,3.2596692E-2,-3.550631E-1,-7.959096E-1,-7.3687845E-1,2.0542212E-1,-4.1435175E-3,4.508076E-3,-8.724645E-3,1.3196681E-3,-9.328476E-3,-4.499662E-3,3.1196272E-3,-8.768442E-3],"categories":[],"categories_nodes":[],"categories_segments":[],"categories_sizes":[],"default_left":[0,0,0,0,0,0,0,0,0,0,0,0,0,0,0],"id":41,"left_children":[1,3,5,7,9,11,13,-1,-1,-1,-1,-1,-1,-1,-1],"loss_changes":[1.7728024E1,3.922348E0,1.1418916E1,2.0690007E0,3.6794014E0,4.662466E-1,8.341481E0,0E0,0E0,0E0,0E0,0E0,0E0,0E0,0E0],"parents":[2147483647,0,0,1,1,2,2,3,3,4,4,5,5,6,6],"right_children":[2,4,6,8,10,12,14,-1,-1,-1,-1,-1,-1,-1,-1],"split_conditions":[1.34011E3,5.4411E2,1E0,5.1811E2,1E0,1.93111E3,2.43511E3,-4.1435175E-3,4.508076E-3,-8.724645E-3,1.3196681E-3,-9.328476E-3,-4.499662E-3,3.1196272E-3,-8.768442E-3],"split_indices":[6,6,2,6,1,6,6,0,0,0,0,0,0,0,0],"split_type":[0,0,0,0,0,0,0,0,0,0,0,0,0,0,0],"sum_hessian":[1.7129924E2,8.757122E1,8.372802E1,3.8394043E1,4.9177177E1,1.4757793E1,6.897022E1,3.621547E1,2.1785722E0,4.5484196E1,3.6929805E0,7.4309263E0,7.326867E0,6.343709E1,5.5331326E0],"tree_param":{"num_deleted":"0","num_feature":"7","num_nodes":"15","size_leaf_vector":"1"}},{"base_weights":[-2.597194E-1,-4.2769793E-1,1.9388531E-1,-7.86695E-1,-2.924425E-1,-5.0467145E-1,5.9785634E-1,-8.775934E-3,6.994739E-4,-2.0702742E-3,-6.545408E-3,-4.165536E-4,-9.515779E-3,1.1395153E-2,-1.1263298E-3],"categories":[],"categories_nodes":[],"categories_segments":[],"categories_sizes":[],"default_left":[0,0,0,0,0,0,0,0,0,0,0,0,0,0,0],"id":42,"left_children":[1,3,5,7,9,11,13,-1,-1,-1,-1,-1,-1,-1,-1],"loss_changes":[1.2939652E1,5.7640095E0,1.3363733E1,2.6458073E0,2.6869092E0,3.5819588E0,1.1590859E1,0E0,0E0,0E0,0E0,0E0,0E0,0E0,0E0],"parents":[2147483647,0,0,1,1,2,2,3,3,4,4,5,5,6,6],"right_children":[2,4,6,8,10,12,14,-1,-1,-1,-1,-1,-1,-1,-1],"split_conditions":[3.6E0,2.07E0,5.3E1,1E0,1.43E0,1.15E0,4.31E0,-8.775934E-3,6.994739E-4,-2.0702742E-3,-6.545408E-3,-4.165536E-4,-9.515779E-3,1.1395153E-2,-1.1263298E-3],"split_indices":[5,5,0,1,4,4,5,0,0,0,0,0,0,0,0],"split_type":[0,0,0,0,0,0,0,0,0,0,0,0,0,0,0],"sum_hessian":[1.677327E2,1.2244579E2,4.5286907E1,3.2190056E1,9.025573E1,1.6501986E1,2.878492E1,2.907993E1,3.110129E0,7.4300735E1,1.5954997E1,8.641842E0,7.860144E0,1.5990401E1,1.2794519E1],"tree_param":{"num_deleted":"0","num_feature":"7","num_nodes":"15","size_leaf_vector":"1"}},{"base_weights":[-2.5978613E-1,-7.730509E-1,-1.0420687E-1,-9.7724634E-1,-6.128857E-1,-4.9968153E-1,2.1044562E-2,-1.3953878E-3,-1.0311482E-2,-4.385352E-3,-8.476443E-3,-5.7130377E-3,7.7010845E-3,-1.9214997E-3,4.8271082E-3],"categories":[],"categories_nodes":[],"categories_segments":[],"categories_sizes":[],"default_left":[0,0,0,0,0,0,0,0,0,0,0,0,0,0,0],"id":43,"left_children":[1,3,5,7,9,11,13,-1,-1,-1,-1,-1,-1,-1,-1],"loss_changes":[1.3573188E1,6.9673157E-1,6.5672164E0,5.6650734E-1,6.467991E-1,3.3392305E0,1.0081784E1,0E0,0E0,0E0,0E0,0E0,0E0,0E0,0E0],"parents":[2147483647,0,0,1,1,2,2,3,3,4,4,5,5,6,6],"right_children":[2,4,6,8,10,12,14,-1,-1,-1,-1,-1,-1,-1,-1],"split_conditions":[2.15E0,1.62E0,5.1E1,4.2E1,7.2E1,6.09E0,3.58E0,-1.3953878E-3,-1.0311482E-2,-4.385352E-3,-8.476443E-3,-5.7130377E-3,7.7010845E-3,-1.9214997E-3,4.8271082E-3],"split_indices":[5,5,0,0,0,5,5,0,0,0,0,0,0,0,0],"split_type":[0,0,0,0,0,0,0,0,0,0,0,0,0,0,0],"sum_hessian":[1.6998523E2,3.861694E1,1.313683E2,1.4732677E1,2.3884262E1,3.087926E1,1.0048904E2,1.1076134E0,1.3625065E1,1.5351235E1,8.533026E0,2.9751228E1,1.1280316E0,6.914302E1,3.1346016E1],"tree_param":{"num_deleted":"0","num_feature":"7","num_nodes":"15","size_leaf_vector":"1"}},{"base_weights":[-2.0251253E-1,-6.1197746E-1,-6.045539E-2,-4.8076034E-1,-9.145907E-1,2.3836682E-2,-4.6796486E-1,-5.645255E-3,-3.376792E-4,-1.0522248E-2,-2.751656E-3,-4.188474E-3,1.7168442E-3,-5.218219E-3,2.7201318E-3],"categories":[],"categories_nodes":[],"categories_segments":[],"categories_sizes":[],"default_left":[0,0,0,0,0,0,0,0,0,0,0,0,0,0,0],"id":44,"left_children":[1,3,5,7,9,11,13,-1,-1,-1,-1,-1,-1,-1,-1],"loss_changes":[9.976732E0,1.3166866E0,4.439571E0,1.2151151E0,7.9034805E-1,7.125848E0,1.0244808E0,0E0,0E0,0E0,0E0,0E0,0E0,0E0,0E0],"parents":[2147483647,0,0,1,1,2,2,3,3,4,4,5,5,6,6],"right_children":[2,4,6,8,10,12,14,-1,-1,-1,-1,-1,-1,-1,-1],"split_conditions":[2.22E0,1.3E0,1.43E0,1.18E0,7.8E1,5.1E1,1E0,-5.645255E-3,-3.376792E-4,-1.0522248E-2,-2.751656E-3,-4.188474E-3,1.7168442E-3,-5.218219E-3,2.7201318E-3],"split_indices":[5,4,4,4,0,0,1,0,0,0,0,0,0,0,0],"split_type":[0,0,0,0,0,0,0,0,0,0,0,0,0,0,0],"sum_hessian":[1.7115356E2,4.323248E1,1.2792109E2,3.1962015E1,1.1270464E1,1.0677625E2,2.114483E1,2.669626E1,5.265754E0,8.742985E0,2.527479E0,2.627399E1,8.0502266E1,1.998509E1,1.1597395E0],"tree_param":{"num_deleted":"0","num_feature":"7","num_nodes":"15","size_leaf_vector":"1"}},{"base_weights":[-2.4547577E-1,-6.450417E-1,-9.864859E-2,-8.5912704E-1,-5.067402E-1,-4.5234072E-1,2.6931023E-2,-9.018016E-3,-1.2886396E-3,-9.6263345E-3,-3.8700618E-3,-5.125975E-3,4.7758645E-3,-4.1269464E-3,1.5766977E-3],"categories":[],"categories_nodes":[],"categories_segments":[],"categories_sizes":[],"default_left":[0,0,0,0,0,0,0,0,0,0,0,0,0,0,0],"id":45,"left_children":[1,3,5,7,9,11,13,-1,-1,-1,-1,-1,-1,-1,-1],"loss_changes":[9.822648E0,9.000664E-1,5.538127E0,3.9062214E-1,1.2562628E0,2.074604E0,5.396386E0,0E0,0E0,0E0,0E0,0E0,0E0,0E0,0E0],"parents":[2147483647,0,0,1,1,2,2,3,3,4,4,5,5,6,6],"right_children":[2,4,6,8,10,12,14,-1,-1,-1,-1,-1,-1,-1,-1],"split_conditions":[2.23E0,1.65E0,5.2E1,1E0,5.1E1,5.72E0,1E0,-9.018016E-3,-1.2886396E-3,-9.6263345E-3,-3.8700618E-3,-5.125975E-3,4.7758645E-3,-4.1269464E-3,1.5766977E-3],"split_indices":[5,5,0,1,0,5,3,0,0,0,0,0,0,0,0],"split_type":[0,0,0,0,0,0,0,0,0,0,0,0,0,0,0],"sum_hessian":[1.6751479E2,4.4102875E1,1.2341192E2,1.5263535E1,2.883934E1,3.165482E1,9.1757095E1,1.4198891E1,1.0646441E0,4.5344462E0,2.4304893E1,3.014996E1,1.5048602E0,2.0538189E1,7.121891E1],"tree_param":{"num_deleted":"0","num_feature":"7","num_nodes":"15","size_leaf_vector":"1"}},{"base_weights":[-3.299812E-1,-5.8941424E-1,-3.477237E-2,-3.2546547E-1,-7.5105006E-1,-6.316842E-1,1.4948934E-1,-3.84357E-3,8.780444E-3,-8.163842E-3,1.8612877E-3,3.7587576E-3,-8.76551E-3,-1.0223167E-3,6.7015854E-3],"categories":[],"categories_nodes":[],"categories_segments":[],"categories_sizes":[],"default_left":[0,0,0,0,0,0,0,0,0,0,0,0,0,0,0],"id":46,"left_children":[1,3,5,7,9,11,13,-1,-1,-1,-1,-1,-1,-1,-1],"loss_changes":[1.3343149E1,3.7151527E0,9.188249E0,2.9608815E0,3.6295662E0,5.188287E0,8.454776E0,0E0,0E0,0E0,0E0,0E0,0E0,0E0,0E0],"parents":[2147483647,0,0,1,1,2,2,3,3,4,4,5,5,6,6],"right_children":[2,4,6,8,10,12,14,-1,-1,-1,-1,-1,-1,-1,-1],"split_conditions":[1.42411E3,5.4411E2,5.1E1,5.2711E2,8.1E1,1.72511E3,3.47E0,-3.84357E-3,8.780444E-3,-8.163842E-3,1.8612877E-3,3.7587576E-3,-8.76551E-3,-1.0223167E-3,6.7015854E-3],"split_indices":[6,6,0,6,0,6,5,0,0,0,0,0,0,0,0],"split_type":[0,0,0,0,0,0,0,0,0,0,0,0,0,0,0],"sum_hessian":[1.7348985E2,9.1809746E1,8.168011E1,3.6013626E1,5.5796124E1,1.8693789E1,6.2986317E1,3.498246E1,1.031166E0,5.228036E1,3.515765E0,3.5502918E0,1.5143497E1,4.3000896E1,1.9985416E1],"tree_param":{"num_deleted":"0","num_feature":"7","num_nodes":"15","size_leaf_vector":"1"}},{"base_weights":[-2.4948879E-1,-5.805674E-1,1.1493703E-1,-2.664922E-1,-7.877057E-1,-4.1887304E-1,3.6267406E-1,8.398098E-3,-4.041205E-3,4.092643E-3,-8.177504E-3,-2.7561395E-3,-9.661297E-3,1.1974173E-2,2.0187022E-3],"categories":[],"categories_nodes":[],"categories_segments":[],"categories_sizes":[],"default_left":[0,0,0,0,0,0,0,0,0,0,0,0,0,0,0],"id":47,"left_children":[1,3,5,7,9,11,13,-1,-1,-1,-1,-1,-1,-1,-1],"loss_changes":[2.111496E1,5.74757E0,1.1244375E1,6.110584E0,2.3007278E0,1.8545895E0,7.520302E0,0E0,0E0,0E0,0E0,0E0,0E0,0E0,0E0],"parents":[2147483647,0,0,1,1,2,2,3,3,4,4,5,5,6,6],"right_children":[2,4,6,8,10,12,14,-1,-1,-1,-1,-1,-1,-1,-1],"split_conditions":[1.41811E3,5.4411E2,5.3E1,5.3E1,6.9E-1,1.33E0,5.7E1,8.398098E-3,-4.041205E-3,4.092643E-3,-8.177504E-3,-2.7561395E-3,-9.661297E-3,1.1974173E-2,2.0187022E-3],"split_indices":[6,6,0,0,4,4,0,0,0,0,0,0,0,0,0],"split_type":[0,0,0,0,0,0,0,0,0,0,0,0,0,0,0],"sum_hessian":[1.7345175E2,9.057333E1,8.287842E1,3.690395E1,5.3669384E1,2.6052065E1,5.682635E1,3.5185633E0,3.3385384E1,1.0050924E0,5.266429E1,2.1838804E1,4.213262E0,8.137518E0,4.868883E1],"tree_param":{"num_deleted":"0","num_feature":"7","num_nodes":"15","size_leaf_vector":"1"}},{"base_weights":[-2.8110582E-1,-5.6465787E-1,4.5177076E-2,-1.6419216E-1,-7.4597913E-1,-4.857931E-1,2.1353662E-1,-4.8317784E-3,3.146422E-3,-8.141707E-3,1.1417676E-3,-6.283745E-3,5.088083E-3,-2.9839585E-3,3.7266917E-3],"categories":[],"categories_nodes":[],"categories_segments":[],"categories_sizes":[],"default_left":[0,0,0,0,0,0,0,0,0,0,0,0,0,0,0],"id":48,"left_children":[1,3,5,7,9,11,13,-1,-1,-1,-1,-1,-1,-1,-1],"loss_changes":[1.6034561E1,6.6054554E0,7.378791E0,4.7585936E0,3.8173103E0,3.1414337E0,5.2015066E0,0E0,0E0,0E0,0E0,0E0,0E0,0E0,0E0],"parents":[2147483647,0,0,1,1,2,2,3,3,4,4,5,5,6,6],"right_children":[2,4,6,8,10,12,14,-1,-1,-1,-1,-1,-1,-1,-1],"split_conditions":[1.41811E3,4.2811E2,5.1E1,2.6111E2,1E0,2.38311E3,1E0,-4.8317784E-3,3.146422E-3,-8.141707E-3,1.1417676E-3,-6.283745E-3,5.088083E-3,-2.9839585E-3,3.7266917E-3],"split_indices":[6,6,0,6,1,6,3,0,0,0,0,0,0,0,0],"split_type":[0,0,0,0,0,0,0,0,0,0,0,0,0,0,0],"sum_hessian":[1.7203683E2,9.165481E1,8.038203E1,2.9159264E1,6.2495544E1,1.8897593E1,6.1484436E1,1.7495317E1,1.1663946E1,5.795448E1,4.541062E0,1.6850235E1,2.0473564E0,1.4372547E1,4.711189E1],"tree_param":{"num_deleted":"0","num_feature":"7","num_nodes":"15","size_leaf_vector":"1"}},{"base_weights":[-2.311899E-1,-5.901794E-1,1.1187194E-1,-3.3654737E-1,-7.7050406E-1,-4.8424068E-1,2.3957327E-1,-6.2486064E-3,-1.4165802E-3,-8.078587E-3,-1.9410924E-3,3.7162846E-3,-6.5809744E-3,1.3565251E-3,1.1823835E-2],"categories":[],"categories_nodes":[],"categories_segments":[],"categories_sizes":[],"default_left":[0,0,0,0,0,0,0,0,0,0,0,0,0,0,0],"id":49,"left_children":[1,3,5,7,9,11,13,-1,-1,-1,-1,-1,-1,-1,-1],"loss_changes":[2.1041103E1,3.5543556E0,6.809586E0,1.9581566E0,8.758068E-1,2.6021688E0,7.0003176E0,0E0,0E0,0E0,0E0,0E0,0E0,0E0,0E0],"parents":[2147483647,0,0,1,1,2,2,3,3,4,4,5,5,6,6],"right_children":[2,4,6,8,10,12,14,-1,-1,-1,-1,-1,-1,-1,-1],"split_conditions":[1.34011E3,5.4411E2,1E0,2.0811E2,1E0,1.53111E3,1E0,-6.2486064E-3,-1.4165802E-3,-8.078587E-3,-1.9410924E-3,3.7162846E-3,-6.5809744E-3,1.3565251E-3,1.1823835E-2],"split_indices":[6,6,2,6,1,6,1,0,0,0,0,0,0,0,0],"split_type":[0,0,0,0,0,0,0,0,0,0,0,0,0,0,0],"sum_hessian":[1.6931364E2,8.23842E1,8.692945E1,3.5424675E1,4.6959526E1,1.4844239E1,7.208521E1,1.3397942E1,2.2026731E1,4.3724293E1,3.2352324E0,2.3142078E0,1.2530031E1,6.595882E1,6.1263947E0],"tree_param":{"num_deleted":"0","num_feature":"7","num_nodes":"15","size_leaf_vector":"1"}},{"base_weights":[-2.5519684E-1,-5.6561095E-1,4.6597064E-2,-3.1968257E-1,-7.425106E-1,-2.851147E-2,8.3416295E-1,-8.436938E-5,-7.3872036E-3,-7.9662055E-3,-1.312202E-4,6.780462E-4,-5.678107E-3,-3.0637628E-3,1.4397847E-2],"categories":[],"categories_nodes":[],"categories_segments":[],"categories_sizes":[],"default_left":[0,0,0,0,0,0,0,0,0,0,0,0,0,0,0],"id":50,"left_children":[1,3,5,7,9,11,13,-1,-1,-1,-1,-1,-1,-1,-1],"loss_changes":[1.6483166E1,3.5333366E0,5.3472433E0,4.9522047E0,1.9493141E0,4.356353E0,5.8761177E0,0E0,0E0,0E0,0E0,0E0,0E0,0E0,0E0],"parents":[2147483647,0,0,1,1,2,2,3,3,4,4,5,5,6,6],"right_children":[2,4,6,8,10,12,14,-1,-1,-1,-1,-1,-1,-1,-1],"split_conditions":[1.34011E3,5.4411E2,1E0,1.25E0,1E0,2.35511E3,9.36E-1,-8.436938E-5,-7.3872036E-3,-7.9662055E-3,-1.312202E-4,6.780462E-4,-5.678107E-3,-3.0637628E-3,1.4397847E-2],"split_indices":[6,6,1,4,1,6,4,0,0,0,0,0,0,0,0],"split_type":[0,0,0,0,0,0,0,0,0,0,0,0,0,0,0],"sum_hessian":[1.7466847E2,8.567361E1,8.899487E1,3.7017925E1,4.865568E1,8.212644E1,6.868431E0,2.1826298E1,1.5191627E1,4.5209614E1,3.4460673E0,7.042345E1,1.1702996E1,2.5535538E0,4.3148775E0],"tree_param":{"num_deleted":"0","num_feature":"7","num_nodes":"15","size_leaf_vector":"1"}},{"base_weights":[-2.4846329E-1,-1.6416967E-1,-7.1563727E-1,-4.8128873E-1,-7.081913E-2,-8.092905E-1,4.77928E-3,-1.7736999E-3,-5.734036E-3,-3.7711766E-3,2.9652147E-4,-4.803588E-3,-9.771909E-3],"categories":[],"categories_nodes":[],"categories_segments":[],"categories_sizes":[],"default_left":[0,0,0,0,0,0,0,0,0,0,0,0,0],"id":51,"left_children":[1,3,5,7,9,11,-1,-1,-1,-1,-1,-1,-1],"loss_changes":[6.591028E0,4.2765226E0,3.2641993E0,8.205571E-1,3.5092702E0,8.693161E-1,0E0,0E0,0E0,0E0,0E0,0E0,0E0],"parents":[2147483647,0,0,1,1,2,2,3,3,4,4,5,5],"right_children":[2,4,6,8,10,12,-1,-1,-1,-1,-1,-1,-1],"split_conditions":[1.45E0,5.1E1,1E0,9.2E-1,1E0,1.56E0,4.77928E-3,-1.7736999E-3,-5.734036E-3,-3.7711766E-3,2.9652147E-4,-4.803588E-3,-9.771909E-3],"split_indices":[4,0,1,4,3,4,0,0,0,0,0,0,0],"split_type":[0,0,0,0,0,0,0,0,0,0,0,0,0],"sum_hessian":[1.6935423E2,1.4461273E2,2.4741505E1,3.1943258E1,1.1266947E2,2.3239937E1,1.5015692E0,8.110259E0,2.3833E1,2.7149012E1,8.5520454E1,9.158535E0,1.4081402E1],"tree_param":{"num_deleted":"0","num_feature":"7","num_nodes":"13","size_leaf_vector":"1"}},{"base_weights":[-1.9615999E-1,-3.1326813E-1,1.38696E-1,-9.968729E-2,-4.4315615E-1,-4.8599935E-1,4.182417E-1,-2.128215E-3,5.6485175E-3,-4.908286E-3,1.214702E-3,2.8213623E-3,-8.692751E-3,8.4867235E-3,-6.9737673E-4],"categories":[],"categories_nodes":[],"categories_segments":[],"categories_sizes":[],"default_left":[0,0,0,0,0,0,0,0,0,0,0,0,0,0,0],"id":52,"left_children":[1,3,5,7,9,11,13,-1,-1,-1,-1,-1,-1,-1,-1],"loss_changes":[6.7720666E0,3.4910173E0,8.088294E0,3.8402967E0,2.184782E0,4.4910326E0,6.724029E0,0E0,0E0,0E0,0E0,0E0,0E0,0E0,0E0],"parents":[2147483647,0,0,1,1,2,2,3,3,4,4,5,5,6,6],"right_children":[2,4,6,8,10,12,14,-1,-1,-1,-1,-1,-1,-1,-1],"split_conditions":[3.58E0,1.04E0,5.1E1,1.01E0,1E0,4.2E1,4.31E0,-2.128215E-3,5.6485175E-3,-4.908286E-3,1.214702E-3,2.8213623E-3,-8.692751E-3,8.4867235E-3,-6.9737673E-4],"split_indices":[5,4,0,4,1,0,5,0,0,0,0,0,0,0,0],"split_type":[0,0,0,0,0,0,0,0,0,0,0,0,0,0,0],"sum_hessian":[1.7058554E2,1.26433E2,4.4152546E1,4.848098E1,7.795201E1,1.3421422E1,3.0731123E1,4.200893E1,6.472049E0,7.200334E1,5.9486756E0,4.5554924E0,8.86593E0,1.5935651E1,1.4795471E1],"tree_param":{"num_deleted":"0","num_feature":"7","num_nodes":"15","size_leaf_vector":"1"}},{"base_weights":[-2.711962E-1,-6.926279E-1,-1.4887165E-1,-7.3726183E-1,-1.2223228E-1,-2.689781E-1,8.421968E-2,-5.509308E-3,-8.56219E-3,-6.378779E-3,3.2805486E-3,-8.584627E-3,-2.1752226E-3,5.004547E-3,-4.316752E-3],"categories":[],"categories_nodes":[],"categories_segments":[],"categories_sizes":[],"default_left":[0,0,0,0,0,0,0,0,0,0,0,0,0,0,0],"id":53,"left_children":[1,3,5,7,9,11,13,-1,-1,-1,-1,-1,-1,-1,-1],"loss_changes":[8.571834E0,8.666897E-1,3.709561E0,2.9644966E-1,1.1208688E0,2.456739E0,9.99609E0,0E0,0E0,0E0,0E0,0E0,0E0,0E0,0E0],"parents":[2147483647,0,0,1,1,2,2,3,3,4,4,5,5,6,6],"right_children":[2,4,6,8,10,12,14,-1,-1,-1,-1,-1,-1,-1,-1],"split_conditions":[2.15E0,1E0,3.58E0,1.69E0,5.4E1,4.2E1,4.35E0,-5.509308E-3,-8.56219E-3,-6.378779E-3,3.2805486E-3,-8.584627E-3,-2.1752226E-3,5.004547E-3,-4.316752E-3],"split_indices":[5,1,5,5,0,0,5,0,0,0,0,0,0,0,0],"split_type":[0,0,0,0,0,0,0,0,0,0,0,0,0,0,0],"sum_hessian":[1.6727747E2,3.6582264E1,1.3069519E2,3.3656105E1,2.9261606E0,8.615012E1,4.454508E1,1.5308566E1,1.8347538E1,1.1698761E0,1.7562844E0,5.6571846E0,8.0492935E1,2.4670399E1,1.9874678E1],"tree_param":{"num_deleted":"0","num_feature":"7","num_nodes":"15","size_leaf_vector":"1"}},{"base_weights":[-2.5100031E-1,-6.331839E-1,-1.19806305E-1,-7.3329306E-1,1.9188121E-2,-2.3900662E-2,-6.060035E-1,-7.7058366E-3,-3.2115134E-3,6.1888276E-3,-6.1114435E-3,-5.1549356E-3,1.1655726E-3,-6.664894E-3,1.7117966E-3],"categories":[],"categories_nodes":[],"categories_segments":[],"categories_sizes":[],"default_left":[0,0,0,0,0,0,0,0,0,0,0,0,0,0,0],"id":54,"left_children":[1,3,5,7,9,11,13,-1,-1,-1,-1,-1,-1,-1,-1],"loss_changes":[8.451291E0,2.8371658E0,5.9465284E0,3.2889175E-1,2.9204705E0,7.5046906E0,1.102274E0,0E0,0E0,0E0,0E0,0E0,0E0,0E0,0E0],"parents":[2147483647,0,0,1,1,2,2,3,3,4,4,5,5,6,6],"right_children":[2,4,6,8,10,12,14,-1,-1,-1,-1,-1,-1,-1,-1],"split_conditions":[1E0,7.7E1,1.43E0,1E0,8.1E1,5.1E1,1E0,-7.7058366E-3,-3.2115134E-3,6.1888276E-3,-6.1114435E-3,-5.1549356E-3,1.1655726E-3,-6.664894E-3,1.7117966E-3],"split_indices":[3,0,4,1,0,0,1,0,0,0,0,0,0,0,0],"split_type":[0,0,0,0,0,0,0,0,0,0,0,0,0,0,0],"sum_hessian":[1.6906615E2,4.2227158E1,1.26839E2,3.650177E1,5.725387E0,1.0681766E2,2.0021336E1,3.2675575E1,3.8261962E0,2.9433067E0,2.7820804E0,2.3144262E1,8.367339E1,1.8707792E1,1.3135436E0],"tree_param":{"num_deleted":"0","num_feature":"7","num_nodes":"15","size_leaf_vector":"1"}},{"base_weights":[-1.9817746E-1,-5.4405254E-1,1.8111347E-1,-8.562233E-1,-4.2401507E-1,-3.8957477E-1,3.8052216E-1,-9.6441675E-3,3.112756E-4,-6.370059E-4,-6.197306E-3,-1.723078E-3,-9.885894E-3,-2.440313E-3,5.9349015E-3],"categories":[],"categories_nodes":[],"categories_segments":[],"categories_sizes":[],"default_left":[0,0,0,0,0,0,0,0,0,0,0,0,0,0,0],"id":55,"left_children":[1,3,5,7,9,11,13,-1,-1,-1,-1,-1,-1,-1,-1],"loss_changes":[2.18879E1,2.9016514E0,9.248868E0,2.2588654E0,4.5377493E0,2.5889623E0,8.094653E0,0E0,0E0,0E0,0E0,0E0,0E0,0E0,0E0],"parents":[2147483647,0,0,1,1,2,2,3,3,4,4,5,5,6,6],"right_children":[2,4,6,8,10,12,14,-1,-1,-1,-1,-1,-1,-1,-1],"split_conditions":[1.40611E3,2.07E0,2.41E0,1.19211E3,5.4411E2,2.27E0,5.1E1,-9.6441675E-3,3.112756E-4,-6.370059E-4,-6.197306E-3,-1.723078E-3,-9.885894E-3,-2.440313E-3,5.9349015E-3],"split_indices":[6,5,5,6,6,5,0,0,0,0,0,0,0,0,0],"split_type":[0,0,0,0,0,0,0,0,0,0,0,0,0,0,0],"sum_hessian":[1.6509358E2,8.612337E1,7.897022E1,2.2215782E1,6.390758E1,2.020159E1,5.876863E1,1.972401E1,2.491772E0,2.2961206E1,4.0946377E1,1.5769522E1,4.432068E0,1.4906814E1,4.3861816E1],"tree_param":{"num_deleted":"0","num_feature":"7","num_nodes":"15","size_leaf_vector":"1"}},{"base_weights":[-1.8640001E-1,-8.5633546E-1,-4.4133198E-2,-8.780687E-3,-1.960275E-3,-4.8590294E-1,1.6070661E-1,-5.9544365E-3,-2.340164E-3,-3.9146636E-3,3.1617722E-3],"categories":[],"categories_nodes":[],"categories_segments":[],"categories_sizes":[],"default_left":[0,0,0,0,0,0,0,0,0,0,0],"id":56,"left_children":[1,3,5,-1,-1,7,9,-1,-1,-1,-1],"loss_changes":[1.5616817E1,2.3996735E-1,1.2433335E1,0E0,0E0,1.060935E0,8.19618E0,0E0,0E0,0E0,0E0],"parents":[2147483647,0,0,1,1,2,2,5,5,6,6],"right_children":[2,4,6,-1,-1,8,10,-1,-1,-1,-1],"split_conditions":[1E0,5.39E0,2.35E0,-8.780687E-3,-1.960275E-3,2.07E0,1E0,-5.9544365E-3,-2.340164E-3,-3.9146636E-3,3.1617722E-3],"split_indices":[2,5,5,0,0,5,3,0,0,0,0],"split_type":[0,0,0,0,0,0,0,0,0,0,0],"sum_hessian":[1.632501E2,2.7716007E1,1.355341E2,2.6513557E1,1.2024492E0,4.250125E1,9.3032845E1,2.8669489E1,1.3831762E1,2.0105993E1,7.292685E1],"tree_param":{"num_deleted":"0","num_feature":"7","num_nodes":"11","size_leaf_vector":"1"}},{"base_weights":[-2.000742E-1,-5.532978E-1,1.5699828E-1,-2.50675E-1,-7.7360356E-1,2.6862878E-1,-8.464487E-3,1.5436576E-3,-5.929611E-3,-9.017614E-3,-2.6508945E-3,-1.4734908E-3,3.9975992E-3],"categories":[],"categories_nodes":[],"categories_segments":[],"categories_sizes":[],"default_left":[0,0,0,0,0,0,0,0,0,0,0,0,0],"id":57,"left_children":[1,3,5,7,9,11,-1,-1,-1,-1,-1,-1,-1],"loss_changes":[2.1461372E1,5.5006294E0,9.754757E0,5.2855177E0,2.9510765E0,4.2753596E0,0E0,0E0,0E0,0E0,0E0,0E0,0E0],"parents":[2147483647,0,0,1,1,2,2,3,3,4,4,5,5],"right_children":[2,4,6,8,10,12,-1,-1,-1,-1,-1,-1,-1],"split_conditions":[1.34011E3,5.4411E2,2.41511E3,7.1E1,7.1E1,5.1E1,-8.464487E-3,1.5436576E-3,-5.929611E-3,-9.017614E-3,-2.6508945E-3,-1.4734908E-3,3.9975992E-3],"split_indices":[6,6,6,0,0,0,0,0,0,0,0,0,0],"split_type":[0,0,0,0,0,0,0,0,0,0,0,0,0],"sum_hessian":[1.6846887E2,8.441461E1,8.405426E1,3.646388E1,4.7950737E1,7.629856E1,7.7556934E0,1.6952421E1,1.9511457E1,3.768091E1,1.0269829E1,1.8257607E1,5.804096E1],"tree_param":{"num_deleted":"0","num_feature":"7","num_nodes":"13","size_leaf_vector":"1"}},{"base_weights":[-1.9044152E-1,-5.3531176E-1,1.8925026E-1,-2.1176907E-1,-6.854138E-1,-1.9808288E-1,3.662597E-1,-5.7919184E-3,-6.0431956E-4,-7.4584E-3,-2.393981E-3,6.038915E-3,-3.0500286E-3,6.2886267E-3,6.239968E-4],"categories":[],"categories_nodes":[],"categories_segments":[],"categories_sizes":[],"default_left":[0,0,0,0,0,0,0,0,0,0,0,0,0,0,0],"id":58,"left_children":[1,3,5,7,9,11,13,-1,-1,-1,-1,-1,-1,-1,-1],"loss_changes":[2.2362669E1,4.1940575E0,5.67107E0,1.6199448E0,1.4543228E0,2.4360056E0,4.4608235E0,0E0,0E0,0E0,0E0,0E0,0E0,0E0,0E0],"parents":[2147483647,0,0,1,1,2,2,3,3,4,4,5,5,6,6],"right_children":[2,4,6,8,10,12,14,-1,-1,-1,-1,-1,-1,-1,-1],"split_conditions":[1.40611E3,4.2811E2,5.3E1,1.1511E2,1.30011E3,1.54811E3,6.7E1,-5.7919184E-3,-6.0431956E-4,-7.4584E-3,-2.393981E-3,6.038915E-3,-3.0500286E-3,6.2886267E-3,6.239968E-4],"split_indices":[6,6,0,6,6,6,0,0,0,0,0,0,0,0,0],"split_type":[0,0,0,0,0,0,0,0,0,0,0,0,0,0,0],"sum_hessian":[1.6900624E2,8.834946E1,8.065678E1,2.8762703E1,5.958675E1,2.526114E1,5.5395638E1,7.5661397E0,2.1196564E1,5.188512E1,7.70163E0,2.424869E0,2.2836271E1,2.9141384E1,2.6254255E1],"tree_param":{"num_deleted":"0","num_feature":"7","num_nodes":"15","size_leaf_vector":"1"}},{"base_weights":[-1.9882242E-1,-4.9992588E-1,1.052261E-1,-1.2622634E-1,-7.0931196E-1,-5.0996566E-1,2.6995337E-1,2.7000818E-3,-7.566219E-3,-7.5027603E-3,-2.0694437E-3,4.279771E-3,-6.684565E-3,5.547039E-3,-1.030905E-3],"categories":[],"categories_nodes":[],"categories_segments":[],"categories_sizes":[],"default_left":[0,0,0,0,0,0,0,0,0,0,0,0,0,0,0],"id":59,"left_children":[1,3,5,7,9,11,13,-1,-1,-1,-1,-1,-1,-1,-1],"loss_changes":[1.5180846E1,6.4205627E0,8.553535E0,7.9708834E0,9.3759537E-1,2.9450078E0,7.085027E0,0E0,0E0,0E0,0E0,0E0,0E0,0E0,0E0],"parents":[2147483647,0,0,1,1,2,2,3,3,4,4,5,5,6,6],"right_children":[2,4,6,8,10,12,14,-1,-1,-1,-1,-1,-1,-1,-1],"split_conditions":[1.34011E3,4.2811E2,5E1,1.25E0,7.9E1,1.54811E3,6.7E1,2.7000818E-3,-7.566219E-3,-7.5027603E-3,-2.0694437E-3,4.279771E-3,-6.684565E-3,5.547039E-3,-1.030905E-3],"split_indices":[6,6,0,4,0,6,0,0,0,0,0,0,0,0,0],"split_type":[0,0,0,0,0,0,0,0,0,0,0,0,0,0,0],"sum_hessian":[1.6424556E2,8.219876E1,8.204681E1,3.0093159E1,5.21056E1,1.6886507E1,6.516029E1,1.882955E1,1.126361E1,4.7720867E1,4.3847322E0,2.1951807E0,1.4691326E1,3.6677094E1,2.8483202E1],"tree_param":{"num_deleted":"0","num_feature":"7","num_nodes":"15","size_leaf_vector":"1"}},{"base_weights":[-2.9697713E-1,-5.567422E-1,-1.907256E-1,-4.1407335E-1,-1.0584028E-2,1.3593294E-1,-3.407279E-1,-4.6695834E-3,6.3878642E-3,-2.4027636E-3,2.5068247E-3,-3.816807E-3,3.305162E-3],"categories":[],"categories_nodes":[],"categories_segments":[],"categories_sizes":[],"default_left":[0,0,0,0,0,0,0,0,0,0,0,0,0],"id":60,"left_children":[1,3,5,7,-1,9,11,-1,-1,-1,-1,-1,-1],"loss_changes":[4.528907E0,3.0135698E0,5.9608665E0,2.4805617E0,0E0,1.730922E0,2.4079294E0,0E0,0E0,0E0,0E0,0E0,0E0],"parents":[2147483647,0,0,1,1,2,2,3,3,5,5,6,6],"right_children":[2,4,6,8,-1,10,12,-1,-1,-1,-1,-1,-1],"split_conditions":[5.4E1,1.33E0,6.3E1,1.3E0,-1.0584028E-2,1E0,1E0,-4.6695834E-3,6.3878642E-3,-2.4027636E-3,2.5068247E-3,-3.816807E-3,3.305162E-3],"split_indices":[0,4,0,4,0,3,1,0,0,0,0,0,0],"split_type":[0,0,0,0,0,0,0,0,0,0,0,0,0],"sum_hessian":[1.6693542E2,4.7229156E1,1.1970626E2,3.8192795E1,9.036362E0,3.770036E1,8.2005905E1,3.6896E1,1.2967955E0,8.555856E0,2.9144505E1,7.769697E1,4.308933E0],"tree_param":{"num_deleted":"0","num_feature":"7","num_nodes":"13","size_leaf_vector":"1"}},{"base_weights":[-2.1205235E-1,-4.8328677E-1,7.620951E-2,-1.3197373E-1,-6.236102E-1,1.765122E-1,-7.52575E-1,1.1633632E-2,-4.23245E-3,-7.152717E-3,-2.7413894E-3,-3.0673626E-3,3.3676242E-3,-3.7054156E-3,-8.626858E-3],"categories":[],"categories_nodes":[],"categories_segments":[],"categories_sizes":[],"default_left":[0,0,0,0,0,0,0,0,0,0,0,0,0,0,0],"id":61,"left_children":[1,3,5,7,9,11,13,-1,-1,-1,-1,-1,-1,-1,-1],"loss_changes":[1.3466532E1,4.2870483E0,7.1267176E0,1.0515585E1,1.8241272E0,5.9779263E0,7.0408344E-2,0E0,0E0,0E0,0E0,0E0,0E0,0E0,0E0],"parents":[2147483647,0,0,1,1,2,2,3,3,4,4,5,5,6,6],"right_children":[2,4,6,8,10,12,14,-1,-1,-1,-1,-1,-1,-1,-1],"split_conditions":[1.40611E3,3.8911E2,2.41511E3,6.1E1,7.1E1,5.1E1,1.086E0,1.1633632E-2,-4.23245E-3,-7.152717E-3,-2.7413894E-3,-3.0673626E-3,3.3676242E-3,-3.7054156E-3,-8.626858E-3],"split_indices":[6,6,6,0,0,0,4,0,0,0,0,0,0,0,0],"split_type":[0,0,0,0,0,0,0,0,0,0,0,0,0,0,0],"sum_hessian":[1.7076488E2,8.7632355E1,8.313252E1,2.5565983E1,6.206637E1,7.485973E1,8.27279E0,4.1437726E0,2.142221E1,4.8340572E1,1.3725796E1,1.8414648E1,5.6445084E1,2.8275774E0,5.445213E0],"tree_param":{"num_deleted":"0","num_feature":"7","num_nodes":"15","size_leaf_vector":"1"}},{"base_weights":[-2.6864198E-1,-5.379941E-1,3.9887387E-2,-1.3978797E-1,-7.215194E-1,-3.9179465E-1,2.3578022E-1,6.663464E-3,-3.9884713E-3,-7.743857E-3,-2.4027603E-4,5.916165E-3,-5.237745E-3,6.674018E-3,-2.4849304E-3],"categories":[],"categories_nodes":[],"categories_segments":[],"categories_sizes":[],"default_left":[0,0,0,0,0,0,0,0,0,0,0,0,0,0,0],"id":62,"left_children":[1,3,5,7,9,11,13,-1,-1,-1,-1,-1,-1,-1,-1],"loss_changes":[1.3999638E1,6.467081E0,6.8008657E0,6.4459267E0,2.2409801E0,3.5725768E0,1.170236E1,0E0,0E0,0E0,0E0,0E0,0E0,0E0,0E0],"parents":[2147483647,0,0,1,1,2,2,3,3,4,4,5,5,6,6],"right_children":[2,4,6,8,10,12,14,-1,-1,-1,-1,-1,-1,-1,-1],"split_conditions":[1.42411E3,4.1111E2,5.3E1,6.4E1,1E0,1.54811E3,6.7E1,6.663464E-3,-3.9884713E-3,-7.743857E-3,-2.4027603E-4,5.916165E-3,-5.237745E-3,6.674018E-3,-2.4849304E-3],"split_indices":[6,6,0,0,1,6,0,0,0,0,0,0,0,0,0],"split_type":[0,0,0,0,0,0,0,0,0,0,0,0,0,0,0],"sum_hessian":[1.6720302E2,8.887216E1,7.833086E1,2.8593275E1,6.0278885E1,2.4138237E1,5.4192616E1,6.571635E0,2.202164E1,5.592948E1,4.3494062E0,2.444097E0,2.169414E1,2.8454037E1,2.573858E1],"tree_param":{"num_deleted":"0","num_feature":"7","num_nodes":"15","size_leaf_vector":"1"}},{"base_weights":[-2.5148255E-1,-5.7359236E-1,8.9654475E-2,-2.7403316E-1,-7.618439E-1,1.941765E-1,-7.580027E-1,-3.4686092E-3,7.177309E-3,-8.736913E-3,-2.8537724E-3,-3.7745077E-3,3.7789198E-3,-4.509327E-3,-9.59039E-3],"categories":[],"categories_nodes":[],"categories_segments":[],"categories_sizes":[],"default_left":[0,0,0,0,0,0,0,0,0,0,0,0,0,0,0],"id":63,"left_children":[1,3,5,7,9,11,13,-1,-1,-1,-1,-1,-1,-1,-1],"loss_changes":[1.8677624E1,4.7154655E0,7.5175147E0,2.7956991E0,2.5783768E0,8.003361E0,1.4384222E-1,0E0,0E0,0E0,0E0,0E0,0E0,0E0,0E0],"parents":[2147483647,0,0,1,1,2,2,3,3,4,4,5,5,6,6],"right_children":[2,4,6,8,10,12,14,-1,-1,-1,-1,-1,-1,-1,-1],"split_conditions":[1.40611E3,5.4411E2,2.41511E3,5.1811E2,7.1E1,5.1E1,6.1E1,-3.4686092E-3,7.177309E-3,-8.736913E-3,-2.8537724E-3,-3.7745077E-3,3.7789198E-3,-4.509327E-3,-9.59039E-3],"split_indices":[6,6,6,6,0,0,0,0,0,0,0,0,0,0,0],"split_type":[0,0,0,0,0,0,0,0,0,0,0,0,0,0,0],"sum_hessian":[1.6850848E2,8.632085E1,8.218763E1,3.4259842E1,5.2061005E1,7.385208E1,8.33555E0,3.2521935E1,1.7379096E0,4.1488228E1,1.0572777E1,1.7705917E1,5.6146164E1,4.581162E0,3.754388E0],"tree_param":{"num_deleted":"0","num_feature":"7","num_nodes":"15","size_leaf_vector":"1"}},{"base_weights":[-2.529856E-1,-6.945405E-1,-1.1757397E-1,-2.3045458E-1,-7.3306817E-1,-6.7708516E-1,3.214401E-3,-7.13454E-3,2.7900853E-3,-7.572516E-3,-3.3299397E-3,-8.388179E-3,-4.3371455E-3,5.4885587E-3,-8.9726195E-4],"categories":[],"categories_nodes":[],"categories_segments":[],"categories_sizes":[],"default_left":[0,0,0,0,0,0,0,0,0,0,0,0,0,0,0],"id":64,"left_children":[1,3,5,7,9,11,13,-1,-1,-1,-1,-1,-1,-1,-1],"loss_changes":[9.691891E0,5.13361E-1,8.5378685E0,1.277741E0,8.43029E-2,5.190439E-1,5.367483E0,0E0,0E0,0E0,0E0,0E0,0E0,0E0,0E0],"parents":[2147483647,0,0,1,1,2,2,3,3,4,4,5,5,6,6],"right_children":[2,4,6,8,10,12,14,-1,-1,-1,-1,-1,-1,-1,-1],"split_conditions":[2.19E0,7.5E-1,1E0,1.64E0,2.15E0,1.13E0,9.1E-1,-7.13454E-3,2.7900853E-3,-7.572516E-3,-3.3299397E-3,-8.388179E-3,-4.3371455E-3,5.4885587E-3,-8.9726195E-4],"split_indices":[5,4,2,5,5,4,4,0,0,0,0,0,0,0,0],"split_type":[0,0,0,0,0,0,0,0,0,0,0,0,0,0,0],"sum_hessian":[1.6246005E2,3.7159615E1,1.2530043E2,3.383628E0,3.3775986E1,2.1429585E1,1.0387085E2,1.5313854E0,1.8522425E0,3.100881E1,2.7671776E0,1.140421E1,1.0025375E1,1.4403634E1,8.946722E1],"tree_param":{"num_deleted":"0","num_feature":"7","num_nodes":"15","size_leaf_vector":"1"}},{"base_weights":[-1.9038425E-1,-3.4754628E-1,2.4469559E-1,-5.8854276E-1,-1.8833573E-1,-5.1552546E-1,5.658454E-1,-1.0167684E-2,-4.8855515E-3,4.627214E-3,-2.8086551E-3,-2.4285346E-4,-1.0042995E-2,1.2482245E-2,1.5854937E-3],"categories":[],"categories_nodes":[],"categories_segments":[],"categories_sizes":[],"default_left":[0,0,0,0,0,0,0,0,0,0,0,0,0,0,0],"id":65,"left_children":[1,3,5,7,9,11,13,-1,-1,-1,-1,-1,-1,-1,-1],"loss_changes":[1.1454683E1,4.591875E0,1.120772E1,1.5708237E0,4.664797E0,3.2894924E0,8.670692E0,0E0,0E0,0E0,0E0,0E0,0E0,0E0,0E0],"parents":[2147483647,0,0,1,1,2,2,3,3,4,4,5,5,6,6],"right_children":[2,4,6,8,10,12,14,-1,-1,-1,-1,-1,-1,-1,-1],"split_conditions":[3.57E0,2.33E0,5.1E1,5E1,2.47E0,1.15E0,4E0,-1.0167684E-2,-4.8855515E-3,4.627214E-3,-2.8086551E-3,-2.4285346E-4,-1.0042995E-2,1.2482245E-2,1.5854937E-3],"split_indices":[5,5,0,0,5,4,5,0,0,0,0,0,0,0,0],"split_type":[0,0,0,0,0,0,0,0,0,0,0,0,0,0,0],"sum_hessian":[1.6527621E2,1.21564995E2,4.3711216E1,4.7288277E1,7.427672E1,1.280178E1,3.0909435E1,7.2157555E0,4.007252E1,8.744933E0,6.5531784E1,6.908305E0,5.8934746E0,1.0781526E1,2.0127909E1],"tree_param":{"num_deleted":"0","num_feature":"7","num_nodes":"15","size_leaf_vector":"1"}},{"base_weights":[-1.8072952E-1,-6.9459206E-1,-7.076145E-2,-5.878975E-4,-7.351585E-1,-1.3800618E-1,7.5570256E-1,-9.422749E-3,-5.855612E-3,-7.114474E-4,-8.198782E-3,-1.5697993E-3,1.3075119E-2],"categories":[],"categories_nodes":[],"categories_segments":[],"categories_sizes":[],"default_left":[0,0,0,0,0,0,0,0,0,0,0,0,0],"id":66,"left_children":[1,3,5,-1,7,9,11,-1,-1,-1,-1,-1,-1],"loss_changes":[9.534657E0,7.249613E-1,7.9301963E0,0E0,3.1300735E-1,5.91711E0,5.619116E0,0E0,0E0,0E0,0E0,0E0,0E0],"parents":[2147483647,0,0,1,1,2,2,4,4,5,5,6,6],"right_children":[2,4,6,-1,8,10,12,-1,-1,-1,-1,-1,-1],"split_conditions":[1E0,3.8E1,1E0,-5.878975E-4,5.1E1,1.6E0,1.14E0,-9.422749E-3,-5.855612E-3,-7.114474E-4,-8.198782E-3,-1.5697993E-3,1.3075119E-2],"split_indices":[2,0,1,0,0,4,4,0,0,0,0,0,0],"split_type":[0,0,0,0,0,0,0,0,0,0,0,0,0],"sum_hessian":[1.6859947E2,2.8783352E1,1.3981612E2,1.8732308E0,2.691012E1,1.3006638E2,9.749754E0,9.063297E0,1.7846823E1,1.19457245E2,1.0609127E1,3.9432344E0,5.8065195E0],"tree_param":{"num_deleted":"0","num_feature":"7","num_nodes":"13","size_leaf_vector":"1"}},{"base_weights":[-1.9032145E-1,-7.3303545E-1,-8.197416E-2,-8.9437556E-1,-3.3917633E-1,-2.170595E-1,2.9600033E-1,-6.146174E-3,-1.0612451E-2,1.17814895E-2,-7.863075E-3,-5.2463603E-3,-1.1902514E-3,-4.170724E-3,5.5303727E-3],"categories":[],"categories_nodes":[],"categories_segments":[],"categories_sizes":[],"default_left":[0,0,0,0,0,0,0,0,0,0,0,0,0,0,0],"id":67,"left_children":[1,3,5,7,9,11,13,-1,-1,-1,-1,-1,-1,-1,-1],"loss_changes":[9.829264E0,1.4671669E0,7.279852E0,2.4193954E-1,7.512482E0,3.0942163E0,7.1279984E0,0E0,0E0,0E0,0E0,0E0,0E0,0E0,0E0],"parents":[2147483647,0,0,1,1,2,2,3,3,4,4,5,5,6,6],"right_children":[2,4,6,8,10,12,14,-1,-1,-1,-1,-1,-1,-1,-1],"split_conditions":[1E0,3.56E0,3.58E0,5.5E1,3.77E0,1.93E0,5.3E1,-6.146174E-3,-1.0612451E-2,1.17814895E-2,-7.863075E-3,-5.2463603E-3,-1.1902514E-3,-4.170724E-3,5.5303727E-3],"split_indices":[2,5,5,0,5,5,0,0,0,0,0,0,0,0,0],"split_type":[0,0,0,0,0,0,0,0,0,0,0,0,0,0,0],"sum_hessian":[1.6718175E2,2.6862297E1,1.4031944E2,1.8154642E1,8.707654E0,1.0368789E2,3.6631565E1,8.53271E0,9.621933E0,1.6098325E0,7.097821E0,2.4009151E1,7.9678734E1,9.540809E0,2.7090755E1],"tree_param":{"num_deleted":"0","num_feature":"7","num_nodes":"15","size_leaf_vector":"1"}},{"base_weights":[-2.2917642E-1,-5.8021235E-1,1.3131991E-1,-8.948869E-1,-4.8030463E-1,-5.405469E-1,2.6584983E-1,-1.8216729E-3,-9.330049E-3,-2.764796E-3,-6.281632E-3,6.5026637E-3,-7.0657954E-3,-2.4466743E-3,3.9630067E-3],"categories":[],"categories_nodes":[],"categories_segments":[],"categories_sizes":[],"default_left":[0,0,0,0,0,0,0,0,0,0,0,0,0,0,0],"id":68,"left_children":[1,3,5,7,9,11,13,-1,-1,-1,-1,-1,-1,-1,-1],"loss_changes":[2.1298948E1,2.2472458E0,7.695804E0,3.5604954E-1,1.8392153E0,3.2806077E0,4.777753E0,0E0,0E0,0E0,0E0,0E0,0E0,0E0,0E0],"parents":[2147483647,0,0,1,1,2,2,3,3,4,4,5,5,6,6],"right_children":[2,4,6,8,10,12,14,-1,-1,-1,-1,-1,-1,-1,-1],"split_conditions":[1.41811E3,1E0,1E0,3.9E1,5.4411E2,1.53111E3,5.1E1,-1.8216729E-3,-9.330049E-3,-2.764796E-3,-6.281632E-3,6.5026637E-3,-7.0657954E-3,-2.4466743E-3,3.9630067E-3],"split_indices":[6,3,2,0,6,6,0,0,0,0,0,0,0,0,0],"split_type":[0,0,0,0,0,0,0,0,0,0,0,0,0,0,0],"sum_hessian":[1.667063E2,8.41526E1,8.2553696E1,1.836189E1,6.579071E1,1.3268809E1,6.928488E1,1.2255697E0,1.7136322E1,2.8867031E1,3.6923683E1,1.2667779E0,1.2002031E1,1.3922776E1,5.5362106E1],"tree_param":{"num_deleted":"0","num_feature":"7","num_nodes":"15","size_leaf_vector":"1"}},{"base_weights":[-2.1372515E-1,-6.2113184E-1,-1.1073032E-1,-6.706477E-1,-3.6106944E-2,1.4971416E-1,-3.4599316E-1,-5.112539E-3,-9.409102E-3,4.046087E-3,-3.566073E-3,-1.7631592E-3,2.4326602E-3,-4.203606E-3,5.8125136E-3],"categories":[],"categories_nodes":[],"categories_segments":[],"categories_sizes":[],"default_left":[0,0,0,0,0,0,0,0,0,0,0,0,0,0,0],"id":69,"left_children":[1,3,5,7,9,11,13,-1,-1,-1,-1,-1,-1,-1,-1],"loss_changes":[6.9069996E0,9.41288E-1,8.257175E0,8.4025764E-1,6.609459E-1,2.0026906E0,5.1168947E0,0E0,0E0,0E0,0E0,0E0,0E0,0E0,0E0],"parents":[2147483647,0,0,1,1,2,2,3,3,4,4,5,5,6,6],"right_children":[2,4,6,8,10,12,14,-1,-1,-1,-1,-1,-1,-1,-1],"split_conditions":[2.07E0,1E0,1.14E0,1.24E0,1E0,1E0,1E0,-5.112539E-3,-9.409102E-3,4.046087E-3,-3.566073E-3,-1.7631592E-3,2.4326602E-3,-4.203606E-3,5.8125136E-3],"split_indices":[5,1,4,4,3,3,1,0,0,0,0,0,0,0,0],"split_type":[0,0,0,0,0,0,0,0,0,0,0,0,0,0,0],"sum_hessian":[1.6524518E2,3.2329964E1,1.3291522E2,2.9672184E1,2.657778E0,6.325418E1,6.966103E1,2.0483337E1,9.188848E0,1.0085317E0,1.6492463E0,1.3906179E1,4.9348E1,6.499493E1,4.6661077E0],"tree_param":{"num_deleted":"0","num_feature":"7","num_nodes":"15","size_leaf_vector":"1"}},{"base_weights":[-1.7998846E-1,-5.1684904E-1,1.660368E-1,-1.5042055E-1,-7.7158177E-1,-3.5375666E-2,5.334923E-1,5.460597E-3,-3.991173E-3,-8.32865E-3,1.6428331E-3,9.707057E-4,-7.276817E-3,-1.0602832E-3,8.328751E-3],"categories":[],"categories_nodes":[],"categories_segments":[],"categories_sizes":[],"default_left":[0,0,0,0,0,0,0,0,0,0,0,0,0,0,0],"id":70,"left_children":[1,3,5,7,9,11,13,-1,-1,-1,-1,-1,-1,-1,-1],"loss_changes":[1.9489681E1,7.7800617E0,6.1523666E0,6.442059E0,2.9850082E0,5.065118E0,5.7181034E0,0E0,0E0,0E0,0E0,0E0,0E0,0E0,0E0],"parents":[2147483647,0,0,1,1,2,2,3,3,4,4,5,5,6,6],"right_children":[2,4,6,8,10,12,14,-1,-1,-1,-1,-1,-1,-1,-1],"split_conditions":[1.40611E3,5.4411E2,3.54E0,6.1E1,8.1E1,2.35511E3,5.3E1,5.460597E-3,-3.991173E-3,-8.32865E-3,1.6428331E-3,9.707057E-4,-7.276817E-3,-1.0602832E-3,8.328751E-3],"split_indices":[6,6,5,0,0,6,0,0,0,0,0,0,0,0,0],"split_type":[0,0,0,0,0,0,0,0,0,0,0,0,0,0,0],"sum_hessian":[1.6546779E2,8.359408E1,8.187372E1,3.493344E1,4.8660637E1,5.34694E1,2.8404318E1,8.877142E0,2.60563E1,4.577332E1,2.8873167E0,4.5604507E1,7.864888E0,9.263059E0,1.9141258E1],"tree_param":{"num_deleted":"0","num_feature":"7","num_nodes":"15","size_leaf_vector":"1"}},{"base_weights":[-2.526746E-1,-5.5986345E-1,-1.1180759E-1,-1.4789882E-1,-6.646107E-1,-4.8169923E-1,-2.527331E-2,1.2759092E-3,-6.626898E-3,-9.105829E-3,-4.844226E-3,7.7787065E-3,-5.8760587E-3,1.1610964E-4,-6.2618833E-3],"categories":[],"categories_nodes":[],"categories_segments":[],"categories_sizes":[],"default_left":[0,0,0,0,0,0,0,0,0,0,0,0,0,0,0],"id":71,"left_children":[1,3,5,7,9,11,13,-1,-1,-1,-1,-1,-1,-1,-1],"loss_changes":[7.2033443E0,2.168953E0,3.712615E0,1.7774884E0,1.4028149E0,3.392777E0,2.1209087E0,0E0,0E0,0E0,0E0,0E0,0E0,0E0,0E0],"parents":[2147483647,0,0,1,1,2,2,3,3,4,4,5,5,6,6],"right_children":[2,4,6,8,10,12,14,-1,-1,-1,-1,-1,-1,-1,-1],"split_conditions":[2.41E0,1E0,1E0,7E1,1.77E0,2.53E0,5.22E0,1.2759092E-3,-6.626898E-3,-9.105829E-3,-4.844226E-3,7.7787065E-3,-5.8760587E-3,1.1610964E-4,-6.2618833E-3],"split_indices":[5,3,2,0,5,5,5,0,0,0,0,0,0,0,0],"split_type":[0,0,0,0,0,0,0,0,0,0,0,0,0,0,0],"sum_hessian":[1.6691025E2,5.154079E1,1.1536945E2,1.093724E1,4.0603554E1,2.1007236E1,9.436221E1,7.6144996E0,3.3227398E0,1.5454E1,2.5149551E1,1.1372161E0,1.987002E1,8.982916E1,4.5330524E0],"tree_param":{"num_deleted":"0","num_feature":"7","num_nodes":"15","size_leaf_vector":"1"}},{"base_weights":[-2.0246845E-1,-7.2283095E-1,-9.867681E-2,-9.978737E-3,-5.8986604E-1,5.427422E-3,-6.1838967E-1,8.0880625E-3,-7.083702E-3,-3.9923806E-3,1.1270966E-3,-7.089136E-3,-2.9599764E-3],"categories":[],"categories_nodes":[],"categories_segments":[],"categories_sizes":[],"default_left":[0,0,0,0,0,0,0,0,0,0,0,0,0],"id":72,"left_children":[1,3,5,-1,7,9,11,-1,-1,-1,-1,-1,-1],"loss_changes":[8.921091E0,4.1815567E-1,7.576259E0,0E0,4.0542173E0,5.1504836E0,4.721117E-1,0E0,0E0,0E0,0E0,0E0,0E0],"parents":[2147483647,0,0,1,1,2,2,4,4,5,5,6,6],"right_children":[2,4,6,-1,8,10,12,-1,-1,-1,-1,-1,-1],"split_conditions":[1E0,2.41E0,1.43E0,-9.978737E-3,2.53E0,2.07E0,3.58E0,8.0880625E-3,-7.083702E-3,-3.9923806E-3,1.1270966E-3,-7.089136E-3,-2.9599764E-3],"split_indices":[2,5,4,0,5,5,5,0,0,0,0,0,0],"split_type":[0,0,0,0,0,0,0,0,0,0,0,0,0],"sum_hessian":[1.6549765E2,2.6529078E1,1.3896858E2,6.525683E0,2.0003395E1,1.16601555E2,2.2367023E1,1.1074412E0,1.8895952E1,2.386439E1,9.273717E1,1.6527401E1,5.8396215E0],"tree_param":{"num_deleted":"0","num_feature":"7","num_nodes":"13","size_leaf_vector":"1"}},{"base_weights":[-2.1705736E-1,-5.608809E-1,9.24528E-2,-2.3534691E-1,-7.450068E-1,-5.8682925E-1,2.1806352E-1,1.4086583E-3,-8.84489E-3,-8.248604E-3,3.3705202E-3,8.8752067E-4,-7.283312E-3,1.276961E-3,1.1665378E-2],"categories":[],"categories_nodes":[],"categories_segments":[],"categories_sizes":[],"default_left":[0,0,0,0,0,0,0,0,0,0,0,0,0,0,0],"id":73,"left_children":[1,3,5,7,9,11,13,-1,-1,-1,-1,-1,-1,-1,-1],"loss_changes":[1.7491287E1,4.486576E0,7.559886E0,7.3437347E0,4.530655E0,1.3899693E0,6.2140093E0,0E0,0E0,0E0,0E0,0E0,0E0,0E0,0E0],"parents":[2147483647,0,0,1,1,2,2,3,3,4,4,5,5,6,6],"right_children":[2,4,6,8,10,12,14,-1,-1,-1,-1,-1,-1,-1,-1],"split_conditions":[1.30011E3,4.2811E2,1E0,1.25E0,1E0,1.53111E3,1E0,1.4086583E-3,-8.84489E-3,-8.248604E-3,3.3705202E-3,8.8752067E-4,-7.283312E-3,1.276961E-3,1.1665378E-2],"split_indices":[6,6,2,4,1,6,1,0,0,0,0,0,0,0,0],"split_type":[0,0,0,0,0,0,0,0,0,0,0,0,0,0,0],"sum_hessian":[1.6287845E2,7.677725E1,8.6101204E1,2.8560528E1,4.8216724E1,1.2863844E1,7.323736E1,1.8577097E1,9.98343E0,4.512434E1,3.0923839E0,2.2923107E0,1.0571533E1,6.790247E1,5.334885E0],"tree_param":{"num_deleted":"0","num_feature":"7","num_nodes":"15","size_leaf_vector":"1"}},{"base_weights":[-1.9978349E-1,-4.708206E-1,6.857831E-2,-7.8198695E-1,-2.597317E-1,-3.8817865E-1,2.2647406E-1,2.9542074E-3,-8.322835E-3,-3.698688E-4,-6.818317E-3,9.497602E-3,-5.29539E-3,5.8368105E-3,-2.0754363E-3],"categories":[],"categories_nodes":[],"categories_segments":[],"categories_sizes":[],"default_left":[0,0,0,0,0,0,0,0,0,0,0,0,0,0,0],"id":74,"left_children":[1,3,5,7,9,11,13,-1,-1,-1,-1,-1,-1,-1,-1],"loss_changes":[1.1821883E1,5.1021023E0,6.024726E0,1.9879951E0,4.640129E0,4.5720897E0,9.702809E0,0E0,0E0,0E0,0E0,0E0,0E0,0E0,0E0],"parents":[2147483647,0,0,1,1,2,2,3,3,4,4,5,5,6,6],"right_children":[2,4,6,8,10,12,14,-1,-1,-1,-1,-1,-1,-1,-1],"split_conditions":[1.41811E3,6E1,5.1E1,7.4E-1,1.3E0,1.54811E3,6.7E1,2.9542074E-3,-8.322835E-3,-3.698688E-4,-6.818317E-3,9.497602E-3,-5.29539E-3,5.8368105E-3,-2.0754363E-3],"split_indices":[6,0,0,4,4,6,0,0,0,0,0,0,0,0,0],"split_type":[0,0,0,0,0,0,0,0,0,0,0,0,0,0,0],"sum_hessian":[1.6108748E2,7.976892E1,8.1318565E1,3.114844E1,4.8620483E1,2.0514956E1,6.0803608E1,1.1718826E0,2.9976557E1,3.253774E1,1.6082743E1,1.4139134E0,1.9101042E1,3.3164005E1,2.7639605E1],"tree_param":{"num_deleted":"0","num_feature":"7","num_nodes":"15","size_leaf_vector":"1"}},{"base_weights":[-2.2274783E-1,-1.16229914E-1,-7.8637224E-1,-5.997016E-1,3.454715E-2,-5.016109E-1,-9.2191154E-1,-6.9880285E-3,9.814667E-3,-1.08577E-3,4.662552E-3,-9.725457E-3,1.4393223E-3,-9.639702E-3,-2.4323093E-3],"categories":[],"categories_nodes":[],"categories_segments":[],"categories_sizes":[],"default_left":[0,0,0,0,0,0,0,0,0,0,0,0,0,0,0],"id":75,"left_children":[1,3,5,7,9,11,13,-1,-1,-1,-1,-1,-1,-1,-1],"loss_changes":[9.886028E0,1.0295343E1,5.5041313E-1,5.9447937E0,6.747612E0,3.3795288E0,2.3897362E-1,0E0,0E0,0E0,0E0,0E0,0E0,0E0,0E0],"parents":[2147483647,0,0,1,1,2,2,3,3,4,4,5,5,6,6],"right_children":[2,4,6,8,10,12,14,-1,-1,-1,-1,-1,-1,-1,-1],"split_conditions":[1.44E0,5.1E1,6.3E1,5.72E0,3.57E0,5.4E1,4.6E0,-6.9880285E-3,9.814667E-3,-1.08577E-3,4.662552E-3,-9.725457E-3,1.4393223E-3,-9.639702E-3,-2.4323093E-3],"split_indices":[4,0,0,5,5,0,5,0,0,0,0,0,0,0,0],"split_type":[0,0,0,0,0,0,0,0,0,0,0,0,0,0,0],"sum_hessian":[1.6519049E2,1.3994826E2,2.5242239E1,3.256146E1,1.073868E2,9.656101E0,1.5586139E1,3.1166134E1,1.3953223E0,8.121131E1,2.6175488E1,5.2902317E0,4.3658695E0,1.428078E1,1.3053584E0],"tree_param":{"num_deleted":"0","num_feature":"7","num_nodes":"15","size_leaf_vector":"1"}},{"base_weights":[-1.7912637E-1,-5.015346E-1,1.2136265E-1,-2.702286E-1,-8.415142E-1,-3.2837075E-1,2.6395273E-1,3.008605E-3,-5.497732E-3,-8.63681E-3,-8.3396264E-4,-4.2875395E-3,7.845304E-3,5.9045115E-3,-1.5082854E-3],"categories":[],"categories_nodes":[],"categories_segments":[],"categories_sizes":[],"default_left":[0,0,0,0,0,0,0,0,0,0,0,0,0,0,0],"id":76,"left_children":[1,3,5,7,9,11,13,-1,-1,-1,-1,-1,-1,-1,-1],"loss_changes":[1.6113033E1,6.0735817E0,5.6379333E0,8.012991E0,4.6520615E-1,2.714219E0,9.0652275E0,0E0,0E0,0E0,0E0,0E0,0E0,0E0,0E0],"parents":[2147483647,0,0,1,1,2,2,3,3,4,4,5,5,6,6],"right_children":[2,4,6,8,10,12,14,-1,-1,-1,-1,-1,-1,-1,-1],"split_conditions":[1.34911E3,1.23E0,5.1E1,4.2811E2,2.11E0,5.27E0,6.6E1,3.008605E-3,-5.497732E-3,-8.63681E-3,-8.3396264E-4,-4.2875395E-3,7.845304E-3,5.9045115E-3,-1.5082854E-3],"split_indices":[6,4,0,6,4,5,0,0,0,0,0,0,0,0,0],"split_type":[0,0,0,0,0,0,0,0,0,0,0,0,0,0,0],"sum_hessian":[1.64691E2,7.912508E1,8.5565926E1,4.815651E1,3.0968567E1,2.0284647E1,6.528127E1,1.5800665E1,3.2355843E1,2.9953503E1,1.0150632E0,1.917024E1,1.1144059E0,3.6291E1,2.8990276E1],"tree_param":{"num_deleted":"0","num_feature":"7","num_nodes":"15","size_leaf_vector":"1"}},{"base_weights":[-2.381496E-1,-8.530346E-1,-1.1948187E-1,-8.782462E-3,-1.4929037E-3,-1.950689E-1,8.476446E-1,-8.721265E-3,-1.3090512E-3,-1.8962733E-3,1.3468884E-2],"categories":[],"categories_nodes":[],"categories_segments":[],"categories_sizes":[],"default_left":[0,0,0,0,0,0,0,0,0,0,0],"id":77,"left_children":[1,3,5,-1,-1,7,9,-1,-1,-1,-1],"loss_changes":[1.1895309E1,3.3791924E-1,1.03254175E1,0E0,0E0,5.521304E0,5.5696807E0,0E0,0E0,0E0,0E0],"parents":[2147483647,0,0,1,1,2,2,5,5,6,6],"right_children":[2,4,6,-1,-1,8,10,-1,-1,-1,-1],"split_conditions":[1E0,5.55E0,1E0,-8.782462E-3,-1.4929037E-3,1.61E0,2.41E0,-8.721265E-3,-1.3090512E-3,-1.8962733E-3,1.3468884E-2],"split_indices":[2,5,1,0,0,5,5,0,0,0,0],"split_type":[0,0,0,0,0,0,0,0,0,0,0],"sum_hessian":[1.6341994E2,2.5435534E1,1.379844E2,2.4316437E1,1.1190976E0,1.2872226E2,9.262155E0,1.0052791E1,1.18669464E2,3.2109597E0,6.051195E0],"tree_param":{"num_deleted":"0","num_feature":"7","num_nodes":"11","size_leaf_vector":"1"}},{"base_weights":[-1.4965712E-1,-6.56053E-1,4.7143716E-3,-7.2153515E-1,2.1190701E-2,-4.622982E-1,1.401676E-1,-7.5413077E-3,-1.5467718E-3,-6.446837E-3,4.9508787E-3,3.9989795E-4,-6.994503E-3,-4.0653173E-4,5.227335E-3],"categories":[],"categories_nodes":[],"categories_segments":[],"categories_sizes":[],"default_left":[0,0,0,0,0,0,0,0,0,0,0,0,0,0,0],"id":78,"left_children":[1,3,5,7,9,11,13,-1,-1,-1,-1,-1,-1,-1,-1],"loss_changes":[1.2679129E1,1.6956196E0,7.988749E0,5.2225685E-1,1.6798657E0,3.410437E0,6.7913213E0,0E0,0E0,0E0,0E0,0E0,0E0,0E0,0E0],"parents":[2147483647,0,0,1,1,2,2,3,3,4,4,5,5,6,6],"right_children":[2,4,6,8,10,12,14,-1,-1,-1,-1,-1,-1,-1,-1],"split_conditions":[2.19E0,1E0,5.1E1,8.4E1,5.4E1,2.99E0,3.58E0,-7.5413077E-3,-1.5467718E-3,-6.446837E-3,4.9508787E-3,3.9989795E-4,-6.994503E-3,-4.0653173E-4,5.227335E-3],"split_indices":[5,1,0,0,0,5,5,0,0,0,0,0,0,0,0],"split_type":[0,0,0,0,0,0,0,0,0,0,0,0,0,0,0],"sum_hessian":[1.6115344E2,3.6890163E1,1.2426328E2,3.357812E1,3.3120415E0,2.7395775E1,9.686751E1,3.1439886E1,2.1382346E0,1.2272464E0,2.0847952E0,9.052968E0,1.8342806E1,6.638446E1,3.048305E1],"tree_param":{"num_deleted":"0","num_feature":"7","num_nodes":"15","size_leaf_vector":"1"}},{"base_weights":[-2.5526786E-1,-5.7653296E-1,3.8650334E-2,-1.7900984E-1,-7.877202E-1,-4.8295606E-2,9.624847E-1,-3.7264763E-3,3.6831822E-3,-8.105742E-3,-2.460175E-3,1.2084261E-3,-5.0386987E-3,-6.6579506E-3,1.41775785E-2],"categories":[],"categories_nodes":[],"categories_segments":[],"categories_sizes":[],"default_left":[0,0,0,0,0,0,0,0,0,0,0,0,0,0,0],"id":79,"left_children":[1,3,5,7,9,11,13,-1,-1,-1,-1,-1,-1,-1,-1],"loss_changes":[1.5248652E1,6.3320885E0,6.8858423E0,3.1095607E0,4.2033386E-1,6.130933E0,6.4089255E0,0E0,0E0,0E0,0E0,0E0,0E0,0E0,0E0],"parents":[2147483647,0,0,1,1,2,2,3,3,4,4,5,5,6,6],"right_children":[2,4,6,8,10,12,14,-1,-1,-1,-1,-1,-1,-1,-1],"split_conditions":[1.34011E3,4.2811E2,1E0,3.2211E2,1.30011E3,2.18311E3,1E0,-3.7264763E-3,3.6831822E-3,-8.105742E-3,-2.460175E-3,1.2084261E-3,-5.0386987E-3,-6.6579506E-3,1.41775785E-2],"split_indices":[6,6,1,6,6,6,2,0,0,0,0,0,0,0,0],"split_type":[0,0,0,0,0,0,0,0,0,0,0,0,0,0,0],"sum_hessian":[1.6025246E2,7.610495E1,8.414751E1,2.7045029E1,4.905992E1,7.777545E1,6.372052E0,2.0213055E1,6.831974E0,4.6597656E1,2.462262E0,5.7253902E1,2.0521551E1,1.2913048E0,5.0807476E0],"tree_param":{"num_deleted":"0","num_feature":"7","num_nodes":"15","size_leaf_vector":"1"}},{"base_weights":[-2.1469441E-1,-4.642624E-1,2.8221754E-2,-1.1267172E-1,-6.3214946E-1,-4.291554E-1,2.2466952E-1,2.3808288E-3,-6.8127844E-3,-7.4196025E-3,-2.3475208E-3,4.487767E-3,-6.138178E-3,5.880199E-3,-6.483063E-4],"categories":[],"categories_nodes":[],"categories_segments":[],"categories_sizes":[],"default_left":[0,0,0,0,0,0,0,0,0,0,0,0,0,0,0],"id":80,"left_children":[1,3,5,7,9,11,13,-1,-1,-1,-1,-1,-1,-1,-1],"loss_changes":[9.877302E0,4.6695023E0,7.5896945E0,5.58164E0,2.1884499E0,4.393506E0,6.243904E0,0E0,0E0,0E0,0E0,0E0,0E0,0E0,0E0],"parents":[2147483647,0,0,1,1,2,2,3,3,4,4,5,5,6,6],"right_children":[2,4,6,8,10,12,14,-1,-1,-1,-1,-1,-1,-1,-1],"split_conditions":[1.34911E3,3.8911E2,5.3E1,1.25E0,7.1E1,1.54811E3,6.5E1,2.3808288E-3,-6.8127844E-3,-7.4196025E-3,-2.3475208E-3,4.487767E-3,-6.138178E-3,5.880199E-3,-6.483063E-4],"split_indices":[6,6,0,4,0,6,0,0,0,0,0,0,0,0,0],"split_type":[0,0,0,0,0,0,0,0,0,0,0,0,0,0,0],"sum_hessian":[1.6171085E2,7.931388E1,8.239696E1,2.6173084E1,5.31408E1,2.4401012E1,5.7995945E1,1.6547049E1,9.626037E0,4.095646E1,1.2184341E1,3.9919608E0,2.0409052E1,2.5260473E1,3.273547E1],"tree_param":{"num_deleted":"0","num_feature":"7","num_nodes":"15","size_leaf_vector":"1"}},{"base_weights":[-1.6998088E-1,-5.1883304E-1,1.3886604E-1,-1.610757E-1,-7.1665204E-1,3.046217E-1,-1.7353185E-1,1.7366032E-3,-7.0051933E-3,-7.704384E-3,-1.0391617E-4,-1.5906343E-3,4.686614E-3,-4.5946017E-3,5.759288E-3],"categories":[],"categories_nodes":[],"categories_segments":[],"categories_sizes":[],"default_left":[0,0,0,0,0,0,0,0,0,0,0,0,0,0,0],"id":81,"left_children":[1,3,5,7,9,11,13,-1,-1,-1,-1,-1,-1,-1,-1],"loss_changes":[1.7563843E1,5.2948914E0,4.552739E0,5.2697573E0,1.8510094E0,4.4206934E0,6.856658E0,0E0,0E0,0E0,0E0,0E0,0E0,0E0,0E0],"parents":[2147483647,0,0,1,1,2,2,3,3,4,4,5,5,6,6],"right_children":[2,4,6,8,10,12,14,-1,-1,-1,-1,-1,-1,-1,-1],"split_conditions":[1.34011E3,4.2811E2,2.12611E3,1.25E0,1E0,2.36E0,3.91E0,1.7366032E-3,-7.0051933E-3,-7.704384E-3,-1.0391617E-4,-1.5906343E-3,4.686614E-3,-4.5946017E-3,5.759288E-3],"split_indices":[6,6,6,4,1,5,5,0,0,0,0,0,0,0,0],"split_type":[0,0,0,0,0,0,0,0,0,0,0,0,0,0,0],"sum_hessian":[1.6134901E2,7.544812E1,8.5900894E1,2.7510105E1,4.793801E1,5.6138943E1,2.9761955E1,1.739452E1,1.0115586E1,4.4461132E1,3.476881E0,1.4678393E1,4.146055E1,2.1823116E1,7.9388385E0],"tree_param":{"num_deleted":"0","num_feature":"7","num_nodes":"15","size_leaf_vector":"1"}},{"base_weights":[-2.1981384E-1,-5.388718E-1,6.1380334E-2,8.052385E-3,-5.789651E-1,-3.7954473E-1,2.619585E-1,-8.560325E-3,-4.5796908E-3,-4.583814E-3,7.887671E-3,5.325921E-3,-1.5180241E-4],"categories":[],"categories_nodes":[],"categories_segments":[],"categories_sizes":[],"default_left":[0,0,0,0,0,0,0,0,0,0,0,0,0],"id":82,"left_children":[1,3,5,-1,7,9,11,-1,-1,-1,-1,-1,-1],"loss_changes":[1.4536365E1,4.552742E0,7.7781425E0,0E0,2.0960102E0,2.899584E0,4.52841E0,0E0,0E0,0E0,0E0,0E0,0E0],"parents":[2147483647,0,0,1,1,2,2,4,4,5,5,6,6],"right_children":[2,4,6,-1,8,10,12,-1,-1,-1,-1,-1,-1],"split_conditions":[1.30011E3,6.6E-1,5.3E1,8.052385E-3,2.16E0,5.39E0,6.6E1,-8.560325E-3,-4.5796908E-3,-4.583814E-3,7.887671E-3,5.325921E-3,-1.5180241E-4],"split_indices":[6,4,0,0,5,5,0,0,0,0,0,0,0],"split_type":[0,0,0,0,0,0,0,0,0,0,0,0,0],"sum_hessian":[1.6065549E2,7.483139E1,8.582409E1,1.6147131E0,7.321668E1,2.6555552E1,5.9268536E1,2.0408545E1,5.2808136E1,2.5446123E1,1.1094283E0,2.9519844E1,2.9748693E1],"tree_param":{"num_deleted":"0","num_feature":"7","num_nodes":"13","size_leaf_vector":"1"}},{"base_weights":[-1.9366224E-1,-8.1083484E-2,-5.439569E-1,-5.348997E-1,1.8814363E-2,-6.113172E-1,4.1237006E-1,-6.299053E-3,4.3047206E-3,5.148141E-3,-9.055713E-4,-4.6689576E-3,-8.93094E-3,-9.962476E-4,7.051571E-3],"categories":[],"categories_nodes":[],"categories_segments":[],"categories_sizes":[],"default_left":[0,0,0,0,0,0,0,0,0,0,0,0,0,0,0],"id":83,"left_children":[1,3,5,7,9,11,13,-1,-1,-1,-1,-1,-1,-1,-1],"loss_changes":[6.4062586E0,5.6751347E0,2.8035126E0,2.3419552E0,5.654859E0,1.1051445E0,5.5045503E-1,0E0,0E0,0E0,0E0,0E0,0E0,0E0,0E0],"parents":[2147483647,0,0,1,1,2,2,3,3,4,4,5,5,6,6],"right_children":[2,4,6,8,10,12,14,-1,-1,-1,-1,-1,-1,-1,-1],"split_conditions":[1.33E0,1E0,1E0,1.27E0,3.8911E2,1.6E0,1.25011E3,-6.299053E-3,4.3047206E-3,5.148141E-3,-9.055713E-4,-4.6689576E-3,-8.93094E-3,-9.962476E-4,7.051571E-3],"split_indices":[4,2,1,4,6,4,6,0,0,0,0,0,0,0,0],"split_type":[0,0,0,0,0,0,0,0,0,0,0,0,0,0,0],"sum_hessian":[1.6256648E2,1.2395948E2,3.8607006E1,2.1578436E1,1.0238104E2,3.6403625E1,2.2033787E0,1.9961458E1,1.6169773E0,1.7827284E1,8.4553764E1,2.5824533E1,1.0579092E1,1.0416276E0,1.161751E0],"tree_param":{"num_deleted":"0","num_feature":"7","num_nodes":"15","size_leaf_vector":"1"}},{"base_weights":[-1.5611605E-1,-5.796652E-1,-5.5969402E-2,-4.7392502E-1,-9.490346E-3,1.0056094E-3,-8.307836E-1,