{"learner":{"attributes":{"scikit_learn":"{\"_estimator_type\": \"classifier\"}"},"feature_names":["Age","Drinking","Diabetes","Chronic","HDLC","LDLC","PTINR"],"feature_types":["int","int","int","int","float","float","float"],"gradient_booster":{"model":{"gbtree_model_param":{"num_parallel_tree":"1","num_trees":"100"},"iteration_indptr":[0,1,2,3,4,5,6,7,8,9,10,11,12,13,14,15,16,17,18,19,20,21,22,23,24,25,26,27,28,29,30,31,32,33,34,35,36,37,38,39,40,41,42,43,44,45,46,47,48,49,50,51,52,53,54,55,56,57,58,59,60,61,62,63,64,65,66,67,68,69,70,71,72,73,74,75,76,77,78,79,80,81,82,83,84,85,86,87,88,89,90,91,92,93,94,95,96,97,98,99,100],"tree_info":[0,0,0,0,0,0,0,0,0,0,0,0,0,0,0,0,0,0,0,0,0,0,0,0,0,0,0,0,0,0,0,0,0,0,0,0,0,0,0,0,0,0,0,0,0,0,0,0,0,0,0,0,0,0,0,0,0,0,0,0,0,0,0,0,0,0,0,0,0,0,0,0,0,0,0,0,0,0,0,0,0,0,0,0,0,0,0,0,0,0,0,0,0,0,0,0,0,0,0,0],"trees":[{"base_weights":[-4.025625E-1,-7.3056525E-1,3.656121E-2,-4.282685E-1,-8.4573555E-1,-2.3902234E-1,5.946857E-1,-6.4156423E-3,-9.1542944E-4,-1.091723E-2,-7.216737E-3,-1.0068355E-2,-6.478237E-4,8.731816E-3,-7.400435E-4],"categories":[],"categories_nodes":[],"categories_segments":[],"categories_sizes":[],"default_left":[0,0,0,0,0,0,0,0,0,0,0,0,0,0,0],"id":0,"left_children":[1,3,5,7,9,11,13,-1,-1,-1,-1,-1,-1,-1,-1],"loss_changes":[2.6937454E1,3.3629951E0,1.2575914E1,2.2068477E0,1.545311E0,7.2702103E0,5.0942535E0,0E0,0E0,0E0,0E0,0E0,0E0,0E0,0E0],"parents":[2147483647,0,0,1,1,2,2,3,3,4,4,5,5,6,6],"right_children":[2,4,6,8,10,12,14,-1,-1,-1,-1,-1,-1,-1,-1],"split_conditions":[1.40611E3,3.8911E2,3.51E0,2.77E0,2.25E0,1E0,2.19011E3,-6.4156423E-3,-9.1542944E-4,-1.091723E-2,-7.216737E-3,-1.0068355E-2,-6.478237E-4,8.731816E-3,-7.400435E-4],"split_indices":[6,6,5,5,5,3,6,0,0,0,0,0,0,0,0],"split_type":[0,0,0,0,0,0,0,0,0,0,0,0,0,0,0],"sum_hessian":[1.8583633E2,1.0599778E2,7.9838554E1,3.0544296E1,7.545348E1,5.383054E1,2.6008015E1,1.8145126E1,1.239917E1,2.2681408E1,5.2772076E1,9.072563E0,4.4757977E1,1.8145126E1,7.862888E0],"tree_param":{"num_deleted":"0","num_feature":"7","num_nodes":"15","size_leaf_vector":"1"}},{"base_weights":[-3.3123782E-1,-6.796819E-1,1.2933525E-1,-2.9211456E-1,-8.49079E-1,-7.817054E-1,2.759795E-1,-9.092004E-3,-2.0745806E-3,-1.0493807E-2,-7.4012713E-3,-8.312676E-3,-1.4472839E-3,-1.8538771E-3,4.4932496E-3],"categories":[],"categories_nodes":[],"categories_segments":[],"categories_sizes":[],"default_left":[0,0,0,0,0,0,0,0,0,0,0,0,0,0,0],"id":1,"left_children":[1,3,5,7,9,11,13,-1,-1,-1,-1,-1,-1,-1,-1],"loss_changes":[3.058031E1,6.864025E0,1.1260943E1,1.6121986E0,8.569412E-1,2.4980116E-1,5.837645E0,0E0,0E0,0E0,0E0,0E0,0E0,0E0,0E0],"parents":[2147483647,0,0,1,1,2,2,3,3,4,4,5,5,6,6],"right_children":[2,4,6,8,10,12,14,-1,-1,-1,-1,-1,-1,-1,-1],"split_conditions":[1.41811E3,4.2811E2,1.87E0,3.511E1,2.3E0,2.28011E3,1E0,-9.092004E-3,-2.0745806E-3,-1.0493807E-2,-7.4012713E-3,-8.312676E-3,-1.4472839E-3,-1.8538771E-3,4.4932496E-3],"split_indices":[6,6,5,6,5,6,2,0,0,0,0,0,0,0,0],"split_type":[0,0,0,0,0,0,0,0,0,0,0,0,0,0,0],"sum_hessian":[1.8900278E2,1.07328354E2,8.167442E1,3.3471832E1,7.385652E1,1.0723442E1,7.095098E1,2.8629646E0,3.060887E1,2.2979126E1,5.0877396E1,9.666302E0,1.05714E0,1.9358349E1,5.1592632E1],"tree_param":{"num_deleted":"0","num_feature":"7","num_nodes":"15","size_leaf_vector":"1"}},{"base_weights":[-3.158516E-1,-6.6270185E-1,1.3033088E-1,-2.260134E-1,-8.5198444E-1,-7.298173E-1,3.0970678E-1,3.0628382E-3,-5.494678E-3,-1.0504408E-2,-7.372847E-3,-8.8417367E-4,-8.693438E-3,-2.9740776E-3,6.3854097E-3],"categories":[],"categories_nodes":[],"categories_segments":[],"categories_sizes":[],"default_left":[0,0,0,0,0,0,0,0,0,0,0,0,0,0,0],"id":2,"left_children":[1,3,5,7,9,11,13,-1,-1,-1,-1,-1,-1,-1,-1],"loss_changes":[2.901565E1,8.51437E0,1.2969503E1,5.8867455E0,8.9004517E-1,1.2252555E0,1.3973915E1,0E0,0E0,0E0,0E0,0E0,0E0,0E0,0E0],"parents":[2147483647,0,0,1,1,2,2,3,3,4,4,5,5,6,6],"right_children":[2,4,6,8,10,12,14,-1,-1,-1,-1,-1,-1,-1,-1],"split_conditions":[1.41811E3,4.2811E2,2.11E0,6.9E1,2.35E0,1.57111E3,5.3E1,3.0628382E-3,-5.494678E-3,-1.0504408E-2,-7.372847E-3,-8.8417367E-4,-8.693438E-3,-2.9740776E-3,6.3854097E-3],"split_indices":[6,6,5,0,5,6,0,0,0,0,0,0,0,0,0],"split_type":[0,0,0,0,0,0,0,0,0,0,0,0,0,0,0],"sum_hessian":[1.859318E2,1.04337425E2,8.1594376E1,3.221324E1,7.212418E1,1.3550071E1,6.8044304E1,1.2195927E1,2.0017315E1,2.342883E1,4.869535E1,2.7128534E0,1.0837217E1,2.3940113E1,4.410419E1],"tree_param":{"num_deleted":"0","num_feature":"7","num_nodes":"15","size_leaf_vector":"1"}},{"base_weights":[-3.239678E-1,-7.162381E-1,1.0892309E-1,-2.2690582E-1,-9.198097E-1,-6.306812E-1,2.6544884E-1,2.1242518E-3,-8.148538E-3,-7.919675E-3,-1.0706759E-2,1.4284317E-3,-7.1509597E-3,3.3534886E-3,-5.4172645E-3],"categories":[],"categories_nodes":[],"categories_segments":[],"categories_sizes":[],"default_left":[0,0,0,0,0,0,0,0,0,0,0,0,0,0,0],"id":3,"left_children":[1,3,5,7,9,11,13,-1,-1,-1,-1,-1,-1,-1,-1],"loss_changes":[3.0805607E1,9.26083E0,1.0226458E1,7.7300944E0,4.4054794E-1,1.1125007E0,4.267556E0,0E0,0E0,0E0,0E0,0E0,0E0,0E0,0E0],"parents":[2147483647,0,0,1,1,2,2,3,3,4,4,5,5,6,6],"right_children":[2,4,6,8,10,12,14,-1,-1,-1,-1,-1,-1,-1,-1],"split_conditions":[1.35911E3,3.8911E2,1E0,1.25E0,1.2E0,1.53111E3,2.44211E3,2.1242518E-3,-8.148538E-3,-7.919675E-3,-1.0706759E-2,1.4284317E-3,-7.1509597E-3,3.3534886E-3,-5.4172645E-3],"split_indices":[6,6,3,4,4,6,6,0,0,0,0,0,0,0,0],"split_type":[0,0,0,0,0,0,0,0,0,0,0,0,0,0,0],"sum_hessian":[1.7995251E2,9.406218E1,8.5890335E1,2.8256252E1,6.580592E1,1.44732275E1,7.141711E1,1.65376E1,1.1718652E1,3.9003933E1,2.6801994E1,1.3559545E0,1.3117273E1,6.626335E1,5.153756E0],"tree_param":{"num_deleted":"0","num_feature":"7","num_nodes":"15","size_leaf_vector":"1"}},{"base_weights":[-3.695242E-1,-7.9190534E-1,-2.197123E-1,-6.0685647E-1,-9.1985434E-1,-7.618318E-1,-8.128874E-2,-8.432513E-3,-2.579273E-4,-9.726992E-3,-2.2956887E-3,-8.144135E-3,2.391604E-3,7.665165E-4,-6.996548E-3],"categories":[],"categories_nodes":[],"categories_segments":[],"categories_sizes":[],"default_left":[0,0,0,0,0,0,0,0,0,0,0,0,0,0,0],"id":4,"left_children":[1,3,5,7,9,11,13,-1,-1,-1,-1,-1,-1,-1,-1],"loss_changes":[1.182435E1,6.081219E-1,1.0545511E1,3.1479797E0,7.683506E-1,1.7017899E0,1.1160201E1,0E0,0E0,0E0,0E0,0E0,0E0,0E0,0E0],"parents":[2147483647,0,0,1,1,2,2,3,3,4,4,5,5,6,6],"right_children":[2,4,6,8,10,12,14,-1,-1,-1,-1,-1,-1,-1,-1],"split_conditions":[2.19E0,1.06E0,1E0,9.7E-1,2.15E0,5.39E0,1.39E0,-8.432513E-3,-2.579273E-4,-9.726992E-3,-2.2956887E-3,-8.144135E-3,2.391604E-3,7.665165E-4,-6.996548E-3],"split_indices":[5,4,3,4,5,5,4,0,0,0,0,0,0,0,0],"split_type":[0,0,0,0,0,0,0,0,0,0,0,0,0,0,0],"sum_hessian":[1.8861403E2,4.8260876E1,1.4035315E2,2.2075989E1,2.6184885E1,2.7632013E1,1.1272114E2,1.537126E1,6.7047286E0,2.3942814E1,2.242071E0,2.6430048E1,1.2019653E0,9.048571E1,2.2235426E1],"tree_param":{"num_deleted":"0","num_feature":"7","num_nodes":"15","size_leaf_vector":"1"}},{"base_weights":[-3.6520398E-1,-6.5665597E-1,6.188361E-4,-2.0805922E-1,-8.2710946E-1,-5.5610293E-1,2.061816E-1,4.662652E-3,-5.6137475E-3,-1.0639004E-2,-7.2272443E-3,2.736115E-3,-6.413223E-3,-5.390872E-3,3.2908856E-3],"categories":[],"categories_nodes":[],"categories_segments":[],"categories_sizes":[],"default_left":[0,0,0,0,0,0,0,0,0,0,0,0,0,0,0],"id":5,"left_children":[1,3,5,7,9,11,13,-1,-1,-1,-1,-1,-1,-1,-1],"loss_changes":[1.9760073E1,7.715275E0,9.633683E0,7.3468404E0,1.0703621E0,1.7806005E0,5.808656E0,0E0,0E0,0E0,0E0,0E0,0E0,0E0,0E0],"parents":[2147483647,0,0,1,1,2,2,3,3,4,4,5,5,6,6],"right_children":[2,4,6,8,10,12,14,-1,-1,-1,-1,-1,-1,-1,-1],"split_conditions":[1.40611E3,3.8911E2,5.1E1,6.9E1,1E0,1.51511E3,1E0,4.662652E-3,-5.6137475E-3,-1.0639004E-2,-7.2272443E-3,2.736115E-3,-6.413223E-3,-5.390872E-3,3.2908856E-3],"split_indices":[6,6,0,0,2,6,3,0,0,0,0,0,0,0,0],"split_type":[0,0,0,0,0,0,0,0,0,0,0,0,0,0,0],"sum_hessian":[1.8432834E2,1.0215009E2,8.217825E1,2.8738136E1,7.341195E1,2.1700884E1,6.047737E1,9.770621E0,1.8967516E1,1.9648481E1,5.3763474E1,1.8153692E0,1.9885515E1,8.082362E0,5.2395008E1],"tree_param":{"num_deleted":"0","num_feature":"7","num_nodes":"15","size_leaf_vector":"1"}},{"base_weights":[-4.0596992E-1,-7.0753217E-1,-2.0104863E-2,-3.5345113E-1,-8.601182E-1,-5.085089E-1,1.03641175E-1,-2.924433E-4,-8.345123E-3,3.696964E-3,-8.82719E-3,8.633762E-3,-6.9585945E-3,1.2548846E-4,1.0918302E-2],"categories":[],"categories_nodes":[],"categories_segments":[],"categories_sizes":[],"default_left":[0,0,0,0,0,0,0,0,0,0,0,0,0,0,0],"id":6,"left_children":[1,3,5,7,9,11,13,-1,-1,-1,-1,-1,-1,-1,-1],"loss_changes":[2.193513E1,5.414921E0,5.1160603E0,5.212145E0,2.3630447E0,4.9971576E0,6.077953E0,0E0,0E0,0E0,0E0,0E0,0E0,0E0,0E0],"parents":[2147483647,0,0,1,1,2,2,3,3,4,4,5,5,6,6],"right_children":[2,4,6,8,10,12,14,-1,-1,-1,-1,-1,-1,-1,-1],"split_conditions":[1.40611E3,4.2811E2,1E0,1.25E0,6.6E-1,1.53111E3,1E0,-2.924433E-4,-8.345123E-3,3.696964E-3,-8.82719E-3,8.633762E-3,-6.9585945E-3,1.2548846E-4,1.0918302E-2],"split_indices":[6,6,3,4,4,6,1,0,0,0,0,0,0,0,0],"split_type":[0,0,0,0,0,0,0,0,0,0,0,0,0,0,0],"sum_hessian":[1.8762933E2,1.04851715E2,8.277762E1,3.257552E1,7.22762E1,1.6104937E1,6.667268E1,2.0094086E1,1.2481434E1,1.0271424E0,7.1249054E1,1.5015324E0,1.4603405E1,6.197267E1,4.7000084E0],"tree_param":{"num_deleted":"0","num_feature":"7","num_nodes":"15","size_leaf_vector":"1"}},{"base_weights":[-3.9288616E-1,-7.254011E-1,2.2643859E-2,-3.761457E-1,-8.541665E-1,-6.165521E-1,2.6414904E-1,-6.177799E-3,4.5604794E-3,-1.0678394E-2,-7.519523E-3,-1.0352916E-2,-4.2913607E-3,-5.989456E-3,4.5429408E-3],"categories":[],"categories_nodes":[],"categories_segments":[],"categories_sizes":[],"default_left":[0,0,0,0,0,0,0,0,0,0,0,0,0,0,0],"id":7,"left_children":[1,3,5,7,9,11,13,-1,-1,-1,-1,-1,-1,-1,-1],"loss_changes":[2.5857506E1,4.3521843E0,1.3145938E1,6.270082E0,8.381195E-1,1.3892031E0,1.040464E1,0E0,0E0,0E0,0E0,0E0,0E0,0E0,0E0],"parents":[2147483647,0,0,1,1,2,2,3,3,4,4,5,5,6,6],"right_children":[2,4,6,8,10,12,14,-1,-1,-1,-1,-1,-1,-1,-1],"split_conditions":[1.41811E3,3.8911E2,2.41E0,3.0111E2,2.25E0,1.65E0,1E0,-6.177799E-3,4.5604794E-3,-1.0678394E-2,-7.519523E-3,-1.0352916E-2,-4.2913607E-3,-5.989456E-3,4.5429408E-3],"split_indices":[6,6,5,6,5,5,3,0,0,0,0,0,0,0,0],"split_type":[0,0,0,0,0,0,0,0,0,0,0,0,0,0,0],"sum_hessian":[1.8602386E2,1.02919785E2,8.310408E1,2.8779951E1,7.413984E1,2.2362885E1,6.0741196E1,2.250352E1,6.2764316E0,2.0933159E1,5.320668E1,5.5155616E0,1.6847324E1,1.0577683E1,5.0163513E1],"tree_param":{"num_deleted":"0","num_feature":"7","num_nodes":"15","size_leaf_vector":"1"}},{"base_weights":[-3.1832013E-1,-6.04144E-1,3.9754923E-2,-2.660294E-1,-8.276537E-1,-7.097241E-1,2.1286607E-1,1.1793883E-3,-5.4058167E-3,-1.0952751E-2,-6.97857E-3,5.647402E-3,-8.655615E-3,3.5610087E-3,-6.955365E-3],"categories":[],"categories_nodes":[],"categories_segments":[],"categories_sizes":[],"default_left":[0,0,0,0,0,0,0,0,0,0,0,0,0,0,0],"id":8,"left_children":[1,3,5,7,9,11,13,-1,-1,-1,-1,-1,-1,-1,-1],"loss_changes":[1.9301191E1,7.7001495E0,1.1120472E1,4.616084E0,1.410923E0,3.6853905E0,9.284448E0,0E0,0E0,0E0,0E0,0E0,0E0,0E0,0E0],"parents":[2147483647,0,0,1,1,2,2,3,3,4,4,5,5,6,6],"right_children":[2,4,6,8,10,12,14,-1,-1,-1,-1,-1,-1,-1,-1],"split_conditions":[1.41811E3,5.4411E2,1E0,6.9E1,7.8911E2,1.53111E3,2.40611E3,1.1793883E-3,-5.4058167E-3,-1.0952751E-2,-6.97857E-3,5.647402E-3,-8.655615E-3,3.5610087E-3,-6.955365E-3],"split_indices":[6,6,3,0,6,6,6,0,0,0,0,0,0,0,0],"split_type":[0,0,0,0,0,0,0,0,0,0,0,0,0,0,0],"sum_hessian":[1.8735225E2,1.0380526E2,8.354699E1,4.2183037E1,6.162222E1,1.5094788E1,6.84522E1,1.7824903E1,2.4358135E1,1.7696423E1,4.3925797E1,1.3587555E0,1.37360325E1,5.965408E1,8.798123E0],"tree_param":{"num_deleted":"0","num_feature":"7","num_nodes":"15","size_leaf_vector":"1"}},{"base_weights":[-4.0835348E-1,-8.5330003E-1,-2.5167742E-1,-9.215748E-3,-5.2068114E-1,-8.657753E-1,-1.0510063E-1,1.5925103E-3,-7.919413E-3,-8.908314E-3,-1.2952937E-3,-1.5052014E-3,5.5261874E-3],"categories":[],"categories_nodes":[],"categories_segments":[],"categories_sizes":[],"default_left":[0,0,0,0,0,0,0,0,0,0,0,0,0],"id":9,"left_children":[1,3,5,-1,7,9,11,-1,-1,-1,-1,-1,-1],"loss_changes":[1.25791855E1,5.9602356E-1,1.2254117E1,0E0,2.0382206E0,3.6958504E-1,3.4247885E0,0E0,0E0,0E0,0E0,0E0,0E0],"parents":[2147483647,0,0,1,1,2,2,4,4,5,5,6,6],"right_children":[2,4,6,-1,8,10,12,-1,-1,-1,-1,-1,-1],"split_conditions":[2.22E0,7.7E1,1E0,-9.215748E-3,7.9E1,5.72E0,1E0,1.5925103E-3,-7.919413E-3,-8.908314E-3,-1.2952937E-3,-1.5052014E-3,5.5261874E-3],"split_indices":[5,0,3,0,0,5,1,0,0,0,0,0,0],"split_type":[0,0,0,0,0,0,0,0,0,0,0,0,0],"sum_hessian":[1.8252441E2,4.637555E1,1.3614886E2,3.7008392E1,9.367159E0,2.5289476E1,1.1085938E2,2.789074E0,6.5780845E0,2.425409E1,1.0353873E0,1.04419716E2,6.439667E0],"tree_param":{"num_deleted":"0","num_feature":"7","num_nodes":"13","size_leaf_vector":"1"}},{"base_weights":[-3.4175915E-1,-6.7198956E-1,6.371841E-2,-2.918104E-1,-8.344998E-1,-1.6021824E-1,8.51842E-1,-4.5270546E-4,-7.452995E-3,-8.818542E-3,-2.0742482E-3,-2.6440574E-4,-8.319103E-3,1.138817E-3,1.2591226E-2],"categories":[],"categories_nodes":[],"categories_segments":[],"categories_sizes":[],"default_left":[0,0,0,0,0,0,0,0,0,0,0,0,0,0,0],"id":10,"left_children":[1,3,5,7,9,11,13,-1,-1,-1,-1,-1,-1,-1,-1],"loss_changes":[2.4306416E1,5.9320755E0,1.465266E1,3.4846947E0,1.8804512E0,5.809025E0,5.3740788E0,0E0,0E0,0E0,0E0,0E0,0E0,0E0,0E0],"parents":[2147483647,0,0,1,1,2,2,3,3,4,4,5,5,6,6],"right_children":[2,4,6,8,10,12,14,-1,-1,-1,-1,-1,-1,-1,-1],"split_conditions":[1.40611E3,4.2811E2,3.87E0,7.8E1,8.1E1,2.35511E3,5.3E1,-4.5270546E-4,-7.452995E-3,-8.818542E-3,-2.0742482E-3,-2.6440574E-4,-8.319103E-3,1.138817E-3,1.2591226E-2],"split_indices":[6,6,5,0,0,6,0,0,0,0,0,0,0,0,0],"split_type":[0,0,0,0,0,0,0,0,0,0,0,0,0,0,0],"sum_hessian":[1.802055E2,9.895608E1,8.124943E1,3.0469908E1,6.848617E1,6.3891945E1,1.7357485E1,2.0451342E1,1.0018566E1,6.329971E1,5.1864567E0,5.414709E1,9.74485E0,6.627889E0,1.0729595E1],"tree_param":{"num_deleted":"0","num_feature":"7","num_nodes":"15","size_leaf_vector":"1"}},{"base_weights":[-3.2532823E-1,-8.245649E-1,-2.1900934E-1,1.7680862E-3,-8.7389904E-1,-5.547069E-1,-8.5545525E-2,-9.634737E-3,-6.0241837E-3,-4.0616156E-3,-8.00891E-3,4.0656594E-3,-2.0870038E-3],"categories":[],"categories_nodes":[],"categories_segments":[],"categories_sizes":[],"default_left":[0,0,0,0,0,0,0,0,0,0,0,0,0],"id":11,"left_children":[1,3,5,-1,7,9,11,-1,-1,-1,-1,-1,-1],"loss_changes":[9.44652E0,1.7098293E0,6.7130637E0,0E0,1.5332222E-1,1.2377844E0,6.699994E0,0E0,0E0,0E0,0E0,0E0,0E0],"parents":[2147483647,0,0,1,1,2,2,4,4,5,5,6,6],"right_children":[2,4,6,-1,8,10,12,-1,-1,-1,-1,-1,-1],"split_conditions":[1E0,8E-1,2.22E0,1.7680862E-3,3.56E0,1.24E0,9.7E-1,-9.634737E-3,-6.0241837E-3,-4.0616156E-3,-8.00891E-3,4.0656594E-3,-2.0870038E-3],"split_indices":[3,4,5,0,5,4,4,0,0,0,0,0,0],"split_type":[0,0,0,0,0,0,0,0,0,0,0,0,0],"sum_hessian":[1.8037563E2,3.0482897E1,1.4989272E2,1.3099488E0,2.9172949E1,4.1742596E1,1.0815012E2,2.0018814E1,9.154136E0,2.7686586E1,1.4056007E1,2.1187248E1,8.6962875E1],"tree_param":{"num_deleted":"0","num_feature":"7","num_nodes":"13","size_leaf_vector":"1"}},{"base_weights":[-3.054147E-1,-7.423344E-1,-1.3632113E-1,-6.435124E-1,-1.0217028E0,-5.495639E-1,6.104094E-2,-7.280998E-3,-2.2854863E-3,-1.0914598E-2,-3.1380432E-3,-3.955974E-3,-1.0841958E-2,-1.6794461E-3,5.8275578E-3],"categories":[],"categories_nodes":[],"categories_segments":[],"categories_sizes":[],"default_left":[0,0,0,0,0,0,0,0,0,0,0,0,0,0,0],"id":12,"left_children":[1,3,5,7,9,11,13,-1,-1,-1,-1,-1,-1,-1,-1],"loss_changes":[1.3583759E1,7.6320076E-1,1.1025334E1,1.262703E0,2.3746967E-1,3.1651068E0,1.1101862E1,0E0,0E0,0E0,0E0,0E0,0E0,0E0,0E0],"parents":[2147483647,0,0,1,1,2,2,3,3,4,4,5,5,6,6],"right_children":[2,4,6,8,10,12,14,-1,-1,-1,-1,-1,-1,-1,-1],"split_conditions":[2.22E0,1.36E0,5.4E1,1.2E0,2.15E0,1.32E0,3.57E0,-7.280998E-3,-2.2854863E-3,-1.0914598E-2,-3.1380432E-3,-3.955974E-3,-1.0841958E-2,-1.6794461E-3,5.8275578E-3],"split_indices":[5,4,0,4,5,4,5,0,0,0,0,0,0,0,0],"split_type":[0,0,0,0,0,0,0,0,0,0,0,0,0,0,0],"sum_hessian":[1.8423138E2,5.0459457E1,1.3377193E2,3.971454E1,1.0744917E1,4.2661472E1,9.111045E1,3.2362972E1,7.351567E0,9.287851E0,1.4570657E0,3.4473522E1,8.187949E0,6.3790356E1,2.7320095E1],"tree_param":{"num_deleted":"0","num_feature":"7","num_nodes":"15","size_leaf_vector":"1"}},{"base_weights":[-3.5507172E-1,-8.8849956E-1,-2.2926162E-1,-9.924357E-3,-5.9922826E-1,-6.008356E-1,-4.772994E-2,9.404832E-3,-9.8923305E-3,-2.1918237E-3,-6.4122193E-3,2.3986325E-3,-2.7679994E-3],"categories":[],"categories_nodes":[],"categories_segments":[],"categories_sizes":[],"default_left":[0,0,0,0,0,0,0,0,0,0,0,0,0],"id":13,"left_children":[1,3,5,-1,7,9,11,-1,-1,-1,-1,-1,-1],"loss_changes":[1.2173771E1,4.530964E-1,1.012858E1,0E0,7.977642E0,6.1989975E-1,6.8023844E0,0E0,0E0,0E0,0E0,0E0,0E0],"parents":[2147483647,0,0,1,1,2,2,4,4,5,5,6,6],"right_children":[2,4,6,-1,8,10,12,-1,-1,-1,-1,-1,-1],"split_conditions":[1E0,3.56E0,2.35E0,-9.924357E-3,3.77E0,7.6E-1,1.13E0,9.404832E-3,-9.8923305E-3,-2.1918237E-3,-6.4122193E-3,2.3986325E-3,-2.7679994E-3],"split_indices":[3,5,5,0,5,4,4,0,0,0,0,0,0],"split_type":[0,0,0,0,0,0,0,0,0,0,0,0,0],"sum_hessian":[1.8343388E2,3.384992E1,1.4958397E2,2.3114122E1,1.0735795E1,4.8336014E1,1.01247955E2,1.8844911E0,8.851303E0,5.240461E0,4.3095554E1,4.486884E1,5.6379116E1],"tree_param":{"num_deleted":"0","num_feature":"7","num_nodes":"13","size_leaf_vector":"1"}},{"base_weights":[-3.252972E-1,-6.6740644E-1,1.2412636E-1,-2.7299345E-1,-8.3251125E-1,-5.174008E-1,3.580068E-1,7.198366E-3,-5.207748E-3,-8.906048E-3,-3.6000304E-3,-8.822158E-3,-2.150623E-3,4.7804457E-3,-3.362382E-3],"categories":[],"categories_nodes":[],"categories_segments":[],"categories_sizes":[],"default_left":[0,0,0,0,0,0,0,0,0,0,0,0,0,0,0],"id":14,"left_children":[1,3,5,7,9,11,13,-1,-1,-1,-1,-1,-1,-1,-1],"loss_changes":[2.8022182E1,6.501766E0,1.2095951E1,8.242117E0,1.6654625E0,2.1946378E0,5.058011E0,0E0,0E0,0E0,0E0,0E0,0E0,0E0,0E0],"parents":[2147483647,0,0,1,1,2,2,3,3,4,4,5,5,6,6],"right_children":[2,4,6,8,10,12,14,-1,-1,-1,-1,-1,-1,-1,-1],"split_conditions":[1.47111E3,4.2811E2,5.1E1,6.1E1,1.34011E3,1.96111E3,2.35511E3,7.198366E-3,-5.207748E-3,-8.906048E-3,-3.6000304E-3,-8.822158E-3,-2.150623E-3,4.7804457E-3,-3.362382E-3],"split_indices":[6,6,0,0,6,6,6,0,0,0,0,0,0,0,0],"split_type":[0,0,0,0,0,0,0,0,0,0,0,0,0,0,0],"sum_hessian":[1.8071696E2,1.023337E2,7.838326E1,3.098004E1,7.135366E1,2.0617588E1,5.776568E1,5.8069935E0,2.5173046E1,6.2753452E1,8.600212E0,8.474232E0,1.2143356E1,4.951564E1,8.250036E0],"tree_param":{"num_deleted":"0","num_feature":"7","num_nodes":"15","size_leaf_vector":"1"}},{"base_weights":[-3.0477157E-1,-8.602834E-1,-1.8210697E-1,-9.127944E-1,3.8218969E-3,-3.4820446E-1,3.3541077E-1,-1.1515175E-3,-9.357518E-3,-6.92556E-3,-2.0217516E-3,1.6500702E-3,2.2074426E-2],"categories":[],"categories_nodes":[],"categories_segments":[],"categories_sizes":[],"default_left":[0,0,0,0,0,0,0,0,0,0,0,0,0],"id":15,"left_children":[1,3,5,7,-1,9,11,-1,-1,-1,-1,-1,-1],"loss_changes":[1.2106453E1,2.4550896E0,1.2897306E1,4.648285E-1,0E0,5.5446463E0,1.1322256E1,0E0,0E0,0E0,0E0,0E0,0E0],"parents":[2147483647,0,0,1,1,2,2,3,3,5,5,6,6],"right_children":[2,4,6,8,-1,10,12,-1,-1,-1,-1,-1,-1],"split_conditions":[1E0,5.95E0,3.58E0,7.9E-1,3.8218969E-3,2.07E0,1E0,-1.1515175E-3,-9.357518E-3,-6.92556E-3,-2.0217516E-3,1.6500702E-3,2.2074426E-2],"split_indices":[3,5,5,4,0,5,1,0,0,0,0,0,0],"split_type":[0,0,0,0,0,0,0,0,0,0,0,0,0],"sum_hessian":[1.789651E2,3.1282518E1,1.4768259E2,3.0268606E1,1.0139115E0,1.12047935E2,3.5634655E1,1.0151067E0,2.92535E1,3.225198E1,7.979595E1,3.3658955E1,1.9756999E0],"tree_param":{"num_deleted":"0","num_feature":"7","num_nodes":"13","size_leaf_vector":"1"}},{"base_weights":[-2.5829923E-1,-5.901083E-1,1.00725904E-1,-1.6108821E-1,-7.746626E-1,-5.2669597E-1,3.4363544E-1,3.918055E-3,-4.7640787E-3,-8.666529E-3,-4.27182E-3,4.2891204E-3,-6.3716536E-3,-5.845253E-3,5.050261E-3],"categories":[],"categories_nodes":[],"categories_segments":[],"categories_sizes":[],"default_left":[0,0,0,0,0,0,0,0,0,0,0,0,0,0,0],"id":16,"left_children":[1,3,5,7,9,11,13,-1,-1,-1,-1,-1,-1,-1,-1],"loss_changes":[2.1591766E1,7.324318E0,1.3542293E1,5.340236E0,1.7241325E0,2.8979788E0,9.8530445E0,0E0,0E0,0E0,0E0,0E0,0E0,0E0,0E0],"parents":[2147483647,0,0,1,1,2,2,3,3,4,4,5,5,6,6],"right_children":[2,4,6,8,10,12,14,-1,-1,-1,-1,-1,-1,-1,-1],"split_conditions":[1.34011E3,3.8911E2,5.1E1,6.9E1,7.1E1,1.45011E3,1E0,3.918055E-3,-4.7640787E-3,-8.666529E-3,-4.27182E-3,4.2891204E-3,-6.3716536E-3,-5.845253E-3,5.050261E-3],"split_indices":[6,6,0,0,0,6,3,0,0,0,0,0,0,0,0],"split_type":[0,0,0,0,0,0,0,0,0,0,0,0,0,0,0],"sum_hessian":[1.7974982E2,9.308112E1,8.666869E1,2.856079E1,6.452033E1,2.3863169E1,6.2805523E1,1.0284675E1,1.8276114E1,4.9833538E1,1.4686791E1,2.1740513E0,2.1689117E1,8.914762E0,5.3890762E1],"tree_param":{"num_deleted":"0","num_feature":"7","num_nodes":"15","size_leaf_vector":"1"}},{"base_weights":[-2.774218E-1,-6.398375E-1,1.6178884E-1,-2.6080403E-1,-7.934369E-1,-3.688979E-1,4.5994952E-1,1.7198155E-3,-9.369683E-3,3.0012496E-3,-8.161623E-3,1.4345172E-2,-5.580562E-3,6.295714E-3,-2.6345341E-3],"categories":[],"categories_nodes":[],"categories_segments":[],"categories_sizes":[],"default_left":[0,0,0,0,0,0,0,0,0,0,0,0,0,0,0],"id":17,"left_children":[1,3,5,7,9,11,13,-1,-1,-1,-1,-1,-1,-1,-1],"loss_changes":[2.8282906E1,5.4518433E0,1.2960099E1,8.799479E0,1.9517174E0,1.0909424E1,6.571184E0,0E0,0E0,0E0,0E0,0E0,0E0,0E0,0E0],"parents":[2147483647,0,0,1,1,2,2,3,3,4,4,5,5,6,6],"right_children":[2,4,6,8,10,12,14,-1,-1,-1,-1,-1,-1,-1,-1],"split_conditions":[1.40611E3,3.8911E2,5.4E1,1.25E0,6.9E-1,1.54811E3,1.42E0,1.7198155E-3,-9.369683E-3,3.0012496E-3,-8.161623E-3,1.4345172E-2,-5.580562E-3,6.295714E-3,-2.6345341E-3],"split_indices":[6,6,0,4,4,6,4,0,0,0,0,0,0,0,0],"split_type":[0,0,0,0,0,0,0,0,0,0,0,0,0,0,0],"sum_hessian":[1.7603195E2,9.619754E1,7.983442E1,2.8519241E1,6.76783E1,2.8633432E1,5.1200985E1,1.7843796E1,1.0675446E1,1.1292926E0,6.6549E1,2.0932195E0,2.6540213E1,4.15809E1,9.620089E0],"tree_param":{"num_deleted":"0","num_feature":"7","num_nodes":"15","size_leaf_vector":"1"}},{"base_weights":[-3.1011716E-1,-6.826782E-1,7.615333E-2,-3.1966594E-1,-8.0803496E-1,-7.764721E-1,2.7263823E-1,-3.911954E-3,4.816544E-3,-1.013314E-2,-6.8566697E-3,4.0013186E-4,-8.638773E-3,5.948883E-4,7.6890383E-3],"categories":[],"categories_nodes":[],"categories_segments":[],"categories_sizes":[],"default_left":[0,0,0,0,0,0,0,0,0,0,0,0,0,0,0],"id":18,"left_children":[1,3,5,7,9,11,13,-1,-1,-1,-1,-1,-1,-1,-1],"loss_changes":[2.5500916E1,3.8426018E0,1.4907625E1,1.609128E0,9.714241E-1,1.2255878E0,7.5738254E0,0E0,0E0,0E0,0E0,0E0,0E0,0E0,0E0],"parents":[2147483647,0,0,1,1,2,2,3,3,4,4,5,5,6,6],"right_children":[2,4,6,8,10,12,14,-1,-1,-1,-1,-1,-1,-1,-1],"split_conditions":[1.34011E3,3.4211E2,1E0,3.2211E2,2.3E0,1.46011E3,3.6E0,-3.911954E-3,4.816544E-3,-1.013314E-2,-6.8566697E-3,4.0013186E-4,-8.638773E-3,5.948883E-4,7.6890383E-3],"split_indices":[6,6,3,6,5,6,5,0,0,0,0,0,0,0,0],"split_type":[0,0,0,0,0,0,0,0,0,0,0,0,0,0,0],"sum_hessian":[1.7584E2,8.91178E1,8.6722206E1,2.37864E1,6.53314E1,1.5689119E1,7.103309E1,2.230699E1,1.4794106E0,2.1680422E1,4.365097E1,1.5695515E0,1.4119568E1,5.0474026E1,2.0559061E1],"tree_param":{"num_deleted":"0","num_feature":"7","num_nodes":"15","size_leaf_vector":"1"}},{"base_weights":[-2.8665474E-1,-6.5170825E-1,-1.24387234E-1,-2.0910281E-1,-7.0234525E-1,-5.317391E-1,3.1542208E-2,-6.50543E-3,9.051965E-3,-5.988324E-3,-9.133523E-3,-1.1935332E-3,-6.920106E-3,1.351141E-3,-8.8443E-3],"categories":[],"categories_nodes":[],"categories_segments":[],"categories_sizes":[],"default_left":[0,0,0,0,0,0,0,0,0,0,0,0,0,0,0],"id":19,"left_children":[1,3,5,7,9,11,13,-1,-1,-1,-1,-1,-1,-1,-1],"loss_changes":[1.0779326E1,1.1122913E0,8.157156E0,4.126402E0,5.449314E-1,2.2659292E0,9.001625E0,0E0,0E0,0E0,0E0,0E0,0E0,0E0,0E0],"parents":[2147483647,0,0,1,1,2,2,3,3,4,4,5,5,6,6],"right_children":[2,4,6,8,10,12,14,-1,-1,-1,-1,-1,-1,-1,-1],"split_conditions":[2.35E0,8E-1,5.2E1,7.4E-1,1.3E0,9.7E-1,1.6E0,-6.50543E-3,9.051965E-3,-5.988324E-3,-9.133523E-3,-1.1935332E-3,-6.920106E-3,1.351141E-3,-8.8443E-3],"split_indices":[5,4,0,4,4,4,4,0,0,0,0,0,0,0,0],"split_type":[0,0,0,0,0,0,0,0,0,0,0,0,0,0,0],"sum_hessian":[1.8234003E2,5.5181606E1,1.2715842E2,6.1916194E0,4.8989986E1,3.4533245E1,9.262517E1,4.732845E0,1.4587748E0,3.5441555E1,1.3548432E1,1.0153227E1,2.4380018E1,8.39816E1,8.643575E0],"tree_param":{"num_deleted":"0","num_feature":"7","num_nodes":"15","size_leaf_vector":"1"}},{"base_weights":[-3.1940037E-1,-5.870651E-1,2.6602289E-2,-2.186651E-1,-7.546387E-1,-5.401348E-1,2.8558248E-1,4.6804277E-3,-3.9367466E-3,-1.0650784E-2,-6.4449725E-3,-2.1331017E-3,-6.8385517E-3,-5.304108E-4,1.1034808E-2],"categories":[],"categories_nodes":[],"categories_segments":[],"categories_sizes":[],"default_left":[0,0,0,0,0,0,0,0,0,0,0,0,0,0,0],"id":20,"left_children":[1,3,5,7,9,11,13,-1,-1,-1,-1,-1,-1,-1,-1],"loss_changes":[1.6796999E1,6.1447487E0,1.1894809E1,4.193932E0,1.7017136E0,1.0488157E0,1.5445429E1,0E0,0E0,0E0,0E0,0E0,0E0,0E0,0E0],"parents":[2147483647,0,0,1,1,2,2,3,3,4,4,5,5,6,6],"right_children":[2,4,6,8,10,12,14,-1,-1,-1,-1,-1,-1,-1,-1],"split_conditions":[1.46011E3,4.2811E2,5.2E1,6.1E1,1E0,2.79E0,3.57E0,4.6804277E-3,-3.9367466E-3,-1.0650784E-2,-6.4449725E-3,-2.1331017E-3,-6.8385517E-3,-5.304108E-4,1.1034808E-2],"split_indices":[6,6,0,0,3,5,5,0,0,0,0,0,0,0,0],"split_type":[0,0,0,0,0,0,0,0,0,0,0,0,0,0,0],"sum_hessian":[1.8019955E2,1.0120867E2,7.899088E1,3.236379E1,6.884488E1,2.4434416E1,5.455647E1,6.2328315E0,2.6130957E1,1.5758519E1,5.308636E1,8.221857E0,1.6212559E1,3.924396E1,1.5312506E1],"tree_param":{"num_deleted":"0","num_feature":"7","num_nodes":"15","size_leaf_vector":"1"}},{"base_weights":[-3.4417918E-1,-6.4442635E-1,4.129763E-2,-3.7765402E-1,-8.1005937E-1,-8.136137E-1,2.4635857E-1,-7.3034954E-3,-1.1603102E-3,-8.6613465E-3,-7.9559465E-4,7.2650453E-3,-9.860225E-3,1.2607853E-3,1.3808293E-2],"categories":[],"categories_nodes":[],"categories_segments":[],"categories_sizes":[],"default_left":[0,0,0,0,0,0,0,0,0,0,0,0,0,0,0],"id":21,"left_children":[1,3,5,7,9,11,13,-1,-1,-1,-1,-1,-1,-1,-1],"loss_changes":[2.1098118E1,4.2189903E0,1.4340195E1,3.7076702E0,2.4833145E0,4.921301E0,8.807341E0,0E0,0E0,0E0,0E0,0E0,0E0,0E0,0E0],"parents":[2147483647,0,0,1,1,2,2,3,3,4,4,5,5,6,6],"right_children":[2,4,6,8,10,12,14,-1,-1,-1,-1,-1,-1,-1,-1],"split_conditions":[1.40611E3,5.4411E2,1E0,2.2E0,1E0,1.53111E3,1E0,-7.3034954E-3,-1.1603102E-3,-8.6613465E-3,-7.9559465E-4,7.2650453E-3,-9.860225E-3,1.2607853E-3,1.3808293E-2],"split_indices":[6,6,3,5,1,6,1,0,0,0,0,0,0,0,0],"split_type":[0,0,0,0,0,0,0,0,0,0,0,0,0,0,0],"sum_hessian":[1.810616E2,1.0140537E2,7.965622E1,4.00998E1,6.1305576E1,1.4836072E1,6.4820145E1,1.6314507E1,2.3785294E1,5.6762634E1,4.542939E0,1.1700685E0,1.3666004E1,5.9611126E1,5.2090178E0],"tree_param":{"num_deleted":"0","num_feature":"7","num_nodes":"15","size_leaf_vector":"1"}},{"base_weights":[-3.0161953E-1,-7.7333534E-1,-1.9311546E-1,-8.199218E-1,2.870281E-3,-2.6791304E-1,8.207019E-1,-9.257829E-3,-5.074965E-3,-6.6612326E-3,-1.5552632E-3,-1.2793464E-3,1.3920958E-2],"categories":[],"categories_nodes":[],"categories_segments":[],"categories_sizes":[],"default_left":[0,0,0,0,0,0,0,0,0,0,0,0,0],"id":22,"left_children":[1,3,5,7,-1,9,11,-1,-1,-1,-1,-1,-1],"loss_changes":[9.070473E0,1.8829403E0,1.1426264E1,5.954304E-1,0E0,6.0894346E0,5.8153524E0,0E0,0E0,0E0,0E0,0E0,0E0],"parents":[2147483647,0,0,1,1,2,2,3,3,5,5,6,6],"right_children":[2,4,6,8,-1,10,12,-1,-1,-1,-1,-1,-1],"split_conditions":[1E0,5.55E0,1E0,3.56E0,2.870281E-3,2.07E0,2.41E0,-9.257829E-3,-5.074965E-3,-6.6612326E-3,-1.5552632E-3,-1.2793464E-3,1.3920958E-2],"split_indices":[3,5,1,5,0,5,5,0,0,0,0,0,0],"split_type":[0,0,0,0,0,0,0,0,0,0,0,0,0],"sum_hessian":[1.7913405E2,3.235316E1,1.467809E2,3.1208775E1,1.1443853E0,1.3738092E2,9.399973E0,2.1844013E1,9.364761E0,2.9154215E1,1.0822671E2,3.8252828E0,5.5746903E0],"tree_param":{"num_deleted":"0","num_feature":"7","num_nodes":"13","size_leaf_vector":"1"}},{"base_weights":[-3.4288004E-1,-7.877618E-1,-2.5192398E-1,6.2921835E-4,-8.360714E-3,-2.943618E-1,3.4913188E-1,-2.396706E-3,-8.590478E-3,-5.543679E-3,6.837813E-3],"categories":[],"categories_nodes":[],"categories_segments":[],"categories_sizes":[],"default_left":[0,0,0,0,0,0,0,0,0,0,0],"id":23,"left_children":[1,3,5,-1,-1,7,9,-1,-1,-1,-1],"loss_changes":[7.021248E0,1.2779217E0,3.9187965E0,0E0,0E0,4.126442E0,3.500495E0,0E0,0E0,0E0,0E0],"parents":[2147483647,0,0,1,1,2,2,5,5,6,6],"right_children":[2,4,6,-1,-1,8,10,-1,-1,-1,-1],"split_conditions":[1E0,8.1E-1,1E0,6.2921835E-4,-8.360714E-3,1.63E0,9.3E-1,-2.396706E-3,-8.590478E-3,-5.543679E-3,6.837813E-3],"split_indices":[3,4,1,0,0,4,4,0,0,0,0],"split_type":[0,0,0,0,0,0,0,0,0,0,0],"sum_hessian":[1.774199E2,2.881582E1,1.4860408E2,1.5322334E0,2.7283588E1,1.392804E2,9.323697E0,1.2828055E2,1.0999848E1,2.3425703E0,6.981127E0],"tree_param":{"num_deleted":"0","num_feature":"7","num_nodes":"11","size_leaf_vector":"1"}},{"base_weights":[-4.0649423E-1,-8.7611395E-1,-3.0432257E-1,-1.6271404E-3,-8.967474E-1,-7.089021E-1,-1.5187481E-1,-9.927582E-3,-6.2901317E-3,-9.853175E-3,-5.320788E-3,2.567605E-3,-4.3679574E-3],"categories":[],"categories_nodes":[],"categories_segments":[],"categories_sizes":[],"default_left":[0,0,0,0,0,0,0,0,0,0,0,0,0],"id":24,"left_children":[1,3,5,-1,7,9,11,-1,-1,-1,-1,-1,-1],"loss_changes":[8.441212E0,3.2359505E-1,9.180049E0,0E0,1.6670227E-1,1.4767342E0,1.2994518E1,0E0,0E0,0E0,0E0,0E0,0E0],"parents":[2147483647,0,0,1,1,2,2,4,4,5,5,6,6],"right_children":[2,4,6,-1,8,10,12,-1,-1,-1,-1,-1,-1],"split_conditions":[1E0,7.9E-1,2.22E0,-1.6271404E-3,3.56E0,1.61E0,1.104E0,-9.927582E-3,-6.2901317E-3,-9.853175E-3,-5.320788E-3,2.567605E-3,-4.3679574E-3],"split_indices":[3,4,5,0,5,5,4,0,0,0,0,0,0],"split_type":[0,0,0,0,0,0,0,0,0,0,0,0,0],"sum_hessian":[1.8048192E2,3.0896221E1,1.4958571E2,1.1182631E0,2.9777958E1,3.993979E1,1.0964591E2,1.992482E1,9.853139E0,1.3798009E1,2.6141779E1,4.5084415E1,6.45615E1],"tree_param":{"num_deleted":"0","num_feature":"7","num_nodes":"13","size_leaf_vector":"1"}},{"base_weights":[-2.9306304E-1,-6.0419667E-1,-1.4398104E-1,1.4860837E-2,-6.7303E-1,-4.4530475E-1,-1.8654356E-2,-8.040398E-3,5.3078635E-3,-5.254294E-3,-8.842963E-3,8.614161E-3,-5.0903223E-3,-2.1557289E-3,3.3288195E-3],"categories":[],"categories_nodes":[],"categories_segments":[],"categories_sizes":[],"default_left":[0,0,0,0,0,0,0,0,0,0,0,0,0,0,0],"id":25,"left_children":[1,3,5,7,9,11,13,-1,-1,-1,-1,-1,-1,-1,-1],"loss_changes":[8.154445E0,2.4492588E0,4.5774813E0,3.2601933E0,1.1424522E0,3.40527E0,6.080848E0,0E0,0E0,0E0,0E0,0E0,0E0,0E0,0E0],"parents":[2147483647,0,0,1,1,2,2,3,3,4,4,5,5,6,6],"right_children":[2,4,6,8,10,12,14,-1,-1,-1,-1,-1,-1,-1,-1],"split_conditions":[2.39E0,7.7E-1,5.3E1,5.7E1,1.24E0,2.47E0,3.57E0,-8.040398E-3,5.3078635E-3,-5.254294E-3,-8.842963E-3,8.614161E-3,-5.0903223E-3,-2.1557289E-3,3.3288195E-3],"split_indices":[5,4,0,0,4,5,5,0,0,0,0,0,0,0,0],"split_type":[0,0,0,0,0,0,0,0,0,0,0,0,0,0,0],"sum_hessian":[1.766768E2,5.6243675E1,1.2043313E2,5.7064495E0,5.0537228E1,3.4626724E1,8.58064E1,1.9897635E0,3.716686E0,3.1804287E1,1.873294E1,1.0281202E0,3.3598606E1,5.524617E1,3.0560232E1],"tree_param":{"num_deleted":"0","num_feature":"7","num_nodes":"15","size_leaf_vector":"1"}},{"base_weights":[-2.8068566E-1,-7.8872347E-1,-1.6792771E-1,3.0944215E-3,-8.3756155E-1,-6.281771E-2,-6.431754E-1,-9.526891E-3,-5.2336287E-3,-4.961084E-3,6.776879E-4,-9.297275E-3,-3.9322833E-3],"categories":[],"categories_nodes":[],"categories_segments":[],"categories_sizes":[],"default_left":[0,0,0,0,0,0,0,0,0,0,0,0,0],"id":26,"left_children":[1,3,5,-1,7,9,11,-1,-1,-1,-1,-1,-1],"loss_changes":[1.0233393E1,2.0074024E0,7.4203563E0,0E0,6.4006233E-1,7.0165615E0,1.5640488E0,0E0,0E0,0E0,0E0,0E0,0E0],"parents":[2147483647,0,0,1,1,2,2,4,4,5,5,6,6],"right_children":[2,4,6,-1,8,10,12,-1,-1,-1,-1,-1,-1],"split_conditions":[1E0,8E-1,1.43E0,3.0944215E-3,3.56E0,2.07E0,2.67E0,-9.526891E-3,-5.2336287E-3,-4.961084E-3,6.776879E-4,-9.297275E-3,-3.9322833E-3],"split_indices":[3,4,4,0,5,5,5,0,0,0,0,0,0],"split_type":[0,0,0,0,0,0,0,0,0,0,0,0,0],"sum_hessian":[1.7995117E2,3.1596481E1,1.4835469E2,1.118137E0,3.0478344E1,1.2241293E2,2.5941755E1,2.0818123E1,9.660221E0,2.7700987E1,9.471195E1,1.0818815E1,1.512294E1],"tree_param":{"num_deleted":"0","num_feature":"7","num_nodes":"13","size_leaf_vector":"1"}},{"base_weights":[-3.3090875E-1,-8.2990605E-1,-2.0251931E-1,-5.154362E-1,-1.0066114E-2,-6.062286E-1,-5.141129E-2,-7.906804E-3,9.341254E-4,-6.8794964E-3,8.008173E-3,-1.2593865E-3,9.267983E-3],"categories":[],"categories_nodes":[],"categories_segments":[],"categories_sizes":[],"default_left":[0,0,0,0,0,0,0,0,0,0,0,0,0],"id":27,"left_children":[1,3,5,7,-1,9,11,-1,-1,-1,-1,-1,-1],"loss_changes":[1.1209276E1,1.4826813E0,8.666063E0,2.5888705E0,0E0,5.0050907E0,7.759326E0,0E0,0E0,0E0,0E0,0E0,0E0],"parents":[2147483647,0,0,1,1,2,2,3,3,5,5,6,6],"right_children":[2,4,6,8,-1,10,12,-1,-1,-1,-1,-1,-1],"split_conditions":[2.07E0,6.1E1,5.2E1,5.4E1,-1.0066114E-2,5.72E0,1E0,-7.906804E-3,9.341254E-4,-6.8794964E-3,8.008173E-3,-1.2593865E-3,9.267983E-3],"split_indices":[5,0,0,0,0,5,1,0,0,0,0,0,0],"split_type":[0,0,0,0,0,0,0,0,0,0,0,0,0],"sum_hessian":[1.7658795E2,3.501909E1,1.4156886E2,1.4007635E1,2.1011454E1,3.7736874E1,1.0383199E2,9.440974E0,4.566661E0,3.6148445E1,1.5884289E0,9.72909E1,6.541096E0],"tree_param":{"num_deleted":"0","num_feature":"7","num_nodes":"13","size_leaf_vector":"1"}},{"base_weights":[-2.4512598E-1,-3.7037638E-1,1.1145253E-1,-2.8009832E-1,-8.004875E-1,-4.4698316E-1,3.4682062E-1,-6.1194333E-3,-1.7264944E-3,-1.0146316E-2,-5.1154247E-3,3.381127E-3,-8.793191E-3,9.350944E-3,-1.1270288E-4],"categories":[],"categories_nodes":[],"categories_segments":[],"categories_sizes":[],"default_left":[0,0,0,0,0,0,0,0,0,0,0,0,0,0,0],"id":28,"left_children":[1,3,5,7,9,11,13,-1,-1,-1,-1,-1,-1,-1,-1],"loss_changes":[8.198434E0,5.0331955E0,6.4964414E0,3.939436E0,9.010639E-1,5.301221E0,7.279032E0,0E0,0E0,0E0,0E0,0E0,0E0,0E0,0E0],"parents":[2147483647,0,0,1,1,2,2,3,3,4,4,5,5,6,6],"right_children":[2,4,6,8,10,12,14,-1,-1,-1,-1,-1,-1,-1,-1],"split_conditions":[3.57E0,1.43E0,5.1E1,1E0,2.57E0,4.2E1,3.98E0,-6.1194333E-3,-1.7264944E-3,-1.0146316E-2,-5.1154247E-3,3.381127E-3,-8.793191E-3,9.350944E-3,-1.1270288E-4],"split_indices":[5,4,0,2,5,0,5,0,0,0,0,0,0,0,0],"split_type":[0,0,0,0,0,0,0,0,0,0,0,0,0,0,0],"sum_hessian":[1.8164352E2,1.3439703E2,4.7246483E1,1.1244637E2,2.195067E1,1.37423115E1,3.350417E1,2.6355345E1,8.609103E1,1.1164722E1,1.0785949E1,4.9575825E0,8.784729E0,1.2067794E1,2.1436377E1],"tree_param":{"num_deleted":"0","num_feature":"7","num_nodes":"15","size_leaf_vector":"1"}},{"base_weights":[-2.3660056E-1,-7.0267427E-1,-8.493271E-2,-7.59208E-1,-6.059757E-2,-6.288849E-1,4.0717993E-2,-7.866068E-3,-2.1634612E-3,-4.6982183E-3,4.516796E-3,-6.848312E-3,2.9677062E-3,-2.093045E-4,8.47395E-3],"categories":[],"categories_nodes":[],"categories_segments":[],"categories_sizes":[],"default_left":[0,0,0,0,0,0,0,0,0,0,0,0,0,0,0],"id":29,"left_children":[1,3,5,7,9,11,13,-1,-1,-1,-1,-1,-1,-1,-1],"loss_changes":[1.2376622E1,1.5169239E0,9.1756315E0,4.171238E-1,1.1704684E0,1.50735E0,5.4727564E0,0E0,0E0,0E0,0E0,0E0,0E0,0E0,0E0],"parents":[2147483647,0,0,1,1,2,2,3,3,4,4,5,5,6,6],"right_children":[2,4,6,8,10,12,14,-1,-1,-1,-1,-1,-1,-1,-1],"split_conditions":[2.19E0,1E0,1E0,8.4E1,5.4E1,5.39E0,1E0,-7.866068E-3,-2.1634612E-3,-4.6982183E-3,4.516796E-3,-6.848312E-3,2.9677062E-3,-2.093045E-4,8.47395E-3],"split_indices":[5,1,3,0,0,5,1,0,0,0,0,0,0,0,0],"split_type":[0,0,0,0,0,0,0,0,0,0,0,0,0,0,0],"sum_hessian":[1.7493126E2,4.2057137E1,1.3287411E2,3.848608E1,3.5710576E0,2.418223E1,1.0869189E2,3.620955E1,2.2765315E0,2.031279E0,1.5397784E0,2.3049305E1,1.1329255E0,1.0188E2,6.811891E0],"tree_param":{"num_deleted":"0","num_feature":"7","num_nodes":"15","size_leaf_vector":"1"}},{"base_weights":[-3.3834487E-1,-6.019678E-1,-4.152882E-2,-2.53289E-1,-7.741248E-1,-7.3655546E-1,1.1435925E-1,2.6958385E-3,-5.955281E-3,3.3974703E-3,-7.992119E-3,-1.6470526E-3,-9.212943E-3,-2.631934E-3,2.8316882E-3],"categories":[],"categories_nodes":[],"categories_segments":[],"categories_sizes":[],"default_left":[0,0,0,0,0,0,0,0,0,0,0,0,0,0,0],"id":30,"left_children":[1,3,5,7,9,11,13,-1,-1,-1,-1,-1,-1,-1,-1],"loss_changes":[1.393491E1,5.471279E0,9.293063E0,6.0109587E0,2.0241394E0,1.5074244E0,4.55436E0,0E0,0E0,0E0,0E0,0E0,0E0,0E0,0E0],"parents":[2147483647,0,0,1,1,2,2,3,3,4,4,5,5,6,6],"right_children":[2,4,6,8,10,12,14,-1,-1,-1,-1,-1,-1,-1,-1],"split_conditions":[1.34011E3,4.2811E2,1E0,6.9E1,6.9E-1,4.6E1,5.4E1,2.6958385E-3,-5.955281E-3,3.3974703E-3,-7.992119E-3,-1.6470526E-3,-9.212943E-3,-2.631934E-3,2.8316882E-3],"split_indices":[6,6,3,0,4,0,0,0,0,0,0,0,0,0,0],"split_type":[0,0,0,0,0,0,0,0,0,0,0,0,0,0,0],"sum_hessian":[1.7740704E2,9.341267E1,8.399437E1,3.1693457E1,6.171921E1,1.4705414E1,6.9288956E1,1.2621944E1,1.9071512E1,1.0831773E0,6.0636036E1,4.052537E0,1.0652877E1,2.1235464E1,4.8053493E1],"tree_param":{"num_deleted":"0","num_feature":"7","num_nodes":"15","size_leaf_vector":"1"}},{"base_weights":[-2.9202434E-1,-6.466844E-1,1.5136716E-1,-3.278722E-1,-7.964975E-1,-4.640715E-1,3.5786796E-1,-2.5032807E-4,-7.519265E-3,-8.571992E-3,-3.5354665E-3,-2.482329E-3,-9.888966E-3,4.781846E-3,-8.397283E-3],"categories":[],"categories_nodes":[],"categories_segments":[],"categories_sizes":[],"default_left":[0,0,0,0,0,0,0,0,0,0,0,0,0,0,0],"id":31,"left_children":[1,3,5,7,9,11,13,-1,-1,-1,-1,-1,-1,-1,-1],"loss_changes":[2.7942183E1,4.4466133E0,1.0269623E1,4.2460213E0,1.4811211E0,2.0663657E0,9.060158E0,0E0,0E0,0E0,0E0,0E0,0E0,0E0,0E0],"parents":[2147483647,0,0,1,1,2,2,3,3,4,4,5,5,6,6],"right_children":[2,4,6,8,10,12,14,-1,-1,-1,-1,-1,-1,-1,-1],"split_conditions":[1.41811E3,4.2811E2,2.41E0,1.25E0,1.30011E3,1.27E0,2.44211E3,-2.5032807E-4,-7.519265E-3,-8.571992E-3,-3.5354665E-3,-2.482329E-3,-9.888966E-3,4.781846E-3,-8.397283E-3],"split_indices":[6,6,5,4,6,4,6,0,0,0,0,0,0,0,0],"split_type":[0,0,0,0,0,0,0,0,0,0,0,0,0,0,0],"sum_hessian":[1.7606659E2,9.756656E1,7.850004E1,3.221003E1,6.535652E1,1.9408665E1,5.909137E1,1.9408464E1,1.2801567E1,5.6657078E1,8.699448E0,1.4796475E1,4.6121902E0,5.4242596E1,4.848777E0],"tree_param":{"num_deleted":"0","num_feature":"7","num_nodes":"15","size_leaf_vector":"1"}},{"base_weights":[-2.6688737E-1,-5.3788346E-1,6.308944E-2,-1.4982235E-1,-7.2749287E-1,1.4508125E-2,8.193929E-3,-5.3226603E-3,-2.6315893E-5,-7.7374526E-3,-1.0425422E-3,-5.209574E-3,1.170943E-3],"categories":[],"categories_nodes":[],"categories_segments":[],"categories_sizes":[],"default_left":[0,0,0,0,0,0,0,0,0,0,0,0,0],"id":32,"left_children":[1,3,5,7,9,-1,11,-1,-1,-1,-1,-1,-1],"loss_changes":[1.5916752E1,7.074524E0,6.1576867E0,1.8733591E0,1.8023949E0,0E0,4.608227E0,0E0,0E0,0E0,0E0,0E0,0E0],"parents":[2147483647,0,0,1,1,2,2,3,3,4,4,6,6],"right_children":[2,4,6,8,10,-1,12,-1,-1,-1,-1,-1,-1],"split_conditions":[1.41811E3,4.2811E2,1.45011E3,1.1511E2,1E0,1.4508125E-2,1E0,-5.3226603E-3,-2.6315893E-5,-7.7374526E-3,-1.0425422E-3,-5.209574E-3,1.170943E-3],"split_indices":[6,6,6,6,1,0,3,0,0,0,0,0,0],"split_type":[0,0,0,0,0,0,0,0,0,0,0,0,0],"sum_hessian":[1.7661562E2,9.662856E1,7.9987045E1,3.230409E1,6.432447E1,2.0760946E0,7.791095E1,8.250575E0,2.4053514E1,5.965575E1,4.668722E0,1.2651757E1,6.525919E1],"tree_param":{"num_deleted":"0","num_feature":"7","num_nodes":"13","size_leaf_vector":"1"}},{"base_weights":[-3.549349E-1,-6.395573E-1,-9.620436E-3,-3.0212986E-1,-7.7408296E-1,-6.3185674E-1,1.2686998E-1,8.133156E-4,-8.494475E-3,-1.00834025E-2,-6.7724264E-3,7.436464E-3,-8.054719E-3,2.50549E-3,-4.985095E-3],"categories":[],"categories_nodes":[],"categories_segments":[],"categories_sizes":[],"default_left":[0,0,0,0,0,0,0,0,0,0,0,0,0,0,0],"id":33,"left_children":[1,3,5,7,9,11,13,-1,-1,-1,-1,-1,-1,-1,-1],"loss_changes":[1.7197506E1,4.1209526E0,6.883253E0,6.1525364E0,8.5860825E-1,4.0801587E0,5.2704225E0,0E0,0E0,0E0,0E0,0E0,0E0,0E0,0E0],"parents":[2147483647,0,0,1,1,2,2,3,3,4,4,5,5,6,6],"right_children":[2,4,6,8,10,12,14,-1,-1,-1,-1,-1,-1,-1,-1],"split_conditions":[1.41811E3,3.8911E2,1E0,1.25E0,1E0,1.53111E3,2.33711E3,8.133156E-4,-8.494475E-3,-1.00834025E-2,-6.7724264E-3,7.436464E-3,-8.054719E-3,2.50549E-3,-4.985095E-3],"split_indices":[6,6,3,4,2,6,6,0,0,0,0,0,0,0,0],"split_type":[0,0,0,0,0,0,0,0,0,0,0,0,0,0,0],"sum_hessian":[1.7403986E2,9.493687E1,7.910299E1,2.7986038E1,6.695083E1,1.3577264E1,6.552573E1,1.695702E1,1.1029019E1,1.682899E1,5.012184E1,1.1536809E0,1.2423583E1,5.5206997E1,1.0318726E1],"tree_param":{"num_deleted":"0","num_feature":"7","num_nodes":"15","size_leaf_vector":"1"}},{"base_weights":[-3.6505172E-1,-6.600021E-1,-1.4913015E-2,-2.596175E-1,-8.3247364E-1,-5.837759E-1,1.6467059E-1,-8.110588E-3,-4.7835827E-4,-8.666818E-3,-3.7699395E-3,-7.4958694E-3,-1.8000439E-3,7.246382E-3,7.661609E-4],"categories":[],"categories_nodes":[],"categories_segments":[],"categories_sizes":[],"default_left":[0,0,0,0,0,0,0,0,0,0,0,0,0,0,0],"id":34,"left_children":[1,3,5,7,9,11,13,-1,-1,-1,-1,-1,-1,-1,-1],"loss_changes":[1.7934908E1,6.295021E0,8.316836E0,3.4462082E0,6.930237E-1,1.1724772E0,2.9986959E0,0E0,0E0,0E0,0E0,0E0,0E0,0E0,0E0],"parents":[2147483647,0,0,1,1,2,2,3,3,4,4,5,5,6,6],"right_children":[2,4,6,8,10,12,14,-1,-1,-1,-1,-1,-1,-1,-1],"split_conditions":[1.40611E3,4.2811E2,2.38E0,1.1511E2,1.34011E3,2.05711E3,1.54811E3,-8.110588E-3,-4.7835827E-4,-8.666818E-3,-3.7699395E-3,-7.4958694E-3,-1.8000439E-3,7.246382E-3,7.661609E-4],"split_indices":[6,6,5,6,6,6,6,0,0,0,0,0,0,0,0],"split_type":[0,0,0,0,0,0,0,0,0,0,0,0,0,0,0],"sum_hessian":[1.7275945E2,9.32893E1,7.947015E1,2.8841167E1,6.444813E1,1.852817E1,6.0941982E1,7.2177515E0,2.1623417E1,5.9106247E1,5.3418803E0,1.25273E1,6.00087E0,7.298565E0,5.3643417E1],"tree_param":{"num_deleted":"0","num_feature":"7","num_nodes":"15","size_leaf_vector":"1"}},{"base_weights":[-3.1497842E-1,-6.4730406E-1,5.2584346E-2,-3.0665985E-1,-8.1471545E-1,-5.156864E-1,3.3351344E-1,1.9287496E-3,-4.3857745E-3,-8.758819E-3,-1.01535996E-4,2.766028E-3,-6.057484E-3,1.2048071E-2,1.7740924E-3],"categories":[],"categories_nodes":[],"categories_segments":[],"categories_sizes":[],"default_left":[0,0,0,0,0,0,0,0,0,0,0,0,0,0,0],"id":35,"left_children":[1,3,5,7,9,11,13,-1,-1,-1,-1,-1,-1,-1,-1],"loss_changes":[2.1048655E1,4.90691E0,1.3360709E1,2.1537695E0,2.9450798E0,2.1457028E0,7.3881135E0,0E0,0E0,0E0,0E0,0E0,0E0,0E0,0E0],"parents":[2147483647,0,0,1,1,2,2,3,3,4,4,5,5,6,6],"right_children":[2,4,6,8,10,12,14,-1,-1,-1,-1,-1,-1,-1,-1],"split_conditions":[1.34011E3,4.2811E2,5.3E1,6.3E1,1E0,1.45011E3,5.7E1,1.9287496E-3,-4.3857745E-3,-8.758819E-3,-1.01535996E-4,2.766028E-3,-6.057484E-3,1.2048071E-2,1.7740924E-3],"split_indices":[6,6,0,0,1,6,0,0,0,0,0,0,0,0,0],"split_type":[0,0,0,0,0,0,0,0,0,0,0,0,0,0,0],"sum_hessian":[1.7103873E2,8.94253E1,8.1613434E1,3.0399996E1,5.9025303E1,2.6722603E1,5.4890827E1,6.2543693E0,2.4145626E1,5.47726E1,4.252702E0,2.5161767E0,2.4206427E1,7.319448E0,4.757138E1],"tree_param":{"num_deleted":"0","num_feature":"7","num_nodes":"15","size_leaf_vector":"1"}},{"base_weights":[-2.534018E-1,-5.1561195E-1,5.793611E-2,-5.3626403E-2,-7.3672163E-1,-3.0187926E-1,3.222607E-1,3.7829864E-3,-7.213191E-3,-1.0133091E-2,-6.0373764E-3,3.4099799E-3,-4.1667703E-3,9.7501995E-3,1.0381616E-3],"categories":[],"categories_nodes":[],"categories_segments":[],"categories_sizes":[],"default_left":[0,0,0,0,0,0,0,0,0,0,0,0,0,0,0],"id":36,"left_children":[1,3,5,7,9,11,13,-1,-1,-1,-1,-1,-1,-1,-1],"loss_changes":[1.4534414E1,9.822731E0,7.908159E0,9.596522E0,1.7870331E0,2.7470362E0,6.7188425E0,0E0,0E0,0E0,0E0,0E0,0E0,0E0,0E0],"parents":[2147483647,0,0,1,1,2,2,3,3,4,4,5,5,6,6],"right_children":[2,4,6,8,10,12,14,-1,-1,-1,-1,-1,-1,-1,-1],"split_conditions":[1.41811E3,4.2811E2,2.9E0,1.25E0,2.3E0,1.54211E3,1.73511E3,3.7829864E-3,-7.213191E-3,-1.0133091E-2,-6.0373764E-3,3.4099799E-3,-4.1667703E-3,9.7501995E-3,1.0381616E-3],"split_indices":[6,6,5,4,5,6,6,0,0,0,0,0,0,0,0],"split_type":[0,0,0,0,0,0,0,0,0,0,0,0,0,0,0],"sum_hessian":[1.7667343E2,9.554711E1,8.112633E1,3.1329641E1,6.421747E1,3.4297E1,4.6829323E1,1.9286673E1,1.204297E1,1.8701426E1,4.5516045E1,4.8979044E0,2.9399096E1,1.08735E1,3.5955822E1],"tree_param":{"num_deleted":"0","num_feature":"7","num_nodes":"15","size_leaf_vector":"1"}},{"base_weights":[-2.7192688E-1,-8.9957285E-1,-1.4397666E-1,-2.083412E-3,-9.226535E-3,-5.559685E-1,4.511099E-3,-6.544073E-3,-3.049063E-3,2.1493612E-3,-1.4894631E-3],"categories":[],"categories_nodes":[],"categories_segments":[],"categories_sizes":[],"default_left":[0,0,0,0,0,0,0,0,0,0,0],"id":37,"left_children":[1,3,5,-1,-1,7,9,-1,-1,-1,-1],"loss_changes":[1.3655356E1,2.6846695E-1,8.798046E0,0E0,0E0,7.420387E-1,3.4767377E0,0E0,0E0,0E0,0E0],"parents":[2147483647,0,0,1,1,2,2,5,5,6,6],"right_children":[2,4,6,-1,-1,8,10,-1,-1,-1,-1],"split_conditions":[1E0,8.1E-1,2.22E0,-2.083412E-3,-9.226535E-3,1.93E0,1.104E0,-6.544073E-3,-3.049063E-3,2.1493612E-3,-1.4894631E-3],"split_indices":[3,4,5,0,0,5,4,0,0,0,0],"split_type":[0,0,0,0,0,0,0,0,0,0,0],"sum_hessian":[1.7065123E2,2.787632E1,1.427749E2,1.2247117E0,2.665161E1,3.7098305E1,1.056766E2,2.5495312E1,1.1602994E1,4.439725E1,6.127935E1],"tree_param":{"num_deleted":"0","num_feature":"7","num_nodes":"11","size_leaf_vector":"1"}},{"base_weights":[-1.8391474E-1,-5.347931E-1,1.748512E-1,-1.9053225E-1,-7.135387E-1,-3.044114E-1,4.0575966E-1,-6.0957167E-3,-2.7823076E-4,-7.714834E-3,6.7488407E-4,4.277752E-3,-4.388991E-3,8.142203E-3,-7.92842E-5],"categories":[],"categories_nodes":[],"categories_segments":[],"categories_sizes":[],"default_left":[0,0,0,0,0,0,0,0,0,0,0,0,0,0,0],"id":38,"left_children":[1,3,5,7,9,11,13,-1,-1,-1,-1,-1,-1,-1,-1],"loss_changes":[2.2177876E1,5.3369217E0,9.806369E0,2.148528E0,2.6850128E0,3.0453851E0,1.0056429E1,0E0,0E0,0E0,0E0,0E0,0E0,0E0,0E0],"parents":[2147483647,0,0,1,1,2,2,3,3,4,4,5,5,6,6],"right_children":[2,4,6,8,10,12,14,-1,-1,-1,-1,-1,-1,-1,-1],"split_conditions":[1.34011E3,4.2811E2,5.3E1,1.1511E2,1E0,1.53111E3,6.7E1,-6.0957167E-3,-2.7823076E-4,-7.714834E-3,6.7488407E-4,4.277752E-3,-4.388991E-3,8.142203E-3,-7.92842E-5],"split_indices":[6,6,0,6,1,6,0,0,0,0,0,0,0,0,0],"split_type":[0,0,0,0,0,0,0,0,0,0,0,0,0,0,0],"sum_hessian":[1.7443538E2,8.793905E1,8.649633E1,3.0760612E1,5.7178436E1,2.8020336E1,5.847599E1,7.835294E0,2.292532E1,5.3240707E1,3.9377275E0,4.0096993E0,2.4010637E1,2.893672E1,2.9539268E1],"tree_param":{"num_deleted":"0","num_feature":"7","num_nodes":"15","size_leaf_vector":"1"}},{"base_weights":[-3.2692048E-1,-6.3945377E-1,3.132282E-2,-3.1207198E-1,-8.584092E-1,-5.1114154E-1,2.5406468E-1,-5.024625E-4,-6.8612834E-3,-1.0409031E-2,-6.253946E-3,6.2973034E-3,-6.289153E-3,5.572988E-3,-1.2669521E-3],"categories":[],"categories_nodes":[],"categories_segments":[],"categories_sizes":[],"default_left":[0,0,0,0,0,0,0,0,0,0,0,0,0,0,0],"id":39,"left_children":[1,3,5,7,9,11,13,-1,-1,-1,-1,-1,-1,-1,-1],"loss_changes":[1.9933472E1,6.544445E0,1.025803E1,3.849586E0,1.7463799E0,3.7190943E0,7.008612E0,0E0,0E0,0E0,0E0,0E0,0E0,0E0,0E0],"parents":[2147483647,0,0,1,1,2,2,3,3,4,4,5,5,6,6],"right_children":[2,4,6,8,10,12,14,-1,-1,-1,-1,-1,-1,-1,-1],"split_conditions":[1.41811E3,5.4411E2,5.2E1,1.25E0,6E1,1.51511E3,6.7E1,-5.024625E-4,-6.8612834E-3,-1.0409031E-2,-6.253946E-3,6.2973034E-3,-6.289153E-3,5.572988E-3,-1.2669521E-3],"split_indices":[6,6,0,4,0,6,0,0,0,0,0,0,0,0,0],"split_type":[0,0,0,0,0,0,0,0,0,0,0,0,0,0,0],"sum_hessian":[1.7685739E2,9.403543E1,8.282196E1,3.865854E1,5.5376892E1,2.3731533E1,5.9090424E1,2.3408073E1,1.5250464E1,2.9110687E1,2.6266207E1,1.813851E0,2.1917683E1,3.2635845E1,2.6454578E1],"tree_param":{"num_deleted":"0","num_feature":"7","num_nodes":"15","size_leaf_vector":"1"}},{"base_weights":[-2.680806E-1,-6.8989706E-1,-1.4062642E-1,-7.5704235E-1,3.8518388E-2,-5.293262E-1,-1.2252938E-3,6.187731E-4,-8.164759E-3,-4.4040186E-3,6.2368237E-3,-1.847472E-3,-6.6233794E-3,1.4380687E-3,-4.862137E-3],"categories":[],"categories_nodes":[],"categories_segments":[],"categories_sizes":[],"default_left":[0,0,0,0,0,0,0,0,0,0,0,0,0,0,0],"id":40,"left_children":[1,3,5,7,9,11,13,-1,-1,-1,-1,-1,-1,-1,-1],"loss_changes":[8.936433E0,1.923584E0,7.059288E0,1.7789612E0,1.4574964E0,1.4538622E0,6.885909E0,0E0,0E0,0E0,0E0,0E0,0E0,0E0,0E0],"parents":[2147483647,0,0,1,1,2,2,3,3,4,4,5,5,6,6],"right_children":[2,4,6,8,10,12,14,-1,-1,-1,-1,-1,-1,-1,-1],"split_conditions":[2.15E0,1E0,1E0,7.1E-1,1.14E0,1.04E0,1.37E0,6.187731E-4,-8.164759E-3,-4.4040186E-3,6.2368237E-3,-1.847472E-3,-6.6233794E-3,1.4380687E-3,-4.862137E-3],"split_indices":[5,1,2,4,4,4,4,0,0,0,0,0,0,0,0],"split_type":[0,0,0,0,0,0,0,0,0,0,0,0,0,0,0],"sum_hessian":[1.6702585E2,3.773313E1,1.2929271E2,3.4512474E1,3.2206557E0,3.3390633E1,9.5902084E1,2.3324957E0,3.2179977E1,1.9071552E0,1.3135004E0,9.96482E0,2.3425814E1,7.4366745E1,2.1535336E1],"tree_param":{"num_deleted":"0","num_feature":"7","num_nodes":"15","size_leaf_vector":"1"}},{"base_weights":[-2.9608607E-1,-6.083795E-1,3.4035336E-2,-3.552469E-1,-7.9523915E-1,-7.2431374E-1,2.010396E-1,-4.1452795E-3,4.5059435E-3,-8.7140845E-3,1.2097987E-3,-9.248601E-3,-4.3234862E-3,3.078136E-3,-8.800525E-3],"categories":[],"categories_nodes":[],"categories_segments":[],"categories_sizes":[],"default_left":[0,0,0,0,0,0,0,0,0,0,0,0,0,0,0],"id":41,"left_children":[1,3,5,7,9,11,13,-1,-1,-1,-1,-1,-1,-1,-1],"loss_changes":[1.7768543E1,3.904377E0,1.0864262E1,2.0689478E0,3.6030102E0,5.0721264E-1,8.367564E0,0E0,0E0,0E0,0E0,0E0,0E0,0E0,0E0],"parents":[2147483647,0,0,1,1,2,2,3,3,4,4,5,5,6,6],"right_children":[2,4,6,8,10,12,14,-1,-1,-1,-1,-1,-1,-1,-1],"split_conditions":[1.34011E3,5.4411E2,1E0,5.1811E2,1E0,1.93111E3,2.43511E3,-4.1452795E-3,4.5059435E-3,-8.7140845E-3,1.2097987E-3,-9.248601E-3,-4.3234862E-3,3.078136E-3,-8.800525E-3],"split_indices":[6,6,3,6,1,6,6,0,0,0,0,0,0,0,0],"split_type":[0,0,0,0,0,0,0,0,0,0,0,0,0,0,0],"sum_hessian":[1.7115076E2,8.751708E1,8.3633675E1,3.839959E1,4.9117496E1,1.4491623E1,6.914205E1,3.6220642E1,2.1789477E0,4.539271E1,3.7247858E0,7.3057237E0,7.1858997E0,6.357805E1,5.564006E0],"tree_param":{"num_deleted":"0","num_feature":"7","num_nodes":"15","size_leaf_vector":"1"}},{"base_weights":[-2.5918004E-1,-4.2656782E-1,1.918269E-1,-7.8610766E-1,-2.9107338E-1,-5.0122035E-1,5.8970106E-1,-8.771682E-3,7.259019E-4,-2.04291E-3,-6.573316E-3,-3.6030103E-4,-9.5011955E-3,1.1319863E-2,-1.1939696E-3],"categories":[],"categories_nodes":[],"categories_segments":[],"categories_sizes":[],"default_left":[0,0,0,0,0,0,0,0,0,0,0,0,0,0,0],"id":42,"left_children":[1,3,5,7,9,11,13,-1,-1,-1,-1,-1,-1,-1,-1],"loss_changes":[1.2812363E1,5.7776585E0,1.3072315E1,2.6565094E0,2.762494E0,3.6075797E0,1.1631014E1,0E0,0E0,0E0,0E0,0E0,0E0,0E0,0E0],"parents":[2147483647,0,0,1,1,2,2,3,3,4,4,5,5,6,6],"right_children":[2,4,6,8,10,12,14,-1,-1,-1,-1,-1,-1,-1,-1],"split_conditions":[3.6E0,2.07E0,5.3E1,1E0,1.43E0,1.15E0,4.31E0,-8.771682E-3,7.259019E-4,-2.04291E-3,-6.573316E-3,-3.6030103E-4,-9.5011955E-3,1.1319863E-2,-1.1939696E-3],"split_indices":[5,5,0,1,4,4,5,0,0,0,0,0,0,0,0],"split_type":[0,0,0,0,0,0,0,0,0,0,0,0,0,0,0],"sum_hessian":[1.6763187E2,1.2229661E2,4.533527E1,3.2159184E1,9.013742E1,1.6439667E1,2.8895601E1,2.9056389E1,3.102795E0,7.413049E1,1.600693E1,8.603844E0,7.835824E0,1.6035795E1,1.2859806E1],"tree_param":{"num_deleted":"0","num_feature":"7","num_nodes":"15","size_leaf_vector":"1"}},{"base_weights":[-2.592471E-1,-7.7354205E-1,-1.0312114E-1,-9.7771454E-1,-6.1332804E-1,-5.011691E-1,2.3288101E-2,-1.3842594E-3,-1.0316495E-2,-4.398818E-3,-8.471006E-3,-5.7266387E-3,7.6669496E-3,-1.8792829E-3,4.7808597E-3],"categories":[],"categories_nodes":[],"categories_segments":[],"categories_sizes":[],"default_left":[0,0,0,0,0,0,0,0,0,0,0,0,0,0,0],"id":43,"left_children":[1,3,5,7,9,11,13,-1,-1,-1,-1,-1,-1,-1,-1],"loss_changes":[1.3641545E1,6.970787E-1,6.6658297E0,5.699949E-1,6.368027E-1,3.3323984E0,9.823267E0,0E0,0E0,0E0,0E0,0E0,0E0,0E0,0E0],"parents":[2147483647,0,0,1,1,2,2,3,3,4,4,5,5,6,6],"right_children":[2,4,6,8,10,12,14,-1,-1,-1,-1,-1,-1,-1,-1],"split_conditions":[2.15E0,1.62E0,5.1E1,4.2E1,7.2E1,6.09E0,3.58E0,-1.3842594E-3,-1.0316495E-2,-4.398818E-3,-8.471006E-3,-5.7266387E-3,7.6669496E-3,-1.8792829E-3,4.7808597E-3],"split_indices":[5,5,0,0,0,5,5,0,0,0,0,0,0,0,0],"split_type":[0,0,0,0,0,0,0,0,0,0,0,0,0,0,0],"sum_hessian":[1.6988675E2,3.8641865E1,1.3124489E2,1.4746615E1,2.3895248E1,3.0919218E1,1.0032567E2,1.1057916E0,1.3640823E1,1.5371854E1,8.523395E0,2.978781E1,1.1314095E0,6.890959E1,3.1416077E1],"tree_param":{"num_deleted":"0","num_feature":"7","num_nodes":"15","size_leaf_vector":"1"}},{"base_weights":[-2.0261875E-1,-6.133389E-1,-5.9825305E-2,-4.8265105E-1,-9.149359E-1,2.632825E-2,-4.735466E-1,-5.669349E-3,-3.132034E-4,-1.0525177E-2,-2.7555008E-3,-4.212961E-3,1.7656256E-3,-5.266266E-3,2.585689E-3],"categories":[],"categories_nodes":[],"categories_segments":[],"categories_sizes":[],"default_left":[0,0,0,0,0,0,0,0,0,0,0,0,0,0,0],"id":44,"left_children":[1,3,5,7,9,11,13,-1,-1,-1,-1,-1,-1,-1,-1],"loss_changes":[1.0059053E1,1.3045025E0,4.6048098E0,1.2384701E0,7.898989E-1,7.3091393E0,1.0011458E0,0E0,0E0,0E0,0E0,0E0,0E0,0E0,0E0],"parents":[2147483647,0,0,1,1,2,2,3,3,4,4,5,5,6,6],"right_children":[2,4,6,8,10,12,14,-1,-1,-1,-1,-1,-1,-1,-1],"split_conditions":[2.22E0,1.3E0,1.43E0,1.18E0,7.8E1,5.1E1,1E0,-5.669349E-3,-3.132034E-4,-1.0525177E-2,-2.7555008E-3,-4.212961E-3,1.7656256E-3,-5.266266E-3,2.585689E-3],"split_indices":[5,4,4,4,0,0,1,0,0,0,0,0,0,0,0],"split_type":[0,0,0,0,0,0,0,0,0,0,0,0,0,0,0],"sum_hessian":[1.7114095E2,4.3300224E1,1.2784073E2,3.2023945E1,1.12762785E1,1.0658233E2,2.1258402E1,2.676885E1,5.2550936E0,8.747803E0,2.528476E0,2.6329401E1,8.025293E1,2.0083017E1,1.1753839E0],"tree_param":{"num_deleted":"0","num_feature":"7","num_nodes":"15","size_leaf_vector":"1"}},{"base_weights":[-2.4545063E-1,-6.4621025E-1,-9.788507E-2,-1.0135166E-2,-5.5708146E-1,-6.3518655E-1,1.944018E-2,-2.6187778E-3,-7.2149765E-3,-7.012545E-3,3.4805306E-3,-4.3729163E-4,7.6118335E-3],"categories":[],"categories_nodes":[],"categories_segments":[],"categories_sizes":[],"default_left":[0,0,0,0,0,0,0,0,0,0,0,0,0],"id":45,"left_children":[1,3,5,-1,7,9,11,-1,-1,-1,-1,-1,-1],"loss_changes":[9.9006605E0,9.139557E-1,7.849403E0,0E0,1.6828794E0,1.6934128E0,4.8598475E0,0E0,0E0,0E0,0E0,0E0,0E0],"parents":[2147483647,0,0,1,1,2,2,4,4,5,5,6,6],"right_children":[2,4,6,-1,8,10,12,-1,-1,-1,-1,-1,-1],"split_conditions":[2.23E0,1E0,1E0,-1.0135166E-2,6.3E1,5.72E0,1E0,-2.6187778E-3,-7.2149765E-3,-7.012545E-3,3.4805306E-3,-4.3729163E-4,7.6118335E-3],"split_indices":[5,3,3,0,0,5,1,0,0,0,0,0,0],"split_type":[0,0,0,0,0,0,0,0,0,0,0,0,0],"sum_hessian":[1.674849E2,4.416423E1,1.2332067E2,6.5987844E0,3.7565445E1,2.1311026E1,1.0200964E2,1.4365484E1,2.319996E1,2.0237946E1,1.0730804E0,9.487115E1,7.1384997E0],"tree_param":{"num_deleted":"0","num_feature":"7","num_nodes":"13","size_leaf_vector":"1"}},{"base_weights":[-3.2992408E-1,-5.892053E-1,-3.4965243E-2,-3.255715E-1,-7.507492E-1,-6.351359E-1,1.5116785E-1,-3.8451026E-3,8.799302E-3,-8.161625E-3,1.8799015E-3,3.5413017E-3,-8.775131E-3,-9.867719E-4,6.6554146E-3],"categories":[],"categories_nodes":[],"categories_segments":[],"categories_sizes":[],"default_left":[0,0,0,0,0,0,0,0,0,0,0,0,0,0,0],"id":46,"left_children":[1,3,5,7,9,11,13,-1,-1,-1,-1,-1,-1,-1,-1],"loss_changes":[1.3321369E1,3.7069397E0,9.331918E0,2.9684339E0,3.6390324E0,5.049513E0,8.279371E0,0E0,0E0,0E0,0E0,0E0,0E0,0E0,0E0],"parents":[2147483647,0,0,1,1,2,2,3,3,4,4,5,5,6,6],"right_children":[2,4,6,8,10,12,14,-1,-1,-1,-1,-1,-1,-1,-1],"split_conditions":[1.42411E3,5.4411E2,5.1E1,5.2711E2,8.1E1,1.72511E3,3.47E0,-3.8451026E-3,8.799302E-3,-8.161625E-3,1.8799015E-3,3.5413017E-3,-8.775131E-3,-9.867719E-4,6.6554146E-3],"split_indices":[6,6,0,6,0,6,5,0,0,0,0,0,0,0,0],"split_type":[0,0,0,0,0,0,0,0,0,0,0,0,0,0,0],"sum_hessian":[1.7345659E2,9.178027E1,8.1676315E1,3.601707E1,5.5763206E1,1.8763311E1,6.2913002E1,3.4987514E1,1.0295539E0,5.2252705E1,3.5105016E0,3.6017296E0,1.5161583E1,4.288888E1,2.002412E1],"tree_param":{"num_deleted":"0","num_feature":"7","num_nodes":"15","size_leaf_vector":"1"}},{"base_weights":[-2.4916758E-1,-5.8019215E-1,1.1511752E-1,-2.6639375E-1,-7.872959E-1,-4.2020816E-1,3.6398146E-1,8.316686E-3,-4.0352237E-3,4.056191E-3,-8.1731295E-3,-2.7668837E-3,-9.674939E-3,1.197051E-2,2.0330353E-3],"categories":[],"categories_nodes":[],"categories_segments":[],"categories_sizes":[],"default_left":[0,0,0,0,0,0,0,0,0,0,0,0,0,0,0],"id":47,"left_children":[1,3,5,7,9,11,13,-1,-1,-1,-1,-1,-1,-1,-1],"loss_changes":[2.1094833E1,5.7384644E0,1.132422E1,6.0425863E0,2.2875404E0,1.8589706E0,7.490625E0,0E0,0E0,0E0,0E0,0E0,0E0,0E0,0E0],"parents":[2147483647,0,0,1,1,2,2,3,3,4,4,5,5,6,6],"right_children":[2,4,6,8,10,12,14,-1,-1,-1,-1,-1,-1,-1,-1],"split_conditions":[1.41811E3,5.4411E2,5.3E1,5.3E1,6.9E-1,1.33E0,5.7E1,8.316686E-3,-4.0352237E-3,4.056191E-3,-8.1731295E-3,-2.7668837E-3,-9.674939E-3,1.197051E-2,2.0330353E-3],"split_indices":[6,6,0,0,4,4,0,0,0,0,0,0,0,0,0],"split_type":[0,0,0,0,0,0,0,0,0,0,0,0,0,0,0],"sum_hessian":[1.7338023E2,9.052647E1,8.285377E1,3.690111E1,5.3625355E1,2.6075287E1,5.677848E1,3.5343997E0,3.336671E1,1.0091143E0,5.261624E1,2.1850733E1,4.224554E0,8.137555E0,4.8640926E1],"tree_param":{"num_deleted":"0","num_feature":"7","num_nodes":"15","size_leaf_vector":"1"}},{"base_weights":[-2.8025934E-1,-5.636839E-1,4.5631796E-2,-1.6399217E-1,-7.449286E-1,-4.8920116E-1,2.159845E-1,-4.832696E-3,3.154942E-3,-8.127867E-3,1.0491627E-3,-6.3103074E-3,4.997714E-3,3.3618088E-3,-3.802351E-3],"categories":[],"categories_nodes":[],"categories_segments":[],"categories_sizes":[],"default_left":[0,0,0,0,0,0,0,0,0,0,0,0,0,0,0],"id":48,"left_children":[1,3,5,7,9,11,13,-1,-1,-1,-1,-1,-1,-1,-1],"loss_changes":[1.5994237E1,6.581724E0,7.5167875E0,4.7687244E0,3.7407532E0,3.1145515E0,4.5986347E0,0E0,0E0,0E0,0E0,0E0,0E0,0E0,0E0],"parents":[2147483647,0,0,1,1,2,2,3,3,4,4,5,5,6,6],"right_children":[2,4,6,8,10,12,14,-1,-1,-1,-1,-1,-1,-1,-1],"split_conditions":[1.41811E3,4.2811E2,5.1E1,2.6111E2,1E0,2.38311E3,2.35511E3,-4.832696E-3,3.154942E-3,-8.127867E-3,1.0491627E-3,-6.3103074E-3,4.997714E-3,3.3618088E-3,-3.802351E-3],"split_indices":[6,6,0,6,1,6,6,0,0,0,0,0,0,0,0],"split_type":[0,0,0,0,0,0,0,0,0,0,0,0,0,0,0],"sum_hessian":[1.7188387E2,9.154144E1,8.034243E1,2.9154028E1,6.2387417E1,1.8956285E1,6.1386143E1,1.7496004E1,1.1658024E1,5.781466E1,4.5727572E0,1.6895252E1,2.061033E0,5.1450077E1,9.936065E0],"tree_param":{"num_deleted":"0","num_feature":"7","num_nodes":"15","size_leaf_vector":"1"}},{"base_weights":[-2.3084538E-1,-5.896771E-1,1.1190728E-1,-3.365321E-1,-7.698409E-1,-4.6661714E-1,2.3313582E-1,-6.2511778E-3,-1.4138602E-3,-8.068575E-3,-2.00657E-3,3.7948021E-3,-6.4191637E-3,3.262368E-3,-7.393455E-3],"categories":[],"categories_nodes":[],"categories_segments":[],"categories_sizes":[],"default_left":[0,0,0,0,0,0,0,0,0,0,0,0,0,0,0],"id":49,"left_children":[1,3,5,7,9,11,13,-1,-1,-1,-1,-1,-1,-1,-1],"loss_changes":[2.1003601E1,3.5412884E0,6.2742405E0,1.9628325E0,8.474083E-1,2.5519211E0,6.88196E0,0E0,0E0,0E0,0E0,0E0,0E0,0E0,0E0],"parents":[2147483647,0,0,1,1,2,2,3,3,4,4,5,5,6,6],"right_children":[2,4,6,8,10,12,14,-1,-1,-1,-1,-1,-1,-1,-1],"split_conditions":[1.34011E3,5.4411E2,1E0,2.0811E2,1E0,1.53111E3,2.43511E3,-6.2511778E-3,-1.4138602E-3,-8.068575E-3,-2.00657E-3,3.7948021E-3,-6.4191637E-3,3.262368E-3,-7.393455E-3],"split_indices":[6,6,3,6,1,6,6,0,0,0,0,0,0,0,0],"split_type":[0,0,0,0,0,0,0,0,0,0,0,0,0,0,0],"sum_hessian":[1.692376E2,8.232753E1,8.6910065E1,3.5423088E1,4.6904446E1,1.4563127E1,7.234693E1,1.3401444E1,2.2021645E1,4.3648235E1,3.25621E0,2.2995222E0,1.2263604E1,6.663238E1,5.714554E0],"tree_param":{"num_deleted":"0","num_feature":"7","num_nodes":"15","size_leaf_vector":"1"}},{"base_weights":[-2.5535417E-1,-5.6533784E-1,4.58261E-2,-3.2037172E-1,-7.4181837E-1,-2.8825954E-2,8.268674E-1,-8.705576E-5,-7.3956335E-3,-7.958357E-3,-1.5179194E-4,6.6844776E-4,-5.6589926E-3,-3.076444E-3,1.4279132E-2],"categories":[],"categories_nodes":[],"categories_segments":[],"categories_sizes":[],"default_left":[0,0,0,0,0,0,0,0,0,0,0,0,0,0,0],"id":50,"left_children":[1,3,5,7,9,11,13,-1,-1,-1,-1,-1,-1,-1,-1],"loss_changes":[1.642551E1,3.5078945E0,5.272523E0,4.9634247E0,1.9347267E0,4.3093348E0,5.8174543E0,0E0,0E0,0E0,0E0,0E0,0E0,0E0,0E0],"parents":[2147483647,0,0,1,1,2,2,3,3,4,4,5,5,6,6],"right_children":[2,4,6,8,10,12,14,-1,-1,-1,-1,-1,-1,-1,-1],"split_conditions":[1.34011E3,5.4411E2,1E0,1.25E0,1E0,2.35511E3,9.36E-1,-8.705576E-5,-7.3956335E-3,-7.958357E-3,-1.5179194E-4,6.6844776E-4,-5.6589926E-3,-3.076444E-3,1.4279132E-2],"split_indices":[6,6,1,4,1,6,4,0,0,0,0,0,0,0,0],"split_type":[0,0,0,0,0,0,0,0,0,0,0,0,0,0,0],"sum_hessian":[1.7465805E2,8.563889E1,8.9019165E1,3.7040154E1,4.859874E1,8.213206E1,6.887103E0,2.1830267E1,1.5209886E1,4.514732E1,3.4514203E0,7.045687E1,1.1675188E1,2.5541449E0,4.3329577E0],"tree_param":{"num_deleted":"0","num_feature":"7","num_nodes":"15","size_leaf_vector":"1"}},{"base_weights":[-2.4833143E-1,-7.3672056E-1,-1.4208145E-1,1.2878951E-3,-7.841549E-3,-2.0836112E-1,6.228237E-1,-1.226059E-3,-9.541331E-3,-7.0037413E-3,8.741105E-3],"categories":[],"categories_nodes":[],"categories_segments":[],"categories_sizes":[],"default_left":[0,0,0,0,0,0,0,0,0,0,0],"id":51,"left_children":[1,3,5,-1,-1,7,9,-1,-1,-1,-1],"loss_changes":[8.732484E0,1.3404579E0,7.2837605E0,0E0,0E0,8.235888E0,4.4369845E0,0E0,0E0,0E0,0E0],"parents":[2147483647,0,0,1,1,2,2,5,5,6,6],"right_children":[2,4,6,-1,-1,8,10,-1,-1,-1,-1],"split_conditions":[1E0,8E-1,1E0,1.2878951E-3,-7.841549E-3,1.56E0,8E-1,-1.226059E-3,-9.541331E-3,-7.0037413E-3,8.741105E-3],"split_indices":[3,4,1,0,0,4,4,0,0,0,0],"split_type":[0,0,0,0,0,0,0,0,0,0,0],"sum_hessian":[1.6930125E2,2.9190449E1,1.4011081E2,1.427551E0,2.7762897E1,1.2960779E2,1.0503024E1,1.1728568E2,1.2322104E1,1.3910481E0,9.111976E0],"tree_param":{"num_deleted":"0","num_feature":"7","num_nodes":"11","size_leaf_vector":"1"}},{"base_weights":[-1.9574295E-1,-3.120882E-1,1.3615325E-1,-1.00666925E-1,-4.4100407E-1,-4.856262E-1,4.1367316E-1,-2.1395634E-3,5.655725E-3,-4.8816865E-3,1.1458652E-3,2.7678465E-3,-8.679566E-3,8.449109E-3,-7.4167264E-4],"categories":[],"categories_nodes":[],"categories_segments":[],"categories_sizes":[],"default_left":[0,0,0,0,0,0,0,0,0,0,0,0,0,0,0],"id":52,"left_children":[1,3,5,7,9,11,13,-1,-1,-1,-1,-1,-1,-1,-1],"loss_changes":[6.6646338E0,3.4248161E0,8.001979E0,3.8578966E0,2.1201696E0,4.4410257E0,6.7521105E0,0E0,0E0,0E0,0E0,0E0,0E0,0E0,0E0],"parents":[2147483647,0,0,1,1,2,2,3,3,4,4,5,5,6,6],"right_children":[2,4,6,8,10,12,14,-1,-1,-1,-1,-1,-1,-1,-1],"split_conditions":[3.58E0,1.04E0,5.1E1,1.01E0,1E0,4.2E1,4.31E0,-2.1395634E-3,5.655725E-3,-4.8816865E-3,1.1458652E-3,2.7678465E-3,-8.679566E-3,8.449109E-3,-7.4167264E-4],"split_indices":[5,4,0,4,1,0,5,0,0,0,0,0,0,0,0],"split_type":[0,0,0,0,0,0,0,0,0,0,0,0,0,0,0],"sum_hessian":[1.7049348E2,1.2628451E2,4.420898E1,4.8509724E1,7.777479E1,1.3411291E1,3.0797688E1,4.2039978E1,6.469748E0,7.180089E1,5.9738936E0,4.571418E0,8.839873E0,1.5958693E1,1.4838995E1],"tree_param":{"num_deleted":"0","num_feature":"7","num_nodes":"15","size_leaf_vector":"1"}},{"base_weights":[-2.711469E-1,-6.9344425E-1,-1.4838505E-1,-7.38308E-1,-1.1864913E-1,-6.826165E-1,-3.686624E-2,-5.5142795E-3,-8.575222E-3,-6.3694147E-3,3.3322845E-3,-8.055612E-3,-4.2845085E-3,-1.653544E-3,2.3399468E-3],"categories":[],"categories_nodes":[],"categories_segments":[],"categories_sizes":[],"default_left":[0,0,0,0,0,0,0,0,0,0,0,0,0,0,0],"id":53,"left_children":[1,3,5,7,9,11,13,-1,-1,-1,-1,-1,-1,-1,-1],"loss_changes":[8.618685E0,8.8248825E-1,7.8160644E0,3.0028343E-1,1.1291777E0,3.6333275E-1,3.864973E0,0E0,0E0,0E0,0E0,0E0,0E0,0E0,0E0],"parents":[2147483647,0,0,1,1,2,2,3,3,4,4,5,5,6,6],"right_children":[2,4,6,8,10,12,14,-1,-1,-1,-1,-1,-1,-1,-1],"split_conditions":[2.15E0,1E0,1E0,1.69E0,5.4E1,3.58E0,3.6E0,-5.5142795E-3,-8.575222E-3,-6.3694147E-3,3.3322845E-3,-8.055612E-3,-4.2845085E-3,-1.653544E-3,2.3399468E-3],"split_indices":[5,1,3,5,0,5,5,0,0,0,0,0,0,0,0],"split_type":[0,0,0,0,0,0,0,0,0,0,0,0,0,0,0],"sum_hessian":[1.6723389E2,3.661851E1,1.3061537E2,3.3703426E1,2.915082E0,2.1672426E1,1.08942955E2,1.5317411E1,1.8386017E1,1.1670083E0,1.7480738E0,1.3144664E1,8.527762E0,7.415541E1,3.478754E1],"tree_param":{"num_deleted":"0","num_feature":"7","num_nodes":"15","size_leaf_vector":"1"}},{"base_weights":[-2.508817E-1,-8.1885153E-1,-1.3328052E-1,-6.012529E-1,-9.690317E-1,-1.9535036E-1,6.32885E-1,-7.344272E-3,3.324769E-4,-1.0222741E-2,-1.2435406E-3,-4.625688E-4,-5.188203E-3,-4.671902E-3,9.292452E-3],"categories":[],"categories_nodes":[],"categories_segments":[],"categories_sizes":[],"default_left":[0,0,0,0,0,0,0,0,0,0,0,0,0,0,0],"id":54,"left_children":[1,3,5,7,9,11,13,-1,-1,-1,-1,-1,-1,-1,-1],"loss_changes":[1.1246027E1,3.639965E-1,6.8782415E0,1.246573E0,5.7013035E-1,6.3494806E0,3.9813232E0,0E0,0E0,0E0,0E0,0E0,0E0,0E0,0E0],"parents":[2147483647,0,0,1,1,2,2,3,3,4,4,5,5,6,6],"right_children":[2,4,6,8,10,12,14,-1,-1,-1,-1,-1,-1,-1,-1],"split_conditions":[1E0,5.3E1,1E0,5.1E1,1E0,1.28E0,9E-1,-7.344272E-3,3.324769E-4,-1.0222741E-2,-1.2435406E-3,-4.625688E-4,-5.188203E-3,-4.671902E-3,9.292452E-3],"split_indices":[3,0,1,0,1,4,4,0,0,0,0,0,0,0,0],"split_type":[0,0,0,0,0,0,0,0,0,0,0,0,0,0,0],"sum_hessian":[1.6900296E2,2.7967487E1,1.4103548E2,1.3463514E1,1.4503973E1,1.3115515E2,9.880326E0,1.099773E1,2.465784E0,1.344617E1,1.0578034E0,9.055816E1,4.0596992E1,1.9745313E0,7.9057946E0],"tree_param":{"num_deleted":"0","num_feature":"7","num_nodes":"15","size_leaf_vector":"1"}},{"base_weights":[-1.9830097E-1,-5.4347414E-1,1.7972137E-1,-8.554801E-1,-4.2357695E-1,-3.9246503E-1,3.8019606E-1,-9.637318E-3,3.0724469E-4,-6.466568E-4,-6.189055E-3,-1.7650718E-3,-9.8899165E-3,-2.5164708E-3,5.974118E-3],"categories":[],"categories_nodes":[],"categories_segments":[],"categories_sizes":[],"default_left":[0,0,0,0,0,0,0,0,0,0,0,0,0,0,0],"id":55,"left_children":[1,3,5,7,9,11,13,-1,-1,-1,-1,-1,-1,-1,-1],"loss_changes":[2.176625E1,2.8941402E0,9.327309E0,2.253828E0,4.507515E0,2.5632157E0,8.352183E0,0E0,0E0,0E0,0E0,0E0,0E0,0E0,0E0],"parents":[2147483647,0,0,1,1,2,2,3,3,4,4,5,5,6,6],"right_children":[2,4,6,8,10,12,14,-1,-1,-1,-1,-1,-1,-1,-1],"split_conditions":[1.40611E3,2.07E0,2.41E0,1.19211E3,5.4411E2,2.27E0,5.1E1,-9.637318E-3,3.0724469E-4,-6.466568E-4,-6.189055E-3,-1.7650718E-3,-9.8899165E-3,-2.5164708E-3,5.974118E-3],"split_indices":[6,5,5,6,6,5,0,0,0,0,0,0,0,0,0],"split_type":[0,0,0,0,0,0,0,0,0,0,0,0,0,0,0],"sum_hessian":[1.6506415E2,8.605209E1,7.901206E1,2.2185108E1,6.3866985E1,2.0251993E1,5.8760063E1,1.9692186E1,2.4929235E0,2.2977486E1,4.08895E1,1.5820471E1,4.431523E0,1.4992105E1,4.376796E1],"tree_param":{"num_deleted":"0","num_feature":"7","num_nodes":"15","size_leaf_vector":"1"}},{"base_weights":[-1.857378E-1,-8.409277E-1,-5.0867412E-2,-8.623119E-3,-2.0271156E-3,-4.8987636E-1,1.5262099E-1,-5.965685E-3,-2.4546185E-3,-4.069261E-3,3.1215646E-3],"categories":[],"categories_nodes":[],"categories_segments":[],"categories_sizes":[],"default_left":[0,0,0,0,0,0,0,0,0,0,0],"id":56,"left_children":[1,3,5,-1,-1,7,9,-1,-1,-1,-1],"loss_changes":[1.4460187E1,2.0669746E-1,1.2328712E1,0E0,0E0,9.926567E-1,8.561877E0,0E0,0E0,0E0,0E0],"parents":[2147483647,0,0,1,1,2,2,5,5,6,6],"right_children":[2,4,6,-1,-1,8,10,-1,-1,-1,-1],"split_conditions":[1E0,5.39E0,2.35E0,-8.623119E-3,-2.0271156E-3,2.07E0,1E0,-5.965685E-3,-2.4546185E-3,-4.069261E-3,3.1215646E-3],"split_indices":[3,5,5,0,0,5,2,0,0,0,0],"split_type":[0,0,0,0,0,0,0,0,0,0,0],"sum_hessian":[1.6312431E2,2.695311E1,1.361712E2,2.5739544E1,1.2135658E0,4.2681686E1,9.348952E1,2.8708857E1,1.3972832E1,2.0397524E1,7.309199E1],"tree_param":{"num_deleted":"0","num_feature":"7","num_nodes":"11","size_leaf_vector":"1"}},{"base_weights":[-1.989889E-1,-5.5179495E-1,1.5707797E-1,-2.5050366E-1,-7.7177274E-1,2.6761335E-1,-8.427559E-3,1.539029E-3,-5.925381E-3,-9.007416E-3,-2.5899499E-3,-3.0864486E-3,3.7638557E-3],"categories":[],"categories_nodes":[],"categories_segments":[],"categories_sizes":[],"default_left":[0,0,0,0,0,0,0,0,0,0,0,0,0],"id":57,"left_children":[1,3,5,7,9,11,-1,-1,-1,-1,-1,-1,-1],"loss_changes":[2.1351551E1,5.4567413E0,9.622469E0,5.27214E0,2.9935017E0,4.9627657E0,0E0,0E0,0E0,0E0,0E0,0E0,0E0],"parents":[2147483647,0,0,1,1,2,2,3,3,4,4,5,5],"right_children":[2,4,6,8,10,12,-1,-1,-1,-1,-1,-1,-1],"split_conditions":[1.34011E3,5.4411E2,2.41511E3,7.1E1,7.1E1,1E0,-8.427559E-3,1.539029E-3,-5.925381E-3,-9.007416E-3,-2.5899499E-3,-3.0864486E-3,3.7638557E-3],"split_indices":[6,6,6,0,0,3,0,0,0,0,0,0,0],"split_type":[0,0,0,0,0,0,0,0,0,0,0,0,0],"sum_hessian":[1.6827594E2,8.424889E1,8.4027054E1,3.6455963E1,4.7792934E1,7.632174E1,7.705312E0,1.6956903E1,1.949906E1,3.7583668E1,1.0209267E1,1.1826939E1,6.44948E1],"tree_param":{"num_deleted":"0","num_feature":"7","num_nodes":"13","size_leaf_vector":"1"}},{"base_weights":[-1.897206E-1,-5.333884E-1,1.8747175E-1,-2.100426E-1,-6.83622E-1,-2.0501788E-1,3.679901E-1,-5.7913787E-3,-5.788907E-4,-7.4408716E-3,-2.3808323E-3,5.794581E-3,-3.1003223E-3,6.2743262E-3,6.6637935E-4],"categories":[],"categories_nodes":[],"categories_segments":[],"categories_sizes":[],"default_left":[0,0,0,0,0,0,0,0,0,0,0,0,0,0,0],"id":58,"left_children":[1,3,5,7,9,11,13,-1,-1,-1,-1,-1,-1,-1,-1],"loss_changes":[2.2118874E1,4.186613E0,5.8654776E0,1.6356091E0,1.4505043E0,2.353458E0,4.362537E0,0E0,0E0,0E0,0E0,0E0,0E0,0E0,0E0],"parents":[2147483647,0,0,1,1,2,2,3,3,4,4,5,5,6,6],"right_children":[2,4,6,8,10,12,14,-1,-1,-1,-1,-1,-1,-1,-1],"split_conditions":[1.40611E3,4.2811E2,5.3E1,1.1511E2,1.30011E3,1.54811E3,6.7E1,-5.7913787E-3,-5.788907E-4,-7.4408716E-3,-2.3808323E-3,5.794581E-3,-3.1003223E-3,6.2743262E-3,6.6637935E-4],"split_indices":[6,6,0,6,6,6,0,0,0,0,0,0,0,0,0],"split_type":[0,0,0,0,0,0,0,0,0,0,0,0,0,0,0],"sum_hessian":[1.6886092E2,8.814033E1,8.072058E1,2.8721518E1,5.9418816E1,2.5387165E1,5.533342E1,7.5647097E0,2.1156807E1,5.1728527E1,7.6902866E0,2.4638524E0,2.2923311E1,2.9152853E1,2.6180567E1],"tree_param":{"num_deleted":"0","num_feature":"7","num_nodes":"15","size_leaf_vector":"1"}},{"base_weights":[-1.981126E-1,-4.989321E-1,1.05390884E-1,-1.257766E-1,-7.083E-1,-5.16782E-1,2.7338722E-1,2.7146947E-3,-7.5700134E-3,-7.49312E-3,-2.0592406E-3,4.0032337E-3,-6.7261662E-3,5.5637043E-3,-9.836531E-4],"categories":[],"categories_nodes":[],"categories_segments":[],"categories_sizes":[],"default_left":[0,0,0,0,0,0,0,0,0,0,0,0,0,0,0],"id":59,"left_children":[1,3,5,7,9,11,13,-1,-1,-1,-1,-1,-1,-1,-1],"loss_changes":[1.5126833E1,6.40283E0,8.817985E0,7.999217E0,9.3795586E-1,2.8410697E0,6.9997435E0,0E0,0E0,0E0,0E0,0E0,0E0,0E0,0E0],"parents":[2147483647,0,0,1,1,2,2,3,3,4,4,5,5,6,6],"right_children":[2,4,6,8,10,12,14,-1,-1,-1,-1,-1,-1,-1,-1],"split_conditions":[1.34011E3,4.2811E2,5E1,1.25E0,7.9E1,1.54811E3,6.7E1,2.7146947E-3,-7.5700134E-3,-7.49312E-3,-2.0592406E-3,4.0032337E-3,-6.7261662E-3,5.5637043E-3,-9.836531E-4],"split_indices":[6,6,0,4,0,6,0,0,0,0,0,0,0,0,0],"split_type":[0,0,0,0,0,0,0,0,0,0,0,0,0,0,0],"sum_hessian":[1.6410721E2,8.209464E1,8.201256E1,3.0081415E1,5.201323E1,1.6995123E1,6.501743E1,1.8812288E1,1.1269128E1,4.7633106E1,4.3801208E0,2.2405174E0,1.4754606E1,3.663429E1,2.8383148E1],"tree_param":{"num_deleted":"0","num_feature":"7","num_nodes":"15","size_leaf_vector":"1"}},{"base_weights":[-2.9637325E-1,-5.616862E-1,-1.870223E-1,-4.1960594E-1,-1.0606659E-2,1.4353691E-1,-3.384483E-1,-4.723809E-3,6.3837077E-3,-6.304582E-3,3.2632793E-3,-3.783342E-3,3.0680713E-3],"categories":[],"categories_nodes":[],"categories_segments":[],"categories_sizes":[],"default_left":[0,0,0,0,0,0,0,0,0,0,0,0,0],"id":60,"left_children":[1,3,5,7,-1,9,11,-1,-1,-1,-1,-1,-1],"loss_changes":[4.763364E0,2.9917421E0,6.0716443E0,2.5007496E0,0E0,5.653529E0,2.2476416E0,0E0,0E0,0E0,0E0,0E0,0E0],"parents":[2147483647,0,0,1,1,2,2,3,3,5,5,6,6],"right_children":[2,4,6,8,-1,10,12,-1,-1,-1,-1,-1,-1],"split_conditions":[5.4E1,1.33E0,6.3E1,1.3E0,-1.0606659E-2,1E0,1E0,-4.723809E-3,6.3837077E-3,-6.304582E-3,3.2632793E-3,-3.783342E-3,3.0680713E-3],"split_indices":[0,4,0,4,0,3,1,0,0,0,0,0,0],"split_type":[0,0,0,0,0,0,0,0,0,0,0,0,0],"sum_hessian":[1.6680556E2,4.7477245E1,1.19328316E2,3.8387615E1,9.089627E0,3.750592E1,8.1822395E1,3.709092E1,1.2966987E0,6.697503E0,3.0808416E1,7.744865E1,4.373754E0],"tree_param":{"num_deleted":"0","num_feature":"7","num_nodes":"13","size_leaf_vector":"1"}},{"base_weights":[-2.123465E-1,-4.8269507E-1,7.45354E-2,-1.3100496E-1,-6.2319046E-1,1.7399256E-1,-7.505681E-1,1.1527922E-2,-4.213671E-3,-7.157637E-3,-2.6896233E-3,-3.2038104E-3,3.4022687E-3,-3.6467637E-3,-8.621776E-3],"categories":[],"categories_nodes":[],"categories_segments":[],"categories_sizes":[],"default_left":[0,0,0,0,0,0,0,0,0,0,0,0,0,0,0],"id":61,"left_children":[1,3,5,7,9,11,13,-1,-1,-1,-1,-1,-1,-1,-1],"loss_changes":[1.3356764E1,4.2940807E0,7.0397916E0,1.0380906E1,1.8738022E0,6.350651E0,8.376646E-2,0E0,0E0,0E0,0E0,0E0,0E0,0E0,0E0],"parents":[2147483647,0,0,1,1,2,2,3,3,4,4,5,5,6,6],"right_children":[2,4,6,8,10,12,14,-1,-1,-1,-1,-1,-1,-1,-1],"split_conditions":[1.40611E3,3.8911E2,2.41511E3,6.1E1,7.1E1,5.1E1,1.086E0,1.1527922E-2,-4.213671E-3,-7.157637E-3,-2.6896233E-3,-3.2038104E-3,3.4022687E-3,-3.6467637E-3,-8.621776E-3],"split_indices":[6,6,6,0,0,0,4,0,0,0,0,0,0,0,0],"split_type":[0,0,0,0,0,0,0,0,0,0,0,0,0,0,0],"sum_hessian":[1.7075232E2,8.755791E1,8.3194405E1,2.5545214E1,6.2012695E1,7.494923E1,8.245179E0,4.164086E0,2.1381128E1,4.835506E1,1.3657636E1,1.8626764E1,5.632246E1,2.807081E0,5.438098E0],"tree_param":{"num_deleted":"0","num_feature":"7","num_nodes":"15","size_leaf_vector":"1"}},{"base_weights":[-2.6840267E-1,-5.376313E-1,3.9874885E-2,-1.3894998E-1,-7.213606E-1,-3.9843807E-1,2.4044527E-1,5.6986874E-3,-4.3332917E-3,-7.7344887E-3,-4.1132624E-4,5.649799E-3,-5.283622E-3,6.7040697E-3,-2.4338614E-3],"categories":[],"categories_nodes":[],"categories_segments":[],"categories_sizes":[],"default_left":[0,0,0,0,0,0,0,0,0,0,0,0,0,0,0],"id":62,"left_children":[1,3,5,7,9,11,13,-1,-1,-1,-1,-1,-1,-1,-1],"loss_changes":[1.3975917E1,6.478983E0,7.068391E0,6.417751E0,2.1382504E0,3.462305E0,1.1612463E1,0E0,0E0,0E0,0E0,0E0,0E0,0E0,0E0],"parents":[2147483647,0,0,1,1,2,2,3,3,4,4,5,5,6,6],"right_children":[2,4,6,8,10,12,14,-1,-1,-1,-1,-1,-1,-1,-1],"split_conditions":[1.42411E3,4.1111E2,5.3E1,6.6E1,1E0,1.54811E3,6.7E1,5.6986874E-3,-4.3332917E-3,-7.7344887E-3,-4.1132624E-4,5.649799E-3,-5.283622E-3,6.7040697E-3,-2.4338614E-3],"split_indices":[6,6,0,0,1,6,0,0,0,0,0,0,0,0,0],"split_type":[0,0,0,0,0,0,0,0,0,0,0,0,0,0,0],"sum_hessian":[1.6713205E2,8.881932E1,7.831273E1,2.8573305E1,6.0246014E1,2.427571E1,5.4037018E1,8.109962E0,2.0463343E1,5.5833534E1,4.4124813E0,2.4868193E0,2.1788889E1,2.840712E1,2.5629896E1],"tree_param":{"num_deleted":"0","num_feature":"7","num_nodes":"15","size_leaf_vector":"1"}},{"base_weights":[-2.5137454E-1,-5.729179E-1,8.871939E-2,-2.741104E-1,-7.6100606E-1,-4.4272774E-1,2.5590035E-1,-3.4692448E-3,7.1726916E-3,-8.7373825E-3,-2.7855677E-3,6.2234006E-3,-5.482342E-3,4.321851E-3,-7.0847804E-3],"categories":[],"categories_nodes":[],"categories_segments":[],"categories_sizes":[],"default_left":[0,0,0,0,0,0,0,0,0,0,0,0,0,0,0],"id":63,"left_children":[1,3,5,7,9,11,13,-1,-1,-1,-1,-1,-1,-1,-1],"loss_changes":[1.8580158E1,4.693941E0,7.506465E0,2.7941434E0,2.637539E0,2.619942E0,1.1175111E1,0E0,0E0,0E0,0E0,0E0,0E0,0E0,0E0],"parents":[2147483647,0,0,1,1,2,2,3,3,4,4,5,5,6,6],"right_children":[2,4,6,8,10,12,14,-1,-1,-1,-1,-1,-1,-1,-1],"split_conditions":[1.40611E3,5.4411E2,5.1E1,5.1811E2,7.1E1,1.54811E3,2.35511E3,-3.4692448E-3,7.1726916E-3,-8.7373825E-3,-2.7855677E-3,6.2234006E-3,-5.482342E-3,4.321851E-3,-7.0847804E-3],"split_indices":[6,6,0,6,0,6,6,0,0,0,0,0,0,0,0],"split_type":[0,0,0,0,0,0,0,0,0,0,0,0,0,0,0],"sum_hessian":[1.684421E2,8.62305E1,8.221159E1,3.4260185E1,5.197031E1,1.9278736E1,6.2932858E1,3.252162E1,1.7385632E0,4.1469284E1,1.0501028E1,1.2961144E0,1.7982622E1,5.3673412E1,9.259446E0],"tree_param":{"num_deleted":"0","num_feature":"7","num_nodes":"15","size_leaf_vector":"1"}},{"base_weights":[-2.528976E-1,-6.951287E-1,-1.17104776E-1,-2.3717515E-1,-7.3317575E-1,-3.5572946E-2,-5.891524E-1,-7.156045E-3,2.6879855E-3,-7.570963E-3,-3.366001E-3,-8.6352235E-4,5.8037564E-3,-1.0044611E-2,-3.3803645E-3],"categories":[],"categories_nodes":[],"categories_segments":[],"categories_sizes":[],"default_left":[0,0,0,0,0,0,0,0,0,0,0,0,0,0,0],"id":64,"left_children":[1,3,5,7,9,11,13,-1,-1,-1,-1,-1,-1,-1,-1],"loss_changes":[9.730446E0,4.913807E-1,4.8363914E0,1.2591723E0,7.504654E-2,3.4494748E0,1.5923119E0,0E0,0E0,0E0,0E0,0E0,0E0,0E0,0E0],"parents":[2147483647,0,0,1,1,2,2,3,3,4,4,5,5,6,6],"right_children":[2,4,6,8,10,12,14,-1,-1,-1,-1,-1,-1,-1,-1],"split_conditions":[2.19E0,7.5E-1,1.45E0,1.64E0,2.15E0,1E0,1.54E0,-7.156045E-3,2.6879855E-3,-7.570963E-3,-3.366001E-3,-8.6352235E-4,5.8037564E-3,-1.0044611E-2,-3.3803645E-3],"split_indices":[5,4,4,5,5,1,4,0,0,0,0,0,0,0,0],"split_type":[0,0,0,0,0,0,0,0,0,0,0,0,0,0,0],"sum_hessian":[1.6238971E2,3.7181885E1,1.25207825E2,3.4070182E0,3.3774868E1,1.0768405E2,1.7523775E1,1.5382222E0,1.8687959E0,3.0996166E1,2.7787025E0,1.0027695E2,7.4071035E0,5.472718E0,1.2051058E1],"tree_param":{"num_deleted":"0","num_feature":"7","num_nodes":"15","size_leaf_vector":"1"}},{"base_weights":[-1.8998964E-1,-3.4681955E-1,2.4365942E-1,-5.904381E-1,-1.8514013E-1,-5.16451E-1,5.648887E-1,-1.0217165E-2,-4.886678E-3,4.597705E-3,-2.7724078E-3,-2.5211825E-4,-1.0048934E-2,1.2532086E-2,1.5564068E-3],"categories":[],"categories_nodes":[],"categories_segments":[],"categories_sizes":[],"default_left":[0,0,0,0,0,0,0,0,0,0,0,0,0,0,0],"id":65,"left_children":[1,3,5,7,9,11,13,-1,-1,-1,-1,-1,-1,-1,-1],"loss_changes":[1.138614E1,4.7139273E0,1.1211962E1,1.6247139E0,4.5859156E0,3.2878678E0,8.795358E0,0E0,0E0,0E0,0E0,0E0,0E0,0E0,0E0],"parents":[2147483647,0,0,1,1,2,2,3,3,4,4,5,5,6,6],"right_children":[2,4,6,8,10,12,14,-1,-1,-1,-1,-1,-1,-1,-1],"split_conditions":[3.57E0,2.33E0,5.1E1,5E1,2.47E0,1.15E0,4E0,-1.0217165E-2,-4.886678E-3,4.597705E-3,-2.7724078E-3,-2.5211825E-4,-1.0048934E-2,1.2532086E-2,1.5564068E-3],"split_indices":[5,5,0,0,5,4,5,0,0,0,0,0,0,0,0],"split_type":[0,0,0,0,0,0,0,0,0,0,0,0,0,0,0],"sum_hessian":[1.6517818E2,1.2145427E2,4.3723907E1,4.7392033E1,7.406224E1,1.280835E1,3.0915556E1,7.322326E0,4.0069706E1,8.756325E0,6.530591E1,6.910199E0,5.8981504E0,1.0758486E1,2.015707E1],"tree_param":{"num_deleted":"0","num_feature":"7","num_nodes":"15","size_leaf_vector":"1"}},{"base_weights":[-1.8059246E-1,-4.652254E-1,-5.913696E-2,-1.3945004E-1,-6.0422856E-1,2.9602244E-1,-3.129615E-1,-8.987537E-3,1.0178161E-3,-6.667674E-3,-1.9716001E-4,4.0565934E-3,-2.6912577E-3,-2.2473796E-3,-8.507122E-3],"categories":[],"categories_nodes":[],"categories_segments":[],"categories_sizes":[],"default_left":[0,0,0,0,0,0,0,0,0,0,0,0,0,0,0],"id":66,"left_children":[1,3,5,7,9,11,13,-1,-1,-1,-1,-1,-1,-1,-1],"loss_changes":[5.8332863E0,2.2052631E0,1.0908051E1,3.0992854E0,1.271328E0,3.2393823E0,3.1513472E0,0E0,0E0,0E0,0E0,0E0,0E0,0E0,0E0],"parents":[2147483647,0,0,1,1,2,2,3,3,4,4,5,5,6,6],"right_children":[2,4,6,8,10,12,14,-1,-1,-1,-1,-1,-1,-1,-1],"split_conditions":[5.4E1,9.7E-1,6.6E1,7.9E-1,1E0,1.43E0,1.56E0,-8.987537E-3,1.0178161E-3,-6.667674E-3,-1.9716001E-4,4.0565934E-3,-2.6912577E-3,-2.2473796E-3,-8.507122E-3],"split_indices":[0,4,0,4,1,4,4,0,0,0,0,0,0,0,0],"split_type":[0,0,0,0,0,0,0,0,0,0,0,0,0,0,0],"sum_hessian":[1.6853308E2,4.95594E1,1.1897369E2,1.5421034E1,3.4138363E1,4.9518944E1,6.945474E1,3.0608811E0,1.2360152E1,3.0711697E1,3.4266682E0,4.170962E1,7.809322E0,6.0884014E1,8.5707245E0],"tree_param":{"num_deleted":"0","num_feature":"7","num_nodes":"15","size_leaf_vector":"1"}},{"base_weights":[-1.8974043E-1,-7.17289E-1,-8.712683E-2,-8.817381E-1,-3.2006344E-1,-2.2066239E-1,2.8567505E-1,-6.047562E-3,-1.0495766E-2,1.24237295E-2,-7.780942E-3,-5.2525424E-3,-1.2380197E-3,-4.2187017E-3,5.407894E-3],"categories":[],"categories_nodes":[],"categories_segments":[],"categories_sizes":[],"default_left":[0,0,0,0,0,0,0,0,0,0,0,0,0,0,0],"id":67,"left_children":[1,3,5,7,9,11,13,-1,-1,-1,-1,-1,-1,-1,-1],"loss_changes":[9.035635E0,1.4965038E0,7.124087E0,2.339983E-1,7.7954707E0,3.0326552E0,7.0589285E0,0E0,0E0,0E0,0E0,0E0,0E0,0E0,0E0],"parents":[2147483647,0,0,1,1,2,2,3,3,4,4,5,5,6,6],"right_children":[2,4,6,8,10,12,14,-1,-1,-1,-1,-1,-1,-1,-1],"split_conditions":[1E0,3.56E0,3.58E0,5.5E1,3.77E0,1.93E0,5.3E1,-6.047562E-3,-1.0495766E-2,1.24237295E-2,-7.780942E-3,-5.2525424E-3,-1.2380197E-3,-4.2187017E-3,5.407894E-3],"split_indices":[3,5,5,0,5,5,0,0,0,0,0,0,0,0,0],"split_type":[0,0,0,0,0,0,0,0,0,0,0,0,0,0,0],"sum_hessian":[1.6706792E2,2.6229385E1,1.4083853E2,1.768723E1,8.542156E0,1.0399588E2,3.684265E1,8.410571E0,9.276659E0,1.54827E0,6.9938865E0,2.40245E1,7.997138E1,9.590445E0,2.7252205E1],"tree_param":{"num_deleted":"0","num_feature":"7","num_nodes":"15","size_leaf_vector":"1"}},{"base_weights":[-2.2895083E-1,-5.796422E-1,1.3088503E-1,-8.969807E-1,-4.784414E-1,-3.964771E-1,2.965461E-1,-1.8036729E-3,-9.351819E-3,-2.7330928E-3,-6.2718648E-3,5.0367294E-3,-4.920504E-3,5.7060705E-3,-2.9951075E-4],"categories":[],"categories_nodes":[],"categories_segments":[],"categories_sizes":[],"default_left":[0,0,0,0,0,0,0,0,0,0,0,0,0,0,0],"id":68,"left_children":[1,3,5,7,9,11,13,-1,-1,-1,-1,-1,-1,-1,-1],"loss_changes":[2.1229317E1,2.3031197E0,7.416966E0,3.6318207E-1,1.8622227E0,2.0028763E0,5.757401E0,0E0,0E0,0E0,0E0,0E0,0E0,0E0,0E0],"parents":[2147483647,0,0,1,1,2,2,3,3,4,4,5,5,6,6],"right_children":[2,4,6,8,10,12,14,-1,-1,-1,-1,-1,-1,-1,-1],"split_conditions":[1.41811E3,1E0,5.1E1,3.9E1,5.4411E2,1.54811E3,6.6E1,-1.8036729E-3,-9.351819E-3,-2.7330928E-3,-6.2718648E-3,5.0367294E-3,-4.920504E-3,5.7060705E-3,-2.9951075E-4],"split_indices":[6,2,0,0,6,6,0,0,0,0,0,0,0,0,0],"split_type":[0,0,0,0,0,0,0,0,0,0,0,0,0,0,0],"sum_hessian":[1.6663E2,8.407792E1,8.255209E1,1.8428305E1,6.564961E1,1.940029E1,6.3151802E1,1.2222234E0,1.7206081E1,2.8787134E1,3.6862476E1,1.4522611E0,1.7948029E1,3.39264E1,2.9225405E1],"tree_param":{"num_deleted":"0","num_feature":"7","num_nodes":"15","size_leaf_vector":"1"}},{"base_weights":[-2.1322638E-1,-6.213975E-1,-1.0994083E-1,-6.708625E-1,-3.697422E-2,1.4880818E-1,-3.4418872E-1,-5.1229666E-3,-9.402096E-3,-3.566493E-3,4.028884E-3,-4.389763E-3,2.8602742E-3,-4.175614E-3,5.6040753E-3],"categories":[],"categories_nodes":[],"categories_segments":[],"categories_sizes":[],"default_left":[0,0,0,0,0,0,0,0,0,0,0,0,0,0,0],"id":69,"left_children":[1,3,5,7,9,11,13,-1,-1,-1,-1,-1,-1,-1,-1],"loss_changes":[6.935777E0,9.38879E-1,8.16119E0,8.2848454E-1,6.582854E-1,5.3096523E0,4.915141E0,0E0,0E0,0E0,0E0,0E0,0E0,0E0,0E0],"parents":[2147483647,0,0,1,1,2,2,3,3,4,4,5,5,6,6],"right_children":[2,4,6,8,10,12,14,-1,-1,-1,-1,-1,-1,-1,-1],"split_conditions":[2.07E0,1E0,1.14E0,1.24E0,1.06E0,1E0,1E0,-5.1229666E-3,-9.402096E-3,-3.566493E-3,4.028884E-3,-4.389763E-3,2.8602742E-3,-4.175614E-3,5.6040753E-3],"split_indices":[5,1,4,4,4,3,1,0,0,0,0,0,0,0,0],"split_type":[0,0,0,0,0,0,0,0,0,0,0,0,0,0,0],"sum_hessian":[1.6513841E2,3.2335682E1,1.3280273E2,2.967603E1,2.659655E0,6.3274635E1,6.952809E1,2.0506033E1,9.169996E0,1.6498144E0,1.0098407E0,1.1559585E1,5.1715054E1,6.4809715E1,4.7183795E0],"tree_param":{"num_deleted":"0","num_feature":"7","num_nodes":"15","size_leaf_vector":"1"}},{"base_weights":[-1.7992944E-1,-5.157915E-1,1.6435078E-1,-1.4967036E-1,-7.706394E-1,-4.7817713E-1,2.8120938E-1,5.3968774E-3,-3.970899E-3,-8.321573E-3,1.6998783E-3,-7.815614E-3,1.6392296E-4,3.7333532E-3,-7.0666717E-3],"categories":[],"categories_nodes":[],"categories_segments":[],"categories_sizes":[],"default_left":[0,0,0,0,0,0,0,0,0,0,0,0,0,0,0],"id":70,"left_children":[1,3,5,7,9,11,13,-1,-1,-1,-1,-1,-1,-1,-1],"loss_changes":[1.9326889E1,7.766762E0,6.361531E0,6.3392267E0,3.009615E0,1.9832869E0,6.707359E0,0E0,0E0,0E0,0E0,0E0,0E0,0E0,0E0],"parents":[2147483647,0,0,1,1,2,2,3,3,4,4,5,5,6,6],"right_children":[2,4,6,8,10,12,14,-1,-1,-1,-1,-1,-1,-1,-1],"split_conditions":[1.40611E3,5.4411E2,1E0,6.1E1,8.1E1,3.34E0,2.44211E3,5.3968774E-3,-3.970899E-3,-8.321573E-3,1.6998783E-3,-7.815614E-3,1.6392296E-4,3.7333532E-3,-7.0666717E-3],"split_indices":[6,6,3,0,0,5,6,0,0,0,0,0,0,0,0],"split_type":[0,0,0,0,0,0,0,0,0,0,0,0,0,0,0],"sum_hessian":[1.6541019E2,8.347657E1,8.193362E1,3.4910515E1,4.8566055E1,1.2132595E1,6.9801025E1,8.908492E0,2.6002022E1,4.569301E1,2.8730464E0,7.160088E0,4.9725075E0,6.44159E1,5.385121E0],"tree_param":{"num_deleted":"0","num_feature":"7","num_nodes":"15","size_leaf_vector":"1"}},{"base_weights":[-2.5284603E-1,-5.6146824E-1,-1.1097666E-1,-1.5816276E-1,-6.646025E-1,-4.5786607E-1,-3.213591E-2,5.1723197E-3,-3.5129646E-3,-9.103984E-3,-4.8462534E-3,8.235345E-3,-5.6715407E-3,4.889525E-5,-6.3245296E-3],"categories":[],"categories_nodes":[],"categories_segments":[],"categories_sizes":[],"default_left":[0,0,0,0,0,0,0,0,0,0,0,0,0,0,0],"id":71,"left_children":[1,3,5,7,9,11,13,-1,-1,-1,-1,-1,-1,-1,-1],"loss_changes":[7.2879972E0,2.0836544E0,3.1647444E0,1.7507097E0,1.3987789E0,3.471487E0,2.1324663E0,0E0,0E0,0E0,0E0,0E0,0E0,0E0,0E0],"parents":[2147483647,0,0,1,1,2,2,3,3,4,4,5,5,6,6],"right_children":[2,4,6,8,10,12,14,-1,-1,-1,-1,-1,-1,-1,-1],"split_conditions":[2.41E0,1E0,1E0,1.53E0,1.77E0,2.53E0,5.22E0,5.1723197E-3,-3.5129646E-3,-9.103984E-3,-4.8462534E-3,8.235345E-3,-5.6715407E-3,4.889525E-5,-6.3245296E-3],"split_indices":[5,2,3,5,5,5,5,0,0,0,0,0,0,0,0],"split_type":[0,0,0,0,0,0,0,0,0,0,0,0,0,0,0],"sum_hessian":[1.6687642E2,5.1621506E1,1.1525492E2,1.1028441E1,4.0593063E1,2.0453705E1,9.4801216E1,2.0792243E0,8.949217E0,1.5443443E1,2.5149618E1,1.0937744E0,1.935993E1,9.022812E1,4.5730963E0],"tree_param":{"num_deleted":"0","num_feature":"7","num_nodes":"15","size_leaf_vector":"1"}},{"base_weights":[-2.0254225E-1,-1.0112416E-1,-7.05491E-1,-4.0859276E-1,-6.0997135E-4,-7.5557214E-1,1.5610633E-3,-6.9329655E-3,-1.8257091E-3,6.409822E-3,-9.4559416E-4,-8.57861E-3,-3.970552E-3],"categories":[],"categories_nodes":[],"categories_segments":[],"categories_sizes":[],"default_left":[0,0,0,0,0,0,0,0,0,0,0,0,0],"id":72,"left_children":[1,3,5,7,9,11,-1,-1,-1,-1,-1,-1,-1],"loss_changes":[8.419397E0,4.316949E0,1.316042E0,2.0879664E0,6.4667726E0,6.27965E-1,0E0,0E0,0E0,0E0,0E0,0E0,0E0],"parents":[2147483647,0,0,1,1,2,2,3,3,4,4,5,5],"right_children":[2,4,6,8,10,12,-1,-1,-1,-1,-1,-1,-1],"split_conditions":[1.43E0,2.22E0,1E0,9.7E-1,2.48E0,3.58E0,1.5610633E-3,-6.9329655E-3,-1.8257091E-3,6.409822E-3,-9.4559416E-4,-8.57861E-3,-3.970552E-3],"split_indices":[4,5,1,4,5,5,0,0,0,0,0,0,0],"split_type":[0,0,0,0,0,0,0,0,0,0,0,0,0],"sum_hessian":[1.6545863E2,1.3869272E2,2.6765903E1,3.3414417E1,1.05278305E2,2.5411871E1,1.3540317E0,1.3872642E1,1.9541777E1,1.27032995E1,9.2575005E1,1.8687357E1,6.7245154E0],"tree_param":{"num_deleted":"0","num_feature":"7","num_nodes":"13","size_leaf_vector":"1"}},{"base_weights":[-2.1706077E-1,-5.601677E-1,9.1362424E-2,-2.3422354E-1,-7.445399E-1,1.6838205E-1,-5.545379E-1,1.4202403E-3,-8.838443E-3,-8.239773E-3,3.2287904E-3,1.0669541E-3,7.7630794E-3,-1.6052984E-3,-7.1145324E-3],"categories":[],"categories_nodes":[],"categories_segments":[],"categories_sizes":[],"default_left":[0,0,0,0,0,0,0,0,0,0,0,0,0,0,0],"id":73,"left_children":[1,3,5,7,9,11,13,-1,-1,-1,-1,-1,-1,-1,-1],"loss_changes":[1.738934E1,4.4950237E0,4.4284296E0,7.3435345E0,4.4352436E0,2.8656814E0,4.741876E-1,0E0,0E0,0E0,0E0,0E0,0E0,0E0,0E0],"parents":[2147483647,0,0,1,1,2,2,3,3,4,4,5,5,6,6],"right_children":[2,4,6,8,10,12,14,-1,-1,-1,-1,-1,-1,-1,-1],"split_conditions":[1.30011E3,4.2811E2,2.41511E3,1.25E0,1E0,1E0,1.086E0,1.4202403E-3,-8.838443E-3,-8.239773E-3,3.2287904E-3,1.0669541E-3,7.7630794E-3,-1.6052984E-3,-7.1145324E-3],"split_indices":[6,6,6,4,1,1,4,0,0,0,0,0,0,0,0],"split_type":[0,0,0,0,0,0,0,0,0,0,0,0,0,0,0],"sum_hessian":[1.628425E2,7.670046E1,8.614204E1,2.853138E1,4.8169083E1,7.762504E1,8.517E0,1.8562006E1,9.969375E0,4.50449E1,3.1241825E0,7.1541214E1,6.083826E0,3.002039E0,5.5149617E0],"tree_param":{"num_deleted":"0","num_feature":"7","num_nodes":"15","size_leaf_vector":"1"}},{"base_weights":[-2.0007788E-1,-4.7069794E-1,6.768308E-2,-7.840256E-1,-2.5707093E-1,-3.983818E-1,2.307004E-1,2.9215668E-3,-8.341612E-3,-3.3006043E-4,-6.8111536E-3,8.948134E-3,-5.3641475E-3,5.801546E-3,-1.9781308E-3],"categories":[],"categories_nodes":[],"categories_segments":[],"categories_sizes":[],"default_left":[0,0,0,0,0,0,0,0,0,0,0,0,0,0,0],"id":74,"left_children":[1,3,5,7,9,11,13,-1,-1,-1,-1,-1,-1,-1,-1],"loss_changes":[1.1777565E1,5.2030163E0,6.3487835E0,1.983511E0,4.680481E0,4.3548017E0,9.345909E0,0E0,0E0,0E0,0E0,0E0,0E0,0E0,0E0],"parents":[2147483647,0,0,1,1,2,2,3,3,4,4,5,5,6,6],"right_children":[2,4,6,8,10,12,14,-1,-1,-1,-1,-1,-1,-1,-1],"split_conditions":[1.41811E3,6E1,5.1E1,7.4E-1,1.3E0,1.54811E3,6.7E1,2.9215668E-3,-8.341612E-3,-3.3006043E-4,-6.8111536E-3,8.948134E-3,-5.3641475E-3,5.801546E-3,-1.9781308E-3],"split_indices":[6,0,0,4,4,6,0,0,0,0,0,0,0,0,0],"split_type":[0,0,0,0,0,0,0,0,0,0,0,0,0,0,0],"sum_hessian":[1.6109587E2,7.974324E1,8.135263E1,3.1245401E1,4.849784E1,2.0707188E1,6.064544E1,1.1759447E0,3.0069458E1,3.2436333E1,1.6061508E1,1.468315E0,1.9238873E1,3.3209282E1,2.7436157E1],"tree_param":{"num_deleted":"0","num_feature":"7","num_nodes":"15","size_leaf_vector":"1"}},{"base_weights":[-2.2224392E-1,-1.1508076E-1,-7.878352E-1,-6.071356E-1,4.0258747E-2,-5.0498676E-1,-9.2259496E-1,-7.0536146E-3,9.677695E-3,-6.2280595E-3,1.459648E-3,-9.73503E-3,1.3666246E-3,-9.641127E-3,-2.5152217E-3],"categories":[],"categories_nodes":[],"categories_segments":[],"categories_sizes":[],"default_left":[0,0,0,0,0,0,0,0,0,0,0,0,0,0,0],"id":75,"left_children":[1,3,5,7,9,11,13,-1,-1,-1,-1,-1,-1,-1,-1],"loss_changes":[9.976331E0,1.0787116E1,5.360317E-1,5.918833E0,7.657742E0,3.3471713E0,2.1984673E-1,0E0,0E0,0E0,0E0,0E0,0E0,0E0,0E0],"parents":[2147483647,0,0,1,1,2,2,3,3,4,4,5,5,6,6],"right_children":[2,4,6,8,10,12,14,-1,-1,-1,-1,-1,-1,-1,-1],"split_conditions":[1.44E0,5.1E1,6.3E1,5.72E0,1E0,5.4E1,4.6E0,-7.0536146E-3,9.677695E-3,-6.2280595E-3,1.459648E-3,-9.73503E-3,1.3666246E-3,-9.641127E-3,-2.5152217E-3],"split_indices":[4,0,0,5,3,0,5,0,0,0,0,0,0,0,0],"split_type":[0,0,0,0,0,0,0,0,0,0,0,0,0,0,0],"sum_hessian":[1.650931E2,1.3980716E2,2.5285938E1,3.2848263E1,1.069589E2,9.691558E0,1.5594381E1,3.1439522E1,1.4087397E0,1.4034227E1,9.2924675E1,5.3025665E0,4.3889914E0,1.4274572E1,1.3198087E0],"tree_param":{"num_deleted":"0","num_feature":"7","num_nodes":"15","size_leaf_vector":"1"}},{"base_weights":[-1.7925662E-1,-5.0078076E-1,1.199267E-1,-2.6919267E-1,-8.4113866E-1,-3.3948714E-1,2.6730967E-1,3.015792E-3,-5.488298E-3,-8.632103E-3,-8.743302E-4,-4.4311974E-3,8.88205E-3,5.8726836E-3,-1.4238277E-3],"categories":[],"categories_nodes":[],"categories_segments":[],"categories_sizes":[],"default_left":[0,0,0,0,0,0,0,0,0,0,0,0,0,0,0],"id":76,"left_children":[1,3,5,7,9,11,13,-1,-1,-1,-1,-1,-1,-1,-1],"loss_changes":[1.5996962E1,6.0832176E0,5.95611E0,8.003353E0,4.5589828E-1,3.1265364E0,8.754137E0,0E0,0E0,0E0,0E0,0E0,0E0,0E0,0E0],"parents":[2147483647,0,0,1,1,2,2,3,3,4,4,5,5,6,6],"right_children":[2,4,6,8,10,12,14,-1,-1,-1,-1,-1,-1,-1,-1],"split_conditions":[1.34911E3,1.23E0,5.1E1,4.2811E2,2.11E0,5.55E0,6.6E1,3.015792E-3,-5.488298E-3,-8.632103E-3,-8.743302E-4,-4.4311974E-3,8.88205E-3,5.8726836E-3,-1.4238277E-3],"split_indices":[6,4,0,6,4,5,0,0,0,0,0,0,0,0,0],"split_type":[0,0,0,0,0,0,0,0,0,0,0,0,0,0,0],"sum_hessian":[1.646735E2,7.9048454E1,8.5625046E1,4.810649E1,3.0941963E1,2.048061E1,6.514443E1,1.5792894E1,3.23136E1,2.9920477E1,1.0214849E0,1.9475681E1,1.0049287E0,3.6334633E1,2.8809803E1],"tree_param":{"num_deleted":"0","num_feature":"7","num_nodes":"15","size_leaf_vector":"1"}},{"base_weights":[-2.3841527E-1,-8.415605E-1,-1.2484193E-1,-8.66331E-3,-1.6167244E-3,-1.9812961E-1,7.96089E-1,-8.747898E-3,-1.3381088E-3,-2.0389827E-3,1.2751013E-2],"categories":[],"categories_nodes":[],"categories_segments":[],"categories_sizes":[],"default_left":[0,0,0,0,0,0,0,0,0,0,0],"id":77,"left_children":[1,3,5,-1,-1,7,9,-1,-1,-1,-1],"loss_changes":[1.1158126E1,2.9580116E-1,9.57585E0,0E0,0E0,5.543272E0,5.282605E0,0E0,0E0,0E0,0E0],"parents":[2147483647,0,0,1,1,2,2,5,5,6,6],"right_children":[2,4,6,-1,-1,8,10,-1,-1,-1,-1],"split_conditions":[1E0,5.55E0,1E0,-8.66331E-3,-1.6167244E-3,1.61E0,2.41E0,-8.747898E-3,-1.3381088E-3,-2.0389827E-3,1.2751013E-2],"split_indices":[3,5,1,0,0,5,5,0,0,0,0],"split_type":[0,0,0,0,0,0,0,0,0,0,0],"sum_hessian":[1.634232E2,2.48808E1,1.385424E2,2.374159E1,1.1392093E0,1.2905692E2,9.48549E0,1.0108662E1,1.1894825E2,3.2581353E0,6.227355E0],"tree_param":{"num_deleted":"0","num_feature":"7","num_nodes":"11","size_leaf_vector":"1"}},{"base_weights":[-1.5030956E-1,-6.5787745E-1,4.8243636E-3,-7.23402E-1,2.2047773E-2,-4.7171354E-1,1.4473596E-1,-7.5610187E-3,-1.5333438E-3,-6.4188596E-3,4.916847E-3,1.6094062E-4,-7.0371483E-3,-3.5853166E-4,5.2579944E-3],"categories":[],"categories_nodes":[],"categories_segments":[],"categories_sizes":[],"default_left":[0,0,0,0,0,0,0,0,0,0,0,0,0,0,0],"id":78,"left_children":[1,3,5,7,9,11,13,-1,-1,-1,-1,-1,-1,-1,-1],"loss_changes":[1.2774696E1,1.7078667E0,8.417105E0,5.303154E-1,1.6590382E0,3.2542949E0,6.732877E0,0E0,0E0,0E0,0E0,0E0,0E0,0E0,0E0],"parents":[2147483647,0,0,1,1,2,2,3,3,4,4,5,5,6,6],"right_children":[2,4,6,8,10,12,14,-1,-1,-1,-1,-1,-1,-1,-1],"split_conditions":[2.19E0,1E0,5.1E1,8.4E1,5.4E1,2.99E0,3.58E0,-7.5610187E-3,-1.5333438E-3,-6.4188596E-3,4.916847E-3,1.6094062E-4,-7.0371483E-3,-3.5853166E-4,5.2579944E-3],"split_indices":[5,1,0,0,0,5,5,0,0,0,0,0,0,0,0],"split_type":[0,0,0,0,0,0,0,0,0,0,0,0,0,0,0],"sum_hessian":[1.6119661E2,3.697639E1,1.2422022E2,3.3667866E1,3.3085277E0,2.7655224E1,9.6565E1,3.1532766E1,2.1350987E0,1.2187663E0,2.0897613E0,9.213494E0,1.8441729E1,6.613092E1,3.0434078E1],"tree_param":{"num_deleted":"0","num_feature":"7","num_nodes":"15","size_leaf_vector":"1"}},{"base_weights":[-2.555276E-1,-5.761641E-1,3.745643E-2,-1.7798628E-1,-7.876377E-1,-4.793621E-2,9.360297E-1,-3.7149626E-3,3.6827736E-3,-8.103023E-3,-2.512435E-3,1.2019492E-3,-5.018674E-3,2.2901343E-4,1.1862777E-2],"categories":[],"categories_nodes":[],"categories_segments":[],"categories_sizes":[],"default_left":[0,0,0,0,0,0,0,0,0,0,0,0,0,0,0],"id":79,"left_children":[1,3,5,7,9,11,13,-1,-1,-1,-1,-1,-1,-1,-1],"loss_changes":[1.5169852E1,6.3480606E0,6.582285E0,3.0987473E0,4.0468788E-1,6.0709734E0,1.6735306E0,0E0,0E0,0E0,0E0,0E0,0E0,0E0,0E0],"parents":[2147483647,0,0,1,1,2,2,3,3,4,4,5,5,6,6],"right_children":[2,4,6,8,10,12,14,-1,-1,-1,-1,-1,-1,-1,-1],"split_conditions":[1.34011E3,4.2811E2,1E0,3.2211E2,1.30011E3,2.18311E3,2.41E0,-3.7149626E-3,3.6827736E-3,-8.103023E-3,-2.512435E-3,1.2019492E-3,-5.018674E-3,2.2901343E-4,1.1862777E-2],"split_indices":[6,6,1,6,6,6,5,0,0,0,0,0,0,0,0],"split_type":[0,0,0,0,0,0,0,0,0,0,0,0,0,0,0],"sum_hessian":[1.602524E2,7.6053856E1,8.419854E1,2.7020096E1,4.903376E1,7.775594E1,6.4426E0,2.0188423E1,6.8316717E0,4.655595E1,2.4778066E0,5.727655E1,2.0479391E1,1.6206255E0,4.8219743E0],"tree_param":{"num_deleted":"0","num_feature":"7","num_nodes":"15","size_leaf_vector":"1"}},{"base_weights":[-2.1484311E-1,-4.6368635E-1,2.704102E-2,-1.1158972E-1,-6.318043E-1,-4.353618E-1,2.2706658E-1,2.3883793E-3,-6.80303E-3,-7.4231285E-3,-2.3059584E-3,4.1744257E-3,-6.165295E-3,5.8031357E-3,-5.7005335E-4],"categories":[],"categories_nodes":[],"categories_segments":[],"categories_sizes":[],"default_left":[0,0,0,0,0,0,0,0,0,0,0,0,0,0,0],"id":80,"left_children":[1,3,5,7,9,11,13,-1,-1,-1,-1,-1,-1,-1,-1],"loss_changes":[9.805298E0,4.6797104E0,7.816935E0,5.572979E0,2.2274628E0,4.203286E0,5.944125E0,0E0,0E0,0E0,0E0,0E0,0E0,0E0,0E0],"parents":[2147483647,0,0,1,1,2,2,3,3,4,4,5,5,6,6],"right_children":[2,4,6,8,10,12,14,-1,-1,-1,-1,-1,-1,-1,-1],"split_conditions":[1.34911E3,3.8911E2,5.3E1,1.25E0,7.1E1,1.54811E3,6.5E1,2.3883793E-3,-6.80303E-3,-7.4231285E-3,-2.3059584E-3,4.1744257E-3,-6.165295E-3,5.8031357E-3,-5.7005335E-4],"split_indices":[6,6,0,4,0,6,0,0,0,0,0,0,0,0,0],"split_type":[0,0,0,0,0,0,0,0,0,0,0,0,0,0,0],"sum_hessian":[1.6169412E2,7.9248566E1,8.244556E1,2.614847E1,5.3100094E1,2.4539833E1,5.7905724E1,1.6538115E1,9.610355E0,4.09662E1,1.2133892E1,4.0712423E0,2.0468592E1,2.5345472E1,3.2560253E1],"tree_param":{"num_deleted":"0","num_feature":"7","num_nodes":"15","size_leaf_vector":"1"}},{"base_weights":[-1.69862E-1,-5.181098E-1,1.3804956E-1,-1.5924533E-1,-7.16414E-1,-5.7587564E-1,2.0827152E-1,1.7526713E-3,-6.9907247E-3,-7.6937424E-3,-2.8195456E-4,-2.8577794E-3,-8.878712E-3,1.3146333E-2,1.230396E-3],"categories":[],"categories_nodes":[],"categories_segments":[],"categories_sizes":[],"default_left":[0,0,0,0,0,0,0,0,0,0,0,0,0,0,0],"id":81,"left_children":[1,3,5,7,9,11,13,-1,-1,-1,-1,-1,-1,-1,-1],"loss_changes":[1.7475561E1,5.3210773E0,4.4780974E0,5.263371E0,1.7608528E0,4.7491026E-1,7.3708205E0,0E0,0E0,0E0,0E0,0E0,0E0,0E0,0E0],"parents":[2147483647,0,0,1,1,2,2,3,3,4,4,5,5,6,6],"right_children":[2,4,6,8,10,12,14,-1,-1,-1,-1,-1,-1,-1,-1],"split_conditions":[1.34011E3,4.2811E2,7.9E-1,1.25E0,1E0,2.92E0,8.5E-1,1.7526713E-3,-6.9907247E-3,-7.6937424E-3,-2.8195456E-4,-2.8577794E-3,-8.878712E-3,1.3146333E-2,1.230396E-3],"split_indices":[6,6,4,4,1,5,4,0,0,0,0,0,0,0,0],"split_type":[0,0,0,0,0,0,0,0,0,0,0,0,0,0,0],"sum_hessian":[1.6130641E2,7.537485E1,8.5931564E1,2.7468699E1,4.7906147E1,7.050499E0,7.8881065E1,1.737644E1,1.0092258E1,4.4373558E1,3.532587E0,4.646287E0,2.404212E0,4.6104484E0,7.4270615E1],"tree_param":{"num_deleted":"0","num_feature":"7","num_nodes":"15","size_leaf_vector":"1"}},{"base_weights":[-2.1992116E-1,-5.3850955E-1,6.060014E-2,7.998956E-3,-5.7854545E-1,-3.869032E-1,2.6598233E-1,-8.568889E-3,-4.56648E-3,-4.647383E-3,7.6702987E-3,3.3685365E-3,-7.0856786E-3],"categories":[],"categories_nodes":[],"categories_segments":[],"categories_sizes":[],"default_left":[0,0,0,0,0,0,0,0,0,0,0,0,0],"id":82,"left_children":[1,3,5,-1,7,9,11,-1,-1,-1,-1,-1,-1],"loss_changes":[1.4478579E1,4.52372E0,8.085625E0,0E0,2.125082E0,2.847053E0,4.391353E0,0E0,0E0,0E0,0E0,0E0,0E0],"parents":[2147483647,0,0,1,1,2,2,4,4,5,5,6,6],"right_children":[2,4,6,-1,8,10,12,-1,-1,-1,-1,-1,-1],"split_conditions":[1.30011E3,6.6E-1,5.3E1,7.998956E-3,2.16E0,5.39E0,1.74E0,-8.568889E-3,-4.56648E-3,-4.647383E-3,7.6702987E-3,3.3685365E-3,-7.0856786E-3],"split_indices":[6,4,0,0,5,5,4,0,0,0,0,0,0],"split_type":[0,0,0,0,0,0,0,0,0,0,0,0,0],"sum_hessian":[1.6064047E2,7.478611E1,8.5854355E1,1.6208678E0,7.3165245E1,2.67297E1,5.9124657E1,2.044685E1,5.2718395E1,2.5600174E1,1.1295261E0,5.5726463E1,3.3981953E0],"tree_param":{"num_deleted":"0","num_feature":"7","num_nodes":"13","size_leaf_vector":"1"}},{"base_weights":[-1.9387205E-1,-8.116845E-2,-5.4441226E-1,4.026884E-1,-1.7265505E-1,-6.111999E-1,3.983063E-1,6.0294443E-3,-6.016428E-3,-5.9070974E-3,1.310488E-3,-4.635881E-3,-8.970034E-3,-1.1212771E-3,7.0031574E-3],"categories":[],"categories_nodes":[],"categories_segments":[],"categories_sizes":[],"default_left":[0,0,0,0,0,0,0,0,0,0,0,0,0,0,0],"id":83,"left_children":[1,3,5,7,9,11,13,-1,-1,-1,-1,-1,-1,-1,-1],"loss_changes":[6.4180856E0,5.600687E0,2.7380362E0,4.4191995E0,1.3508095E1,1.1617355E0,5.7593894E-1,0E0,0E0,0E0,0E0,0E0,0E0,0E0,0E0],"parents":[2147483647,0,0,1,1,2,2,3,3,4,4,5,5,6,6],"right_children":[2,4,6,8,10,12,14,-1,-1,-1,-1,-1,-1,-1,-1],"split_conditions":[1.33E0,3.8911E2,1E0,1.25E0,1.41811E3,1.6E0,1.25011E3,6.0294443E-3,-6.016428E-3,-5.9070974E-3,1.310488E-3,-4.635881E-3,-8.970034E-3,-1.1212771E-3,7.0031574E-3],"split_indices":[4,6,1,4,6,4,6,0,0,0,0,0,0,0,0],"split_type":[0,0,0,0,0,0,0,0,0,0,0,0,0,0,0],"sum_hessian":[1.6257228E2,1.2395164E2,3.862064E1,1.9168919E1,1.0478272E2,3.6393948E1,2.226695E0,1.6315405E1,2.8535125E0,4.3693157E1,6.108956E1,2.5728003E1,1.0665944E1,1.0614458E0,1.1652491E0],"tree_param":{"num_deleted":"0","num_feature":"7","num_nodes":"15","size_leaf_vector":"1"}},{"base_weights":[-1.5668291E-1,-6.6097057E-1,-5.910669E-2,-7.1879935E-1,4.0293206E-3,8.029389E-3,-8.7309307E-1,-9.884087E-3,-5.761509E-3,-4.666201E-3,1.2628462E-3,-9.4329575E-3,-1.431116E-3],"categories":[],"categories_nodes":[],"categories_segments":[],"categories_sizes":[],"default_left":[0,0,0,0,0,0,0,0,0,0,0,0,0],"id":84,"left_children":[1,3,5,7,-1,9,11,-1,-1,-1,-1,-1,-1],"loss_changes":[8.041967E0,